/*!
 * The following copyright notice may not be removed under any circumstances.
 * 
 * Copyright:
 * Copyright (c) 2008 by Jos Buivenga. All rights reserved.
 * 
 * Description:
 * This is a protected webfont and is intended for CSS @font-face use ONLY.
 * Reverse engineering this font is strictly prohibited.
 */
Cufon.registerFont({"w":524,"face":{"font-family":"","font-weight":400,"font-stretch":"normal","units-per-em":"1000","panose-1":"2 0 0 0 0 0 0 0 0 0","ascent":"750","descent":"-250","x-height":"12","bbox":"-152 -892 999 210.009","underline-thickness":"50","underline-position":"-50","unicode-range":"U+0020-U+2122"},"glyphs":{" ":{"w":257},"!":{"d":"93,-194r93,-512r101,0r-107,512r-87,0xm49,0r20,-98r100,0r-19,98r-101,0","w":314},"\"":{"d":"246,-530r37,-188r76,0r-37,188r-76,0xm106,-530r36,-188r76,0r-36,188r-76,0","w":339},"#":{"d":"79,0r70,-191r-128,0r26,-74r129,0r63,-168r-128,0r27,-73r127,0r74,-200r83,0r-74,200r156,0r74,-200r83,0r-74,200r128,0r-27,73r-128,0r-63,168r128,0r-27,74r-128,0r-70,191r-83,0r70,-191r-155,0r-70,191r-83,0xm259,-265r155,0r63,-168r-155,0","w":714},"$":{"d":"357,-626v-94,0,-205,103,-121,175v87,75,253,91,256,249v2,117,-110,211,-229,213r-18,91r-70,0r17,-94v-75,-11,-136,-40,-179,-89r63,-70v27,35,103,71,171,71v71,0,148,-49,145,-122v-2,-56,-57,-85,-100,-108v-80,-41,-183,-80,-185,-197v-2,-115,113,-204,227,-210r18,-92r70,0r-18,94v67,8,120,31,157,69r-56,73v-25,-27,-91,-53,-148,-53","w":566},"%":{"d":"406,-586v0,83,-90,164,-174,164v-79,0,-135,-53,-135,-131v0,-82,90,-165,174,-165v78,0,135,55,135,132xm12,0r667,-706r99,0r-667,706r-99,0xm176,-555v0,35,26,59,63,59v46,0,88,-42,88,-88v0,-36,-27,-61,-63,-61v-44,0,-88,44,-88,90xm518,12v-79,0,-135,-53,-135,-131v0,-82,89,-165,173,-165v78,0,135,55,135,132v0,83,-90,164,-173,164xm550,-211v-44,0,-89,46,-89,90v0,35,27,59,64,59v44,0,88,-43,88,-88v0,-36,-27,-61,-63,-61","w":767},"&":{"d":"255,12v-129,0,-224,-67,-224,-186v0,-98,81,-186,166,-206r0,-2v-40,-19,-69,-60,-69,-121v0,-161,174,-252,339,-201r-39,76v-103,-26,-201,31,-201,127v0,57,37,86,111,86r131,0r19,-96r97,0r-18,96r93,0r-17,86r-93,0r-19,94v-33,165,-125,247,-276,247xm318,-329v-96,-1,-185,52,-183,149v1,64,52,101,122,101v97,0,157,-53,178,-160r18,-90r-135,0","w":681},"'":{"d":"106,-530r36,-188r78,0r-37,188r-77,0","w":200},"(":{"d":"116,95v-35,-87,-52,-177,-52,-268v0,-213,69,-401,207,-562r88,0v-139,173,-208,361,-208,564v0,93,15,182,46,266r-81,0","w":299},")":{"d":"35,95r-88,0v139,-175,208,-363,208,-564v0,-93,-15,-182,-46,-266r81,0v35,86,52,175,52,268v0,212,-69,399,-207,562","w":300},"*":{"d":"158,-329r-65,-53r111,-112r0,-2r-126,-36r43,-82r123,50r20,-142r91,0r-36,142r144,-50r12,85r-147,39r-1,2r66,108r-76,52r-57,-119r-2,0","w":463},"+":{"d":"238,0r48,-246r-224,0r15,-78r223,0r49,-246r82,0r-49,246r223,0r-14,78r-223,0r-48,246r-82,0","w":672},",":{"d":"-49,101r102,-206r103,0r-126,206r-79,0","w":258},"-":{"d":"76,-242r16,-86r292,0r-16,86r-292,0","w":467},".":{"d":"17,0r20,-105r104,0r-20,105r-104,0","w":250},"\/":{"d":"58,42r-91,0r406,-786r92,0","w":403},"0":{"d":"60,-221v1,-148,43,-281,104,-375v43,-64,117,-122,217,-122v139,0,209,78,209,233v-1,148,-43,281,-104,375v-43,64,-117,122,-218,122v-139,0,-208,-78,-208,-233xm162,-223v0,96,37,144,110,144v112,0,154,-106,184,-200v19,-63,30,-129,31,-202v0,-97,-36,-146,-109,-146v-134,0,-177,153,-203,275v-9,45,-13,88,-13,129","w":629},"1":{"d":"1,0r15,-86r156,0r97,-491r-2,0v-26,34,-82,73,-118,104r-52,-68r204,-165r89,0r-121,620r153,0r-16,86r-405,0","w":486},"2":{"d":"268,-704v137,-45,292,25,284,163v-12,218,-241,257,-364,370v-31,28,-51,56,-58,85r345,0r-16,86r-454,0v11,-232,217,-288,355,-394v42,-32,84,-74,86,-137v3,-78,-85,-113,-160,-85v-47,17,-80,48,-108,81r-70,-55v38,-47,91,-91,160,-114","w":572},"3":{"d":"494,-240v2,136,-128,256,-270,252v-105,-3,-181,-39,-228,-96r62,-69v33,39,89,70,164,71v85,1,171,-70,171,-154v0,-74,-66,-105,-143,-105r-51,0r-12,-53r185,-181r53,-46r0,-2v-87,7,-199,1,-293,3r17,-86r422,0r-13,63r-233,224v97,14,167,68,169,179","w":566},"4":{"d":"10,-189r12,-62r406,-455r122,0r-85,433r96,0r-16,84r-96,0r-37,189r-97,0r36,-189r-341,0xm144,-273r224,0r50,-257r17,-70r-2,0v-15,21,-31,41,-46,58","w":607},"5":{"d":"506,-258v0,146,-139,270,-285,270v-95,0,-169,-35,-213,-98r64,-67v29,39,78,70,148,71v90,1,183,-78,183,-171v0,-94,-103,-138,-199,-108v-30,9,-44,14,-63,26r-56,-22r104,-349r359,0r-17,86r-271,0r-57,184v29,-11,58,-20,93,-20v118,0,210,83,210,198","w":566},"6":{"d":"540,-263v0,138,-115,275,-259,275v-142,0,-229,-109,-226,-258v2,-114,48,-223,100,-303v65,-103,197,-197,367,-161v34,7,47,10,67,22r-45,81v-91,-39,-193,-20,-257,49v-44,47,-79,103,-100,168r2,0v31,-36,96,-67,158,-67v118,-2,193,78,193,194xm155,-237v0,79,48,158,125,158v91,0,161,-87,161,-181v0,-71,-47,-113,-121,-113v-74,0,-165,61,-165,136","w":600},"7":{"d":"19,0r383,-556v19,-27,37,-49,54,-65r0,-2v-11,2,-28,3,-51,3r-309,0r17,-86r472,0r-13,68r-443,638r-110,0","w":530},"8":{"d":"261,12v-128,0,-226,-70,-224,-192v2,-109,86,-172,153,-216v-40,-33,-60,-72,-60,-117v1,-116,114,-205,245,-205v117,0,204,56,204,166v0,97,-71,163,-123,211v50,35,75,77,75,127v2,128,-133,226,-270,226xm263,-77v81,0,166,-55,166,-136v0,-48,-45,-71,-73,-89v-18,-12,-69,-36,-96,-49v-54,34,-116,81,-119,166v-2,66,56,108,122,108xm371,-629v-83,0,-165,59,-137,141v21,60,93,77,150,107v63,-54,94,-109,94,-164v0,-56,-46,-84,-107,-84","w":610},"9":{"d":"342,-718v142,0,228,109,225,258v-4,150,-69,270,-144,357v-53,61,-140,114,-246,115v-61,0,-109,-10,-145,-30r45,-81v92,39,193,20,257,-49v44,-47,79,-103,100,-168r-2,0v-27,34,-95,66,-157,66v-119,0,-193,-77,-193,-193v0,-138,116,-275,260,-275xm180,-446v0,70,47,113,120,113v74,0,166,-62,166,-137v0,-80,-47,-157,-125,-157v-91,0,-161,87,-161,181","w":601},":":{"d":"113,-401r21,-105r104,0r-20,105r-105,0xm35,0r20,-105r105,0r-21,105r-104,0","w":291},";":{"d":"123,-401r20,-105r102,0r-20,105r-102,0xm-36,101r102,-206r103,0r-125,206r-80,0","w":296},"<":{"d":"29,-252r0,-66r466,-208r0,89r-358,151r0,2r358,151r0,89","w":572},"=":{"d":"93,-340r0,-78r477,0r0,78r-477,0xm93,-151r0,-78r477,0r0,78r-477,0","w":672},">":{"d":"69,-44r0,-89r357,-151r0,-2r-357,-151r0,-89r466,208r0,66","w":569},"?":{"d":"184,-704v129,-47,280,12,277,144v-3,147,-130,185,-203,264v-28,31,-33,60,-42,102r-94,0v9,-50,18,-90,44,-128v47,-68,126,-98,172,-163v14,-19,20,-40,20,-63v0,-51,-42,-82,-96,-81v-43,1,-83,15,-122,42r-43,-75v29,-19,39,-25,87,-42xm82,0r20,-98r100,0r-19,98r-101,0","w":483},"@":{"d":"358,125v-177,4,-322,-127,-317,-300v6,-201,125,-331,271,-401v100,-48,270,-46,340,12v49,41,64,101,49,178r-50,261r71,0r-14,73r-262,0v-106,3,-183,-65,-184,-164v-1,-113,115,-218,236,-212r118,0v12,-76,-61,-103,-141,-103v-174,0,-337,178,-337,351v0,135,95,231,235,228xm505,-361v-75,-3,-145,69,-145,143v0,55,41,93,97,93r100,0r46,-236r-98,0","w":810},"A":{"d":"58,0r-106,0r387,-706r110,0r115,706r-99,0r-31,-203r-266,0xm209,-285r215,0r-35,-224r-10,-100r-2,0v-53,127,-109,210,-168,324","w":626},"B":{"d":"475,-371v52,18,87,70,87,139v0,108,-67,183,-149,214v-31,12,-65,18,-104,18r-271,0r138,-706r227,0v86,-1,132,19,166,66v17,24,25,54,25,88v0,86,-54,153,-119,179r0,2xm493,-541v-1,-52,-34,-80,-88,-79r-147,0r-42,211r149,0v71,2,129,-60,128,-132xm460,-234v0,-59,-40,-94,-101,-93r-158,0r-47,241r159,0v62,-1,100,-29,125,-68v15,-24,22,-50,22,-80","w":636},"C":{"d":"459,1v-226,52,-408,-82,-405,-295v3,-166,101,-297,212,-367v122,-76,322,-69,422,4v20,14,27,19,39,33r-59,68v-32,-36,-118,-71,-193,-71v-171,0,-319,159,-319,328v0,127,85,220,215,220v81,0,168,-36,235,-91r43,78v-50,38,-112,75,-190,93","w":723},"D":{"d":"394,-706v186,-2,313,95,312,275v-1,172,-85,304,-201,373v-64,38,-136,58,-216,58r-250,0r137,-706r218,0xm605,-423v0,-129,-87,-198,-218,-197r-129,0r-104,534r128,0v186,4,323,-151,323,-337","w":739},"E":{"d":"38,0r139,-706r409,0r-17,86r-311,0r-43,221r253,0r-17,86r-253,0r-44,227r328,0r-16,86r-428,0","w":572},"F":{"d":"38,0r138,-706r388,0r-17,86r-290,0r-45,232r246,0r-16,86r-247,0r-59,302r-98,0","w":522},"G":{"d":"351,12v-169,2,-297,-127,-297,-300v0,-225,200,-430,424,-430v105,0,192,29,253,84r-60,69v-43,-35,-110,-60,-191,-62v-177,-4,-323,160,-323,334v0,127,86,214,211,214v75,0,157,-37,219,-93r19,-97r-114,0r16,-86r205,0r-69,355r-86,0r15,-74r-2,0v-48,46,-125,85,-220,86","w":760},"H":{"d":"38,0r138,-706r98,0r-61,311r367,0r61,-311r98,0r-138,706r-98,0r60,-310r-367,0r-60,310r-98,0","w":755},"I":{"d":"38,0r138,-706r98,0r-137,706r-99,0","w":291},"J":{"d":"290,-8v-125,55,-285,-3,-285,-147v0,-30,6,-57,11,-83r98,0r-5,29v-15,76,10,132,85,130v73,-3,120,-52,134,-125r81,-416r-177,0r17,-86r275,0r-99,511v-15,87,-69,158,-135,187","w":532},"K":{"d":"38,0r138,-706r98,0r-58,297r101,0r240,-297r115,0r-276,339r146,367r-105,0r-126,-324r-112,0r-63,324r-98,0","w":623},"L":{"d":"38,0r138,-706r99,0r-121,620r316,0r-18,86r-414,0","w":523},"M":{"d":"15,0r193,-706r103,0r88,382r16,95r2,0v20,-37,38,-68,54,-95r237,-382r106,0r-81,706r-97,0r53,-445v3,-29,9,-63,18,-104r-2,0v-23,44,-42,79,-58,104r-202,318r-89,0r-79,-318r-18,-106r-2,0v-6,42,-13,77,-21,106r-122,445r-99,0","w":865},"N":{"d":"38,0r138,-706r91,0r226,459v12,25,25,59,38,102r2,0v3,-42,8,-76,13,-102r89,-459r99,0r-138,706r-91,0r-226,-458v-13,-26,-26,-60,-39,-103r-2,0v-3,42,-8,76,-13,103r-89,458r-98,0","w":750},"O":{"d":"367,12v-183,0,-316,-129,-314,-308v1,-165,103,-300,217,-365v65,-37,133,-57,204,-57v181,0,317,123,315,300v-1,167,-105,306,-219,372v-65,38,-133,58,-203,58xm473,-627v-162,0,-319,159,-319,327v0,127,89,221,214,221v81,0,154,-33,220,-99v66,-66,99,-145,99,-235v0,-125,-89,-214,-214,-214","w":819},"P":{"d":"418,-706v124,0,196,63,199,180v3,116,-70,207,-154,244v-74,32,-176,17,-275,21r-51,261r-99,0r138,-706r242,0xm515,-519v0,-67,-44,-102,-114,-101r-143,0r-54,273v76,-3,165,10,219,-16v52,-25,92,-81,92,-156","w":608},"Q":{"d":"367,12v-183,0,-316,-129,-314,-308v1,-165,103,-300,217,-365v65,-37,133,-57,204,-57v180,0,314,124,314,300v0,114,-44,214,-131,300r65,78r-63,58r-66,-83v-68,51,-143,77,-226,77xm473,-627v-162,0,-319,159,-319,327v0,127,88,223,214,221v58,0,114,-19,167,-56r-68,-83r63,-58r67,85v59,-65,89,-139,89,-222v0,-124,-89,-214,-213,-214","w":830},"R":{"d":"606,-540v0,113,-75,210,-170,233r111,307r-105,0r-97,-281r-154,0r-54,281r-99,0r138,-706r240,0v118,-2,191,61,190,166xm504,-526v0,-60,-43,-95,-105,-94r-142,0r-49,253r139,0v88,1,157,-68,157,-159","w":638},"S":{"d":"452,-297v95,147,-54,309,-217,309v-97,0,-178,-34,-232,-93r62,-70v36,38,95,71,172,71v71,1,147,-49,144,-122v-2,-56,-58,-85,-101,-108v-80,-41,-180,-81,-183,-197v-3,-120,125,-211,251,-211v85,0,165,30,203,72r-56,73v-25,-27,-91,-53,-148,-53v-94,0,-204,102,-121,175v66,58,176,77,226,154","w":547},"T":{"d":"185,0r121,-620r-242,0r16,-86r583,0r-16,86r-243,0r-120,620r-99,0","w":589},"U":{"d":"319,12v-158,0,-274,-98,-241,-266r88,-452r98,0r-88,455v-21,106,40,174,145,172v115,-2,192,-72,212,-174r89,-453r98,0r-90,461v-26,147,-144,257,-311,257","w":727},"V":{"d":"201,0r-120,-706r103,0r78,499v4,25,7,58,8,97r2,0v17,-39,33,-72,46,-97r273,-499r111,0r-395,706r-106,0","w":630},"W":{"d":"157,0r-47,-706r101,0r26,518r0,75r2,0v9,-24,19,-49,31,-75r244,-518r90,0r31,518r0,75r2,0v9,-25,18,-50,29,-75r225,-518r108,0r-318,706r-116,0r-31,-458r0,-100r-2,0v-14,36,-28,69,-42,99r-219,459r-114,0","w":953},"X":{"d":"-36,0r292,-368r-142,-338r107,0r75,188r30,84r2,0v63,-96,138,-181,206,-272r117,0r-279,346r155,360r-105,0r-89,-214r-29,-81r-2,0v-71,102,-151,197,-226,295r-112,0","w":605},"Y":{"d":"177,0r59,-299r-156,-407r106,0r85,232v9,26,18,56,26,89r2,0v74,-114,155,-213,233,-321r119,0r-318,410r-58,296r-98,0","w":579},"Z":{"d":"-18,0r13,-66r427,-490r56,-58v2,-3,7,-4,8,-9v-112,7,-247,1,-366,3r17,-86r495,0r-13,65r-428,491v-20,22,-44,47,-64,64r0,2v12,-1,29,-2,52,-2r335,0r-16,86r-516,0","w":602},"[":{"d":"121,21r81,0r-15,74r-166,0r162,-830r166,0r-15,73r-81,0","w":299},"\\":{"d":"213,42r-101,-786r82,0r101,786r-82,0","w":394},"]":{"d":"-31,21r80,0r132,-683r-80,0r14,-73r166,0r-161,830r-166,0","w":294},"^":{"d":"11,-247r200,-459r63,0r199,459r-87,0r-144,-352r-143,352r-88,0","w":613},"_":{"d":"-33,0r538,0r-15,78r-537,0","w":588},"`":{"d":"191,-755r-70,-127r100,0r47,127r-77,0","w":499},"a":{"d":"213,2v-99,34,-215,-18,-213,-118v2,-127,115,-174,226,-192v43,-7,87,-9,136,-8v15,-70,-9,-122,-87,-120v-56,2,-117,25,-151,48r-26,-77v36,-26,123,-53,191,-53v103,0,177,46,176,150v0,19,-2,37,-6,56r-61,312r-90,0v5,-21,14,-84,21,-91v-4,-1,-2,3,-9,11v-26,32,-60,66,-107,82xm99,-132v1,42,33,67,81,66v88,-2,157,-96,170,-177r-25,0v-151,0,-226,37,-226,111"},"b":{"d":"277,12v-74,0,-133,-37,-154,-92r-2,0v0,27,-7,56,-12,80r-92,0r137,-706r97,0r-44,229r-13,46r2,0v31,-46,96,-86,168,-87v122,-1,190,84,190,208v0,169,-123,323,-277,322xm341,-433v-106,0,-186,121,-186,233v0,73,38,129,113,128v104,-1,187,-111,187,-231v0,-77,-41,-130,-114,-130","w":599},"c":{"d":"264,12v-139,0,-238,-87,-238,-220v0,-165,148,-310,312,-310v82,0,147,26,191,73r-54,63v-21,-26,-81,-51,-132,-52v-113,-2,-218,104,-218,219v0,85,61,145,148,143v67,-1,135,-35,170,-68r27,77v-36,35,-128,75,-206,75","w":546},"d":{"d":"218,12v-122,1,-191,-83,-191,-207v0,-171,123,-324,280,-323v69,0,129,32,148,85r2,0v0,-13,1,-25,4,-37r46,-236r97,0r-137,706r-93,0r19,-85r-2,0v-34,50,-93,97,-173,97xm313,-433v-104,1,-187,111,-187,231v0,77,42,130,115,130v105,0,185,-124,185,-233v0,-73,-38,-129,-113,-128","w":600},"e":{"d":"266,12v-138,2,-239,-84,-239,-216v0,-164,130,-314,294,-314v157,0,226,133,177,279r-369,0v-17,98,46,169,141,167v62,-1,127,-31,161,-59r28,77v-35,30,-123,65,-193,66xm415,-312v12,-74,-27,-131,-96,-129v-84,1,-149,61,-174,129r270,0","w":551},"f":{"d":"45,0r82,-422r-63,0r15,-79r63,0v20,-138,104,-226,268,-207r-18,83v-90,-13,-143,37,-153,124r119,0r-15,79r-119,0r-82,422r-97,0","w":335},"g":{"d":"223,-6v-121,2,-194,-85,-193,-205v2,-113,49,-205,122,-259v42,-31,90,-48,145,-48v81,0,132,27,154,80r2,0v1,-25,8,-45,11,-68r92,0r-95,492v-24,141,-130,224,-280,224v-67,0,-128,-15,-182,-45r42,-72v68,42,189,44,257,-2v53,-35,65,-109,82,-179r-1,0v-40,55,-92,82,-156,82xm305,-434v-108,0,-176,108,-176,216v0,78,41,128,118,128v54,0,96,-25,127,-74v31,-49,47,-103,47,-161v0,-73,-39,-109,-116,-109","w":591},"h":{"d":"396,-518v91,0,150,43,149,134v0,18,-3,39,-8,64r-62,320r-97,0r58,-299v17,-72,6,-130,-68,-130v-105,0,-190,103,-209,198r-45,231r-97,0r137,-706r97,0r-50,259r-11,45r2,0v30,-55,116,-116,204,-116","w":601},"i":{"d":"134,-607r19,-99r100,0r-20,99r-99,0xm17,0r99,-506r97,0r-99,506r-97,0","w":248},"j":{"d":"134,-607r19,-99r100,0r-19,99r-100,0xm-136,121v87,7,138,-36,152,-110r100,-517r97,0r-102,522v-24,127,-106,205,-263,188","w":248},"k":{"d":"17,0r138,-706r97,0r-76,385r69,0r175,-185r117,0r-216,227r131,279r-105,0r-107,-237r-80,0r-46,237r-97,0"},"l":{"d":"179,2v-81,10,-147,-20,-144,-104v0,-11,2,-25,5,-43r109,-561r97,0r-105,544v-11,42,-7,80,40,79r16,-1","w":264},"m":{"d":"714,-518v91,0,142,44,142,134v0,19,-3,41,-8,68r-61,316r-97,0r59,-301v15,-68,5,-129,-66,-129v-98,0,-170,110,-187,199r-45,231r-96,0r58,-301v4,-22,6,-41,6,-57v0,-48,-23,-72,-70,-72v-97,0,-172,111,-189,200r-45,230r-97,0r98,-506r95,0r-13,65r-12,42r2,0v32,-58,109,-119,194,-119v81,0,126,38,133,115r2,0v34,-58,111,-115,197,-115","w":912},"n":{"d":"397,-518v91,0,149,43,148,134v0,16,-2,37,-7,64r-62,320r-97,0r58,-299v17,-72,6,-130,-68,-130v-107,0,-192,102,-210,198r-44,231r-97,0r98,-506r95,0v-6,38,-14,74,-25,107r2,0v30,-56,119,-119,209,-119","w":602},"o":{"d":"267,12v-137,0,-241,-90,-241,-223v0,-163,154,-307,313,-307v135,0,240,89,240,221v0,163,-154,309,-312,309xm338,-434v-110,0,-213,104,-213,219v0,84,60,143,143,143v108,0,212,-106,212,-220v0,-82,-60,-142,-142,-142","w":622},"p":{"d":"280,12v-72,0,-130,-34,-151,-88r-2,0v-1,14,-4,30,-7,47r-44,229r-97,0r137,-706r90,0v-5,29,-11,57,-19,83r2,0v34,-51,95,-95,176,-95v122,-1,190,84,190,208v0,168,-122,322,-275,322xm342,-433v-104,0,-186,122,-186,231v0,74,39,131,113,130v104,-1,187,-111,187,-231v0,-77,-41,-130,-114,-130","w":599},"q":{"d":"217,12v-121,0,-190,-83,-190,-206v0,-171,123,-325,280,-324v76,0,126,29,151,88r2,0v2,-23,8,-52,12,-76r93,0r-137,706r-97,0r44,-231r13,-47r-2,0v-31,47,-92,90,-169,90xm313,-433v-104,1,-187,111,-187,231v0,77,42,130,115,130v105,0,185,-124,185,-233v0,-73,-38,-129,-113,-128","w":600},"r":{"d":"183,-377v35,-72,106,-148,213,-133r-19,96v-66,-12,-105,14,-151,68v-39,46,-64,101,-76,162r-35,184r-97,0r98,-506r94,0r-18,88v-2,13,-9,30,-9,41","w":374},"s":{"d":"377,-145v0,118,-135,179,-263,149v-55,-13,-92,-35,-125,-65r53,-64v23,27,85,55,140,55v48,1,105,-27,102,-75v-2,-37,-45,-53,-78,-68v-64,-29,-142,-59,-144,-149v-3,-96,98,-157,194,-156v69,1,125,19,165,56r-48,67v-42,-51,-219,-65,-219,32v0,37,46,53,79,68v65,29,144,60,144,150","w":444},"t":{"d":"233,4v-128,4,-180,-78,-157,-199r44,-227r-66,0r15,-79r68,0r29,-144r94,0r-29,144r122,0r-15,79r-122,0r-42,221v-14,67,8,123,79,119r29,-2r-17,86v-11,1,-21,2,-32,2","w":353},"u":{"d":"186,12v-87,-1,-149,-43,-147,-134v0,-16,2,-37,7,-64r62,-320r97,0r-58,298v-15,69,-7,130,70,130v103,0,184,-107,202,-198r45,-230r97,0r-98,506r-95,0r12,-59r13,-48r-2,0v-33,57,-113,120,-205,119","w":596},"v":{"d":"132,0r-90,-506r96,0r55,344r5,69r2,0v11,-27,22,-50,32,-69r189,-344r104,0r-286,506r-107,0","w":493},"w":{"d":"120,0r-64,-506r97,0r36,357r2,54r2,0v8,-19,16,-37,24,-54r178,-356r90,0r39,356r3,54r2,0v7,-19,14,-37,23,-54r176,-357r104,0r-261,506r-107,0r-42,-327r-3,-54r-2,0v-8,19,-16,37,-25,54r-167,327r-105,0","w":810},"x":{"d":"-37,0r227,-263r-122,-243r104,0r70,151r11,32r2,0v45,-65,97,-121,145,-183r115,0r-214,250r127,256r-102,0r-78,-166r-12,-30r-2,0v-6,11,-12,20,-19,28r-138,168r-114,0","w":504},"y":{"d":"-47,108v14,12,32,18,55,18v42,0,78,-24,107,-73r37,-60r-116,-499r101,0r68,342v4,19,4,42,9,60v10,-22,20,-41,29,-58r190,-344r109,0r-355,599v-47,78,-105,117,-175,117v-41,0,-75,-11,-104,-33","w":509},"z":{"d":"-20,0r10,-56r313,-320r50,-47r0,-2v-84,5,-191,1,-281,2r16,-83r416,0r-10,56r-314,321r-51,46r0,2v11,-1,27,-2,49,-2r252,0r-16,83r-434,0","w":511},"{":{"d":"241,96v-92,9,-157,-36,-156,-128v1,-59,24,-112,26,-170v2,-45,-23,-73,-67,-80r17,-86v59,-9,94,-52,106,-111r18,-90v24,-119,94,-175,218,-167r-15,74v-70,-3,-105,30,-120,105r-22,110v-11,61,-48,102,-106,121r0,2v41,18,69,69,57,132v-9,47,-24,94,-26,144v-2,52,30,73,85,70","w":349},"|":{"d":"119,159r0,-951r85,0r0,951r-85,0","w":318},"}":{"d":"112,-736v110,-13,175,62,151,179v-10,50,-34,121,-1,162v16,20,26,23,49,27r-16,86v-60,8,-96,52,-107,111r-19,100v-23,119,-96,178,-218,167r14,-74v71,3,105,-30,121,-105v16,-74,21,-166,70,-207v18,-15,36,-29,59,-36r0,-2v-37,-14,-68,-71,-56,-130v9,-44,21,-86,23,-134v2,-51,-29,-73,-84,-70","w":345},"~":{"d":"201,-297v-48,0,-67,46,-67,93r-79,0v-1,-105,43,-167,140,-169v45,-1,87,26,107,49v18,21,48,49,84,49v49,0,67,-46,67,-94r79,0v0,113,-46,169,-139,169v-45,0,-87,-24,-107,-48v-18,-21,-48,-49,-85,-49","w":591},"\u00a0":{"w":257},"\u00a1":{"d":"113,-408r20,-98r101,0r-20,98r-101,0xm-4,200r107,-512r87,0r-93,512r-101,0","w":286},"\u00a2":{"d":"157,-294v0,80,41,132,120,131v70,-1,130,-51,155,-97r86,36v-44,72,-117,143,-227,153r-16,84r-71,0r17,-88v-98,-19,-165,-101,-164,-219v1,-123,60,-228,135,-285v42,-33,88,-51,138,-56r16,-83r71,0r-17,87v85,16,137,72,156,152r-88,33v-12,-55,-48,-98,-117,-98v-116,-2,-194,126,-194,250","w":577},"\u00a3":{"d":"500,-588v-17,-19,-64,-40,-103,-40v-71,-1,-127,48,-139,107r-26,132r185,0r-14,70r-185,0r-45,233r326,0r-17,86r-485,0r17,-86r59,0r45,-233r-44,0r14,-70r44,0r28,-143v16,-102,120,-186,239,-186v67,0,126,23,166,68","w":583},"\u00a5":{"d":"192,0r39,-199r-163,0r12,-63r163,0r8,-37r-18,-48r-136,0r12,-63r103,0r-108,-296r108,0v34,108,77,204,102,322r2,0v19,-37,39,-70,61,-101r160,-221r118,0r-223,296r102,0r-13,63r-135,0r-35,48r-8,37r162,0r-12,63r-162,0r-39,199r-100,0","w":605},"\u00a7":{"d":"101,-111r7,-390v2,-120,81,-217,208,-217v57,0,106,19,143,54r-53,58v-45,-43,-146,-41,-184,8v-21,27,-34,61,-35,102r-7,385r-79,0xm42,-51v44,43,146,41,184,-8v21,-27,34,-60,35,-101r7,-385r79,0r-7,389v-2,120,-82,218,-208,218v-57,0,-106,-19,-143,-54","w":437},"\u00a8":{"d":"232,-781r19,-101r80,0r-20,101r-79,0xm64,-781r20,-101r80,0r-20,101r-80,0","w":499},"\u00a9":{"d":"422,12v-194,0,-355,-170,-355,-365v0,-196,161,-365,355,-365v195,0,358,169,358,365v0,196,-163,365,-358,365xm422,-650v-157,0,-282,137,-282,297v0,160,125,297,282,297v159,0,285,-136,285,-297v0,-161,-126,-297,-285,-297xm429,-152v-113,2,-197,-90,-197,-200v0,-109,84,-200,197,-200v70,0,130,39,163,99r-61,33v-13,-27,-55,-62,-99,-63v-74,-2,-124,60,-124,131v0,74,48,133,124,131v45,-1,84,-32,99,-63r61,33v-29,51,-81,97,-163,99","w":829},"\u00aa":{"d":"298,-435v-15,25,-59,53,-101,53v-49,0,-93,-33,-93,-85v0,-86,84,-126,222,-122v10,-43,-4,-69,-50,-69v-32,1,-70,14,-90,27r-20,-51v35,-23,77,-34,126,-34v90,0,120,56,104,139r-37,188r-68,0r9,-46r-2,0xm179,-475v2,22,18,35,43,34v46,0,89,-55,94,-97v-82,-2,-140,18,-137,63xm64,-265r11,-57r275,0r-12,57r-274,0","w":418},"\u00ab":{"d":"365,-77r-129,-207r207,-204r104,0r-218,210r128,201r-92,0xm166,-77r-129,-207r191,-204r102,0r-200,210r128,201r-92,0","w":554},"\u00ac":{"d":"70,-340r0,-78r477,0r0,267r-81,0r0,-189r-396,0","w":630},"\u00ad":{"d":"3,-242r16,-86r292,0r-16,86r-292,0","w":431},"\u00ae":{"d":"422,12v-194,0,-355,-170,-355,-365v0,-196,161,-365,355,-365v195,0,358,169,358,365v0,196,-163,365,-358,365xm422,-650v-157,0,-282,137,-282,297v0,160,125,297,282,297v159,0,285,-136,285,-297v0,-161,-126,-297,-285,-297xm564,-428v0,50,-32,90,-69,100r85,162r-78,0r-70,-146r-61,0r0,146r-71,0r0,-377r145,0v70,-1,119,46,119,115xm492,-428v0,-38,-24,-61,-61,-61r-60,0r0,125r60,0v38,0,61,-25,61,-64","w":829},"\u00af":{"d":"64,-784r13,-70r254,0r-13,70r-254,0","w":499},"\u00b0":{"d":"398,-588v0,84,-87,166,-170,166v-77,0,-137,-54,-137,-130v0,-84,87,-166,170,-166v77,0,137,55,137,130xm169,-556v0,36,26,60,63,60v44,0,88,-42,88,-87v0,-36,-27,-62,-63,-62v-45,0,-88,44,-88,89","w":387},"\u00b1":{"d":"71,-246r0,-78r224,0r0,-246r82,0r0,246r223,0r0,78r-223,0r0,246r-82,0r0,-246r-224,0xm87,95r497,0r0,78r-497,0r0,-78","w":700},"\u00b2":{"d":"212,-870v74,-1,136,44,133,115v-5,132,-141,154,-217,217v-20,15,-32,32,-37,49r210,0r-13,66r-292,0v3,-122,96,-174,176,-220v42,-24,93,-53,95,-106v2,-50,-63,-64,-105,-40v-23,13,-34,22,-49,36r-44,-49v24,-29,88,-67,143,-68","w":389},"\u00b3":{"d":"325,-571v0,84,-82,160,-172,158v-63,-2,-123,-31,-149,-66r47,-49v15,22,62,46,103,46v49,0,96,-39,94,-88v-1,-49,-53,-64,-110,-59r-12,-38r108,-103r29,-24r0,-2v-54,7,-116,1,-174,3r12,-67r272,0r-9,48r-134,126v50,10,95,51,95,115","w":389},"\u00b4":{"d":"91,-755r98,-127r109,0r-120,127r-87,0","w":499},"\u00b5":{"d":"406,-107v-33,57,-113,119,-205,119v-41,0,-71,-11,-90,-33r-2,0v-5,90,-24,143,-37,221r-86,0r137,-706r97,0r-58,298v-15,69,-7,130,70,130v103,0,184,-107,202,-198r45,-230r97,0r-98,506r-95,0r12,-59r13,-48r-2,0","w":618},"\u03bc":{"d":"406,-107v-33,57,-113,119,-205,119v-41,0,-71,-11,-90,-33r-2,0v-5,90,-24,143,-37,221r-86,0r137,-706r97,0r-58,298v-15,69,-7,130,70,130v103,0,184,-107,202,-198r45,-230r97,0r-98,506r-95,0r12,-59r13,-48r-2,0","w":618},"\u00b6":{"d":"72,-444v0,-136,140,-262,274,-262r284,0r-16,86r-197,0r-130,670r-75,0r56,-291v-105,2,-196,-94,-196,-203xm349,50r118,-613r75,0r-119,613r-74,0","w":591},"\u00b7":{"d":"72,-237r20,-105r101,0r-20,105r-101,0","w":270},"\u00b8":{"d":"264,115v0,80,-96,107,-174,85r11,-57v35,11,92,10,95,-30v1,-23,-35,-29,-65,-25r50,-111r47,10v-4,25,-17,41,-24,63v32,5,60,27,60,65","w":499},"\u00b9":{"d":"21,-423r12,-66r93,0r47,-244r8,-26v-8,3,-11,13,-24,22r-40,32r-38,-52r127,-103r67,0r-72,371r92,0r-13,66r-259,0","w":389},"\u00ba":{"d":"453,-577v0,103,-98,193,-198,193v-83,0,-149,-57,-149,-139v0,-102,98,-194,197,-194v85,0,150,57,150,140xm179,-529v0,48,33,81,81,81v61,0,120,-60,120,-125v0,-46,-34,-80,-80,-80v-62,0,-121,60,-121,124xm69,-265r11,-57r313,0r-11,57r-313,0","w":464},"\u00bb":{"d":"218,-77r200,-210r-128,-201r92,0r129,207r-191,204r-102,0xm1,-77r218,-210r-128,-201r92,0r129,207r-208,204r-103,0","w":554},"\u00bc":{"d":"280,0r-80,0r472,-706r80,0xm51,-269r12,-66r93,0r47,-244r8,-26v-8,3,-11,13,-24,22r-40,32r-38,-52r127,-103r67,0r-72,371r92,0r-13,66r-259,0xm719,0r21,-107r-209,0r9,-50r252,-280r86,0r-52,264r62,0r-12,66r-62,0r-21,107r-74,0xm630,-173r122,0r24,-123r15,-58r-2,0v-48,67,-106,118,-159,179r0,2","w":960},"\u00bd":{"d":"282,0r-80,0r472,-706r80,0xm51,-269r12,-66r93,0r47,-244r8,-26v-8,3,-11,13,-24,22r-40,32r-38,-52r127,-103r67,0r-72,371r92,0r-13,66r-259,0xm759,-447v74,-1,136,44,133,115v-5,132,-140,154,-216,217v-20,15,-33,32,-38,49r210,0r-13,66r-292,0v3,-122,97,-174,177,-220v42,-24,92,-53,94,-106v2,-50,-64,-64,-106,-40v-22,13,-34,21,-48,36r-44,-49v24,-29,88,-67,143,-68","w":951},"\u00be":{"d":"289,0r-80,0r472,-706r80,0xm728,0r21,-107r-209,0r9,-50r252,-280r86,0r-52,264r62,0r-12,66r-62,0r-21,107r-74,0xm639,-173r122,0r24,-123r15,-58r-2,0v-48,67,-106,118,-159,179r0,2xm362,-417v0,84,-82,161,-172,158v-63,-2,-124,-30,-149,-66r47,-49v15,22,62,46,103,46v49,0,96,-39,94,-88v-1,-49,-53,-64,-110,-59r-12,-38r108,-103r29,-24r0,-2v-54,7,-116,1,-174,3r12,-67r272,0r-9,48r-134,126v50,10,95,51,95,115","w":969},"\u00bf":{"d":"233,-408r20,-98r100,0r-19,98r-101,0xm252,194v-129,47,-280,-12,-277,-144v3,-147,131,-185,203,-264v27,-30,33,-57,41,-98r95,0v-9,48,-19,87,-44,124v-47,68,-126,97,-172,163v-14,19,-20,40,-20,63v-2,73,87,99,156,71v29,-12,43,-18,62,-32r43,75v-29,19,-39,25,-87,42","w":451},"\u00c0":{"d":"58,0r-106,0r387,-706r110,0r115,706r-99,0r-31,-203r-266,0xm209,-285r215,0r-35,-224r-10,-100r-2,0v-53,127,-109,210,-168,324xm362,-755r-70,-127r100,0r47,127r-77,0","w":626},"\u00c1":{"d":"58,0r-106,0r387,-706r110,0r115,706r-99,0r-31,-203r-266,0xm209,-285r215,0r-35,-224r-10,-100r-2,0v-53,127,-109,210,-168,324xm358,-755r98,-127r109,0r-120,127r-87,0","w":626},"\u00c2":{"d":"58,0r-106,0r387,-706r110,0r115,706r-99,0r-31,-203r-266,0xm209,-285r215,0r-35,-224r-10,-100r-2,0v-53,127,-109,210,-168,324xm262,-755r113,-127r101,0r63,127r-82,0r-36,-80r-2,0r-68,80r-89,0","w":626},"\u00c3":{"d":"58,0r-106,0r387,-706r110,0r115,706r-99,0r-31,-203r-266,0xm209,-285r215,0r-35,-224r-10,-100r-2,0v-53,127,-109,210,-168,324xm243,-756v16,-85,56,-127,119,-127v38,0,61,31,79,51v34,37,71,11,79,-48r71,0v-17,85,-56,127,-119,127v-37,1,-60,-32,-79,-51v-36,-37,-68,-12,-79,48r-71,0","w":626},"\u00c4":{"d":"58,0r-106,0r387,-706r110,0r115,706r-99,0r-31,-203r-266,0xm209,-285r215,0r-35,-224r-10,-100r-2,0v-53,127,-109,210,-168,324xm455,-781r19,-101r80,0r-20,101r-79,0xm287,-781r20,-101r80,0r-20,101r-80,0","w":626},"\u00c5":{"d":"58,0r-106,0r387,-706r110,0r115,706r-99,0r-31,-203r-266,0xm209,-285r215,0r-35,-224r-10,-100r-2,0v-53,127,-109,210,-168,324xm503,-826v0,47,-49,83,-95,83v-43,0,-77,-23,-77,-65v0,-48,47,-84,94,-84v44,0,78,23,78,66xm423,-852v-36,0,-63,68,-12,68v21,1,41,-19,40,-41v0,-16,-11,-27,-28,-27","w":626},"\u00c6":{"d":"60,0r-110,0r427,-706r525,0r-17,86r-312,0r-43,221r253,0r-17,86r-253,0r-44,227r328,0r-17,86r-426,0r61,-314r-168,0xm429,-620r-133,224r135,0r43,-224r-45,0","w":887},"\u00c7":{"d":"411,115v0,80,-96,107,-174,85r11,-57v35,11,92,10,95,-30v1,-23,-35,-29,-65,-25r36,-80v-153,-18,-259,-135,-258,-302v1,-166,101,-297,212,-367v122,-76,322,-69,422,4v20,14,27,19,39,33r-59,68v-32,-36,-118,-71,-193,-71v-171,0,-319,159,-319,328v0,127,85,220,215,220v81,0,168,-36,235,-91r43,78v-67,53,-162,103,-284,104r-16,38v32,5,60,27,60,65","w":725},"\u00c8":{"d":"38,0r139,-706r409,0r-17,86r-311,0r-43,221r253,0r-17,86r-253,0r-44,227r328,0r-16,86r-428,0xm359,-755r-70,-127r100,0r47,127r-77,0","w":572},"\u00c9":{"d":"38,0r139,-706r409,0r-17,86r-311,0r-43,221r253,0r-17,86r-253,0r-44,227r328,0r-16,86r-428,0xm355,-755r98,-127r109,0r-120,127r-87,0","w":572},"\u00ca":{"d":"38,0r139,-706r409,0r-17,86r-311,0r-43,221r253,0r-17,86r-253,0r-44,227r328,0r-16,86r-428,0xm259,-755r113,-127r101,0r63,127r-82,0r-36,-80r-2,0r-68,80r-89,0","w":572},"\u00cb":{"d":"38,0r139,-706r409,0r-17,86r-311,0r-43,221r253,0r-17,86r-253,0r-44,227r328,0r-16,86r-428,0xm451,-781r19,-101r80,0r-20,101r-79,0xm283,-781r20,-101r80,0r-20,101r-80,0","w":572},"\u00cc":{"d":"38,0r138,-706r98,0r-137,706r-99,0xm193,-755r-70,-127r100,0r47,127r-77,0","w":291},"\u00cd":{"d":"38,0r138,-706r98,0r-137,706r-99,0xm188,-755r98,-127r109,0r-120,127r-87,0","w":291},"\u00ce":{"d":"38,0r138,-706r98,0r-137,706r-99,0xm93,-755r113,-127r101,0r63,127r-82,0r-36,-80r-2,0r-68,80r-89,0","w":291},"\u00cf":{"d":"38,0r138,-706r98,0r-137,706r-99,0xm286,-781r19,-101r80,0r-20,101r-79,0xm118,-781r20,-101r80,0r-20,101r-80,0","w":291},"\u00d0":{"d":"411,-706v186,-2,313,95,312,275v-1,172,-85,304,-201,373v-64,38,-136,58,-216,58r-250,0r60,-312r-58,0r16,-82r58,0r61,-312r218,0xm621,-423v0,-129,-87,-198,-218,-197r-128,0r-45,226r151,0r-16,82r-151,0r-44,226r129,0v185,4,322,-151,322,-337","w":757},"\u00d1":{"d":"38,0r138,-706r91,0r226,459v12,25,25,59,38,102r2,0v3,-42,8,-76,13,-102r89,-459r99,0r-138,706r-91,0r-226,-458v-13,-26,-26,-60,-39,-103r-2,0v-3,42,-8,76,-13,103r-89,458r-98,0xm302,-756v16,-85,56,-127,119,-127v38,0,61,31,79,51v34,37,71,11,79,-48r71,0v-17,85,-56,127,-119,127v-37,1,-60,-32,-79,-51v-36,-37,-68,-12,-79,48r-71,0","w":750},"\u00d2":{"d":"367,12v-183,0,-316,-129,-314,-308v1,-165,103,-300,217,-365v65,-37,133,-57,204,-57v181,0,317,123,315,300v-1,167,-105,306,-219,372v-65,38,-133,58,-203,58xm473,-627v-162,0,-319,159,-319,327v0,127,89,221,214,221v81,0,154,-33,220,-99v66,-66,99,-145,99,-235v0,-125,-89,-214,-214,-214xm454,-755r-70,-127r100,0r47,127r-77,0","w":819},"\u00d3":{"d":"367,12v-183,0,-316,-129,-314,-308v1,-165,103,-300,217,-365v65,-37,133,-57,204,-57v181,0,317,123,315,300v-1,167,-105,306,-219,372v-65,38,-133,58,-203,58xm473,-627v-162,0,-319,159,-319,327v0,127,89,221,214,221v81,0,154,-33,220,-99v66,-66,99,-145,99,-235v0,-125,-89,-214,-214,-214xm450,-755r98,-127r109,0r-120,127r-87,0","w":819},"\u00d4":{"d":"367,12v-183,0,-316,-129,-314,-308v1,-165,103,-300,217,-365v65,-37,133,-57,204,-57v181,0,317,123,315,300v-1,167,-105,306,-219,372v-65,38,-133,58,-203,58xm473,-627v-162,0,-319,159,-319,327v0,127,89,221,214,221v81,0,154,-33,220,-99v66,-66,99,-145,99,-235v0,-125,-89,-214,-214,-214xm354,-755r113,-127r101,0r63,127r-82,0r-36,-80r-2,0r-68,80r-89,0","w":819},"\u00d5":{"d":"367,12v-183,0,-316,-129,-314,-308v1,-165,103,-300,217,-365v65,-37,133,-57,204,-57v181,0,317,123,315,300v-1,167,-105,306,-219,372v-65,38,-133,58,-203,58xm473,-627v-162,0,-319,159,-319,327v0,127,89,221,214,221v81,0,154,-33,220,-99v66,-66,99,-145,99,-235v0,-125,-89,-214,-214,-214xm335,-756v16,-85,56,-127,119,-127v38,0,61,31,79,51v34,37,71,11,79,-48r71,0v-17,85,-56,127,-119,127v-37,1,-60,-32,-79,-51v-36,-37,-68,-12,-79,48r-71,0","w":819},"\u00d6":{"d":"367,12v-183,0,-316,-129,-314,-308v1,-165,103,-300,217,-365v65,-37,133,-57,204,-57v181,0,317,123,315,300v-1,167,-105,306,-219,372v-65,38,-133,58,-203,58xm473,-627v-162,0,-319,159,-319,327v0,127,89,221,214,221v81,0,154,-33,220,-99v66,-66,99,-145,99,-235v0,-125,-89,-214,-214,-214xm547,-781r19,-101r80,0r-20,101r-79,0xm379,-781r20,-101r80,0r-20,101r-80,0","w":819},"\u00d7":{"d":"83,-55r206,-230r-206,-230r55,-55r204,228r205,-228r55,55r-207,230r207,230r-55,55r-205,-227r-204,227","w":688},"\u00d8":{"d":"131,-85v-99,-106,-96,-291,-16,-421v69,-113,198,-212,361,-212v72,0,135,18,188,53r62,-67r46,38r-62,67v105,105,100,291,20,423v-69,114,-198,216,-361,216v-75,0,-139,-19,-194,-58r-65,71r-46,-37xm688,-413v0,-55,-15,-101,-46,-139r-400,434v35,26,78,39,128,39v81,0,154,-33,220,-99v66,-66,98,-145,98,-235xm598,-592v-202,-119,-442,85,-442,292v0,56,14,103,43,141","w":821},"\u00d9":{"d":"319,12v-158,0,-274,-98,-241,-266r88,-452r98,0r-88,455v-21,106,40,174,145,172v115,-2,192,-72,212,-174r89,-453r98,0r-90,461v-26,147,-144,257,-311,257xm410,-755r-70,-127r100,0r47,127r-77,0","w":727},"\u00da":{"d":"319,12v-158,0,-274,-98,-241,-266r88,-452r98,0r-88,455v-21,106,40,174,145,172v115,-2,192,-72,212,-174r89,-453r98,0r-90,461v-26,147,-144,257,-311,257xm406,-755r98,-127r109,0r-120,127r-87,0","w":727},"\u00db":{"d":"319,12v-158,0,-274,-98,-241,-266r88,-452r98,0r-88,455v-21,106,40,174,145,172v115,-2,192,-72,212,-174r89,-453r98,0r-90,461v-26,147,-144,257,-311,257xm310,-755r113,-127r101,0r63,127r-82,0r-36,-80r-2,0r-68,80r-89,0","w":727},"\u00dc":{"d":"319,12v-158,0,-274,-98,-241,-266r88,-452r98,0r-88,455v-21,106,40,174,145,172v115,-2,192,-72,212,-174r89,-453r98,0r-90,461v-26,147,-144,257,-311,257xm502,-781r19,-101r80,0r-20,101r-79,0xm334,-781r20,-101r80,0r-20,101r-80,0","w":727},"\u00dd":{"d":"177,0r59,-299r-156,-407r106,0r85,232v9,26,18,56,26,89r2,0v74,-114,155,-213,233,-321r119,0r-318,410r-58,296r-98,0xm327,-755r98,-127r109,0r-120,127r-87,0","w":579},"\u00de":{"d":"395,-586v123,-1,199,67,199,180v0,116,-70,207,-154,244v-75,32,-175,17,-275,21r-28,141r-99,0r138,-706r99,0r-24,120r144,0xm492,-399v0,-66,-44,-102,-113,-101r-145,0r-53,273v76,-3,165,10,219,-16v53,-26,92,-80,92,-156","w":609},"\u00df":{"d":"414,-518v46,-50,12,-119,-60,-116v-69,3,-125,47,-137,111r-102,523r-97,0r104,-538v15,-104,122,-179,236,-180v97,-1,176,52,177,141v1,54,-38,104,-70,127v-26,20,-67,50,-70,86v12,64,85,85,117,137v70,115,-53,238,-169,234v-55,-2,-116,-10,-148,-29r17,-84v33,19,74,29,124,29v49,0,104,-30,98,-83v-10,-93,-139,-99,-139,-198v0,-82,77,-114,119,-160","w":586},"\u00e0":{"d":"213,2v-99,34,-215,-18,-213,-118v2,-127,115,-174,226,-192v43,-7,87,-9,136,-8v15,-70,-9,-122,-87,-120v-56,2,-117,25,-151,48r-26,-77v36,-26,123,-53,191,-53v103,0,177,46,176,150v0,19,-2,37,-6,56r-61,312r-90,0v5,-21,14,-84,21,-91v-4,-1,-2,3,-9,11v-26,32,-60,66,-107,82xm99,-132v1,42,33,67,81,66v88,-2,157,-96,170,-177r-25,0v-151,0,-226,37,-226,111xm270,-579r-70,-127r100,0r47,127r-77,0"},"\u00e1":{"d":"213,2v-99,34,-215,-18,-213,-118v2,-127,115,-174,226,-192v43,-7,87,-9,136,-8v15,-70,-9,-122,-87,-120v-56,2,-117,25,-151,48r-26,-77v36,-26,123,-53,191,-53v103,0,177,46,176,150v0,19,-2,37,-6,56r-61,312r-90,0v5,-21,14,-84,21,-91v-4,-1,-2,3,-9,11v-26,32,-60,66,-107,82xm99,-132v1,42,33,67,81,66v88,-2,157,-96,170,-177r-25,0v-151,0,-226,37,-226,111xm266,-579r98,-127r109,0r-120,127r-87,0"},"\u00e2":{"d":"213,2v-99,34,-215,-18,-213,-118v2,-127,115,-174,226,-192v43,-7,87,-9,136,-8v15,-70,-9,-122,-87,-120v-56,2,-117,25,-151,48r-26,-77v36,-26,123,-53,191,-53v103,0,177,46,176,150v0,19,-2,37,-6,56r-61,312r-90,0v5,-21,14,-84,21,-91v-4,-1,-2,3,-9,11v-26,32,-60,66,-107,82xm99,-132v1,42,33,67,81,66v88,-2,157,-96,170,-177r-25,0v-151,0,-226,37,-226,111xm170,-579r113,-127r101,0r63,127r-82,0r-36,-80r-2,0r-68,80r-89,0"},"\u00e3":{"d":"213,2v-99,34,-215,-18,-213,-118v2,-127,115,-174,226,-192v43,-7,87,-9,136,-8v15,-70,-9,-122,-87,-120v-56,2,-117,25,-151,48r-26,-77v36,-26,123,-53,191,-53v103,0,177,46,176,150v0,19,-2,37,-6,56r-61,312r-90,0v5,-21,14,-84,21,-91v-4,-1,-2,3,-9,11v-26,32,-60,66,-107,82xm99,-132v1,42,33,67,81,66v88,-2,157,-96,170,-177r-25,0v-151,0,-226,37,-226,111xm151,-580v16,-85,56,-127,119,-127v38,0,61,31,79,51v34,37,71,11,79,-48r71,0v-17,85,-56,127,-119,127v-37,1,-60,-32,-79,-51v-36,-37,-68,-12,-79,48r-71,0"},"\u00e4":{"d":"213,2v-99,34,-215,-18,-213,-118v2,-127,115,-174,226,-192v43,-7,87,-9,136,-8v15,-70,-9,-122,-87,-120v-56,2,-117,25,-151,48r-26,-77v36,-26,123,-53,191,-53v103,0,177,46,176,150v0,19,-2,37,-6,56r-61,312r-90,0v5,-21,14,-84,21,-91v-4,-1,-2,3,-9,11v-26,32,-60,66,-107,82xm99,-132v1,42,33,67,81,66v88,-2,157,-96,170,-177r-25,0v-151,0,-226,37,-226,111xm362,-605r19,-101r80,0r-20,101r-79,0xm194,-605r20,-101r80,0r-20,101r-80,0"},"\u00e5":{"d":"213,2v-99,34,-215,-18,-213,-118v2,-127,115,-174,226,-192v43,-7,87,-9,136,-8v15,-70,-9,-122,-87,-120v-56,2,-117,25,-151,48r-26,-77v36,-26,123,-53,191,-53v103,0,177,46,176,150v0,19,-2,37,-6,56r-61,312r-90,0v5,-21,14,-84,21,-91v-4,-1,-2,3,-9,11v-26,32,-60,66,-107,82xm99,-132v1,42,33,67,81,66v88,-2,157,-96,170,-177r-25,0v-151,0,-226,37,-226,111xm410,-650v0,47,-49,83,-95,83v-43,0,-77,-23,-77,-65v0,-48,47,-84,94,-84v44,0,78,23,78,66xm330,-676v-36,0,-63,68,-12,68v21,1,41,-19,40,-41v0,-16,-11,-27,-28,-27"},"\u00e6":{"d":"158,12v-84,1,-157,-46,-157,-128v0,-128,110,-172,221,-189v43,-7,90,-9,140,-8v17,-78,-8,-123,-89,-123v-48,0,-97,17,-148,48r-26,-77v36,-25,122,-53,188,-53v81,0,131,28,152,85r2,0v50,-57,113,-85,188,-85v156,0,226,130,179,277r-364,0v-17,99,39,171,135,169v62,-1,127,-31,161,-59r28,77v-35,30,-123,66,-193,66v-103,1,-182,-49,-209,-125r-2,0v-35,65,-102,125,-206,125xm724,-314v13,-76,-28,-127,-96,-127v-85,1,-142,57,-166,127r262,0xm100,-132v1,42,34,67,81,66v87,-1,155,-94,168,-174r-46,0v-135,0,-203,36,-203,108","w":860},"\u00e7":{"d":"307,115v0,80,-96,107,-174,85r11,-57v35,11,92,10,95,-30v1,-23,-35,-29,-65,-25r36,-81v-107,-16,-183,-97,-183,-215v0,-165,148,-310,312,-310v82,0,147,26,191,73r-54,63v-21,-26,-81,-51,-132,-52v-113,-2,-218,104,-218,219v0,85,61,145,148,143v68,0,135,-36,170,-68r27,77v-36,36,-129,76,-208,75r-16,38v32,5,60,27,60,65","w":547},"\u00e8":{"d":"266,12v-138,2,-239,-84,-239,-216v0,-164,130,-314,294,-314v157,0,226,133,177,279r-369,0v-17,98,46,169,141,167v62,-1,127,-31,161,-59r28,77v-35,30,-123,65,-193,66xm415,-312v12,-74,-27,-131,-96,-129v-84,1,-149,61,-174,129r270,0xm304,-579r-70,-127r100,0r47,127r-77,0","w":551},"\u00e9":{"d":"266,12v-138,2,-239,-84,-239,-216v0,-164,130,-314,294,-314v157,0,226,133,177,279r-369,0v-17,98,46,169,141,167v62,-1,127,-31,161,-59r28,77v-35,30,-123,65,-193,66xm415,-312v12,-74,-27,-131,-96,-129v-84,1,-149,61,-174,129r270,0xm300,-579r98,-127r109,0r-120,127r-87,0","w":551},"\u00ea":{"d":"266,12v-138,2,-239,-84,-239,-216v0,-164,130,-314,294,-314v157,0,226,133,177,279r-369,0v-17,98,46,169,141,167v62,-1,127,-31,161,-59r28,77v-35,30,-123,65,-193,66xm415,-312v12,-74,-27,-131,-96,-129v-84,1,-149,61,-174,129r270,0xm204,-579r113,-127r101,0r63,127r-82,0r-36,-80r-2,0r-68,80r-89,0","w":551},"\u00eb":{"d":"266,12v-138,2,-239,-84,-239,-216v0,-164,130,-314,294,-314v157,0,226,133,177,279r-369,0v-17,98,46,169,141,167v62,-1,127,-31,161,-59r28,77v-35,30,-123,65,-193,66xm415,-312v12,-74,-27,-131,-96,-129v-84,1,-149,61,-174,129r270,0xm397,-605r19,-101r80,0r-20,101r-79,0xm229,-605r20,-101r80,0r-20,101r-80,0","w":551},"\u00ec":{"d":"137,-579r-70,-127r100,0r47,127r-77,0xm18,0r98,-506r97,0r-98,506r-97,0","w":248},"\u00ed":{"d":"133,-579r98,-127r109,0r-120,127r-87,0xm18,0r98,-506r97,0r-98,506r-97,0","w":248},"\u00ee":{"d":"18,0r98,-506r97,0r-98,506r-97,0xm37,-579r113,-127r101,0r63,127r-82,0r-36,-80r-2,0r-68,80r-89,0","w":248},"\u00ef":{"d":"229,-605r19,-101r80,0r-20,101r-79,0xm61,-605r20,-101r80,0r-20,101r-80,0xm18,0r98,-506r97,0r-98,506r-97,0","w":248},"\u00f0":{"d":"238,12v-128,3,-213,-83,-213,-203v0,-71,27,-135,79,-191v52,-56,120,-84,203,-84v52,0,101,20,124,46r2,0v-11,-53,-40,-99,-85,-138r-198,79r2,-63r139,-56v-36,-21,-77,-37,-122,-49r40,-72v71,18,131,45,182,81r159,-64r-1,63r-108,43v83,86,119,198,87,336v-34,143,-116,267,-290,272xm311,-388v-103,0,-187,93,-187,195v0,71,42,121,115,121v103,0,191,-116,191,-213v0,-64,-51,-103,-119,-103","w":587},"\u00f1":{"d":"397,-518v91,0,149,43,148,134v0,16,-2,37,-7,64r-62,320r-97,0r58,-299v17,-72,6,-130,-68,-130v-107,0,-192,102,-210,198r-44,231r-97,0r98,-506r95,0v-6,38,-14,74,-25,107r2,0v30,-56,119,-119,209,-119xm206,-580v16,-85,56,-127,119,-127v38,0,61,31,79,51v34,37,71,11,79,-48r71,0v-17,85,-56,127,-119,127v-37,1,-60,-32,-79,-51v-36,-37,-68,-12,-79,48r-71,0","w":602},"\u00f2":{"d":"267,12v-137,0,-241,-90,-241,-223v0,-163,154,-307,313,-307v135,0,240,89,240,221v0,163,-154,309,-312,309xm338,-434v-110,0,-213,104,-213,219v0,84,60,143,143,143v108,0,212,-106,212,-220v0,-82,-60,-142,-142,-142xm324,-579r-70,-127r100,0r47,127r-77,0","w":622},"\u00f3":{"d":"267,12v-137,0,-241,-90,-241,-223v0,-163,154,-307,313,-307v135,0,240,89,240,221v0,163,-154,309,-312,309xm338,-434v-110,0,-213,104,-213,219v0,84,60,143,143,143v108,0,212,-106,212,-220v0,-82,-60,-142,-142,-142xm320,-579r98,-127r109,0r-120,127r-87,0","w":622},"\u00f4":{"d":"267,12v-137,0,-241,-90,-241,-223v0,-163,154,-307,313,-307v135,0,240,89,240,221v0,163,-154,309,-312,309xm338,-434v-110,0,-213,104,-213,219v0,84,60,143,143,143v108,0,212,-106,212,-220v0,-82,-60,-142,-142,-142xm224,-579r113,-127r101,0r63,127r-82,0r-36,-80r-2,0r-68,80r-89,0","w":622},"\u00f5":{"d":"267,12v-137,0,-241,-90,-241,-223v0,-163,154,-307,313,-307v135,0,240,89,240,221v0,163,-154,309,-312,309xm338,-434v-110,0,-213,104,-213,219v0,84,60,143,143,143v108,0,212,-106,212,-220v0,-82,-60,-142,-142,-142xm204,-580v16,-85,56,-127,119,-127v38,0,61,31,79,51v34,37,71,11,79,-48r71,0v-17,85,-56,127,-119,127v-37,1,-60,-32,-79,-51v-36,-37,-68,-12,-79,48r-71,0","w":622},"\u00f6":{"d":"267,12v-137,0,-241,-90,-241,-223v0,-163,154,-307,313,-307v135,0,240,89,240,221v0,163,-154,309,-312,309xm338,-434v-110,0,-213,104,-213,219v0,84,60,143,143,143v108,0,212,-106,212,-220v0,-82,-60,-142,-142,-142xm416,-605r19,-101r80,0r-20,101r-79,0xm248,-605r20,-101r80,0r-20,101r-80,0","w":622},"\u00f7":{"d":"265,-435r0,-91r94,0r0,91r-94,0xm60,-246r0,-78r505,0r0,78r-505,0xm265,-44r0,-91r94,0r0,91r-94,0","w":631},"\u00f8":{"d":"579,-297v0,208,-241,386,-446,276r-54,59r-44,-38r52,-56v-41,-41,-61,-92,-61,-155v0,-210,252,-388,453,-270r54,-59r45,37r-54,59v37,40,55,89,55,147xm416,-413v-137,-74,-291,59,-291,198v0,35,9,65,27,89xm196,-89v137,65,288,-67,284,-203v0,-30,-7,-57,-22,-81","w":622},"\u00f9":{"d":"186,12v-87,-1,-149,-43,-147,-134v0,-16,2,-37,7,-64r62,-320r97,0r-58,298v-15,69,-7,130,70,130v103,0,184,-107,202,-198r45,-230r97,0r-98,506r-95,0r12,-59r13,-48r-2,0v-33,57,-113,120,-205,119xm306,-579r-70,-127r100,0r47,127r-77,0","w":596},"\u00fa":{"d":"186,12v-87,-1,-149,-43,-147,-134v0,-16,2,-37,7,-64r62,-320r97,0r-58,298v-15,69,-7,130,70,130v103,0,184,-107,202,-198r45,-230r97,0r-98,506r-95,0r12,-59r13,-48r-2,0v-33,57,-113,120,-205,119xm302,-579r98,-127r109,0r-120,127r-87,0","w":596},"\u00fb":{"d":"186,12v-87,-1,-149,-43,-147,-134v0,-16,2,-37,7,-64r62,-320r97,0r-58,298v-15,69,-7,130,70,130v103,0,184,-107,202,-198r45,-230r97,0r-98,506r-95,0r12,-59r13,-48r-2,0v-33,57,-113,120,-205,119xm206,-579r113,-127r101,0r63,127r-82,0r-36,-80r-2,0r-68,80r-89,0","w":596},"\u00fc":{"d":"186,12v-87,-1,-149,-43,-147,-134v0,-16,2,-37,7,-64r62,-320r97,0r-58,298v-15,69,-7,130,70,130v103,0,184,-107,202,-198r45,-230r97,0r-98,506r-95,0r12,-59r13,-48r-2,0v-33,57,-113,120,-205,119xm399,-605r19,-101r80,0r-20,101r-79,0xm231,-605r20,-101r80,0r-20,101r-80,0","w":596},"\u00fd":{"d":"-47,108v14,12,32,18,55,18v42,0,78,-24,107,-73r37,-60r-116,-499r101,0r68,342v4,19,4,42,9,60v10,-22,20,-41,29,-58r190,-344r109,0r-355,599v-47,78,-105,117,-175,117v-41,0,-75,-11,-104,-33xm260,-579r98,-127r109,0r-120,127r-87,0","w":509},"\u00fe":{"d":"279,12v-70,0,-131,-34,-151,-88r-2,0v-11,96,-35,184,-51,276r-96,0r175,-906r96,0r-46,235r-10,40r2,0v33,-46,94,-87,169,-87v121,-1,189,85,189,208v0,168,-122,322,-275,322xm341,-433v-104,0,-185,122,-185,231v0,74,38,131,113,130v104,-1,186,-111,186,-231v0,-77,-41,-130,-114,-130","w":599},"\u00ff":{"d":"-47,108v14,12,32,18,55,18v42,0,78,-24,107,-73r37,-60r-116,-499r101,0r68,342v4,19,4,42,9,60v10,-22,20,-41,29,-58r190,-344r109,0r-355,599v-47,78,-105,117,-175,117v-41,0,-75,-11,-104,-33xm357,-605r19,-101r80,0r-20,101r-79,0xm189,-605r20,-101r80,0r-20,101r-80,0","w":509},"\u0152":{"d":"366,9v-181,0,-315,-124,-313,-301v1,-165,101,-301,215,-366v65,-37,133,-57,206,-57v32,0,113,9,141,9r359,0r-17,86r-312,0r-43,221r253,0r-17,86r-253,0r-44,227r329,0r-17,86r-363,0v-22,0,-99,9,-124,9xm477,-627v-172,-5,-323,160,-323,335v0,150,128,243,289,205r103,-533v-19,-5,-42,-7,-69,-7","w":959},"\u0153":{"d":"266,12v-137,3,-240,-90,-240,-223v0,-163,153,-307,312,-307v99,0,171,50,203,120r2,0v46,-66,121,-116,223,-120v157,-6,226,133,177,279r-368,0v-26,130,98,200,219,152v39,-15,58,-25,83,-44r27,77v-35,30,-123,66,-193,66v-103,0,-177,-49,-208,-123r-2,0v-49,66,-132,121,-235,123xm860,-312v15,-73,-26,-131,-95,-129v-86,1,-149,59,-174,129r269,0xm337,-434v-109,0,-212,105,-212,219v0,84,59,143,142,143v108,0,212,-106,212,-220v0,-83,-59,-142,-142,-142","w":996},"\u0178":{"d":"177,0r59,-299r-156,-407r106,0r85,232v9,26,18,56,26,89r2,0v74,-114,155,-213,233,-321r119,0r-318,410r-58,296r-98,0xm423,-781r19,-101r80,0r-20,101r-79,0xm255,-781r20,-101r80,0r-20,101r-80,0","w":579},"\u02c6":{"d":"40,-755r113,-127r101,0r63,127r-82,0r-36,-80r-2,0r-68,80r-89,0","w":499},"\u02dc":{"d":"19,-756v16,-85,56,-127,119,-127v38,0,61,31,79,51v34,37,71,11,79,-48r71,0v-17,85,-56,127,-119,127v-37,1,-60,-32,-79,-51v-36,-37,-68,-12,-79,48r-71,0","w":499},"\u2013":{"d":"77,-246r15,-78r526,0r-15,78r-526,0","w":701},"\u2014":{"d":"77,-246r15,-78r726,0r-15,78r-726,0","w":901},"\u2018":{"d":"89,-523r103,-194r75,0r-80,194r-98,0","w":227},"\u2019":{"d":"92,-523r80,-194r98,0r-103,194r-75,0","w":221},"\u201a":{"d":"-32,90r80,-195r98,0r-103,195r-75,0","w":249},"\u201c":{"d":"230,-523r103,-194r75,0r-80,194r-98,0xm89,-523r103,-194r75,0r-80,194r-98,0","w":368},"\u201d":{"d":"233,-523r81,-194r97,0r-102,194r-76,0xm92,-523r81,-194r97,0r-102,194r-76,0","w":362},"\u201e":{"d":"109,90r81,-195r97,0r-102,195r-76,0xm-32,90r80,-195r98,0r-102,195r-76,0","w":390},"\u2022":{"d":"357,-291v0,83,-71,155,-154,155v-85,0,-155,-71,-155,-155v0,-85,71,-155,155,-155v83,0,154,72,154,155","w":409},"\u2026":{"d":"536,0r20,-105r102,0r-21,105r-101,0xm276,0r21,-105r101,0r-20,105r-102,0xm17,0r20,-105r102,0r-21,105r-101,0","w":766},"\u2039":{"d":"166,-77r-129,-207r191,-204r102,0r-200,210r128,201r-92,0","w":346},"\u203a":{"d":"9,-77r200,-210r-127,-201r92,0r129,207r-192,204r-102,0","w":346},"\u20ac":{"d":"395,12v-168,2,-288,-112,-298,-270r-69,0r12,-63r55,0v2,-25,6,-49,12,-72r-53,0r12,-64r62,0v67,-163,261,-310,492,-245r-40,86v-155,-41,-290,52,-343,159r282,0r-25,64r-283,0v-7,25,-12,49,-14,72r269,0r-24,63r-239,0v12,117,102,195,243,173v22,-3,32,-6,48,-10r2,92v-30,10,-64,15,-101,15","w":587},"\u2122":{"d":"498,-266r35,-440r69,0r104,230r14,42r2,0v4,-16,8,-30,13,-42r104,-230r70,0r34,440r-75,0r-21,-263r1,-30r-2,0r-95,212r-61,0r-95,-212r-2,0r1,30r-21,263r-75,0xm238,-266r0,-373r-152,0r0,-67r380,0r0,67r-152,0r0,373r-76,0","w":997}}});
