/*!
 * The following copyright notice may not be removed under any circumstances.
 * 
 * Copyright:
 * Copyright (c) 2008 by Jos Buivenga. All rights reserved.
 * 
 * Description:
 * This is a protected webfont and is intended for CSS @font-face use ONLY.
 * Reverse engineering this font is strictly prohibited.
 */
Cufon.registerFont({"w":821,"face":{"font-family":"","font-weight":400,"font-stretch":"normal","units-per-em":"1000","panose-1":"2 0 0 0 0 0 0 0 0 0","ascent":"750","descent":"-250","x-height":"12","bbox":"-55 -892 957.842 210.039","underline-thickness":"50","underline-position":"-50","unicode-range":"U+0020-U+2122"},"glyphs":{" ":{"w":257},"!":{"d":"116,-194r-7,-512r100,0r-6,512r-87,0xm110,0r0,-97r99,0r0,97r-99,0","w":318},"\"":{"d":"203,-530r0,-188r76,0r0,188r-76,0xm63,-530r0,-188r76,0r0,188r-76,0","w":342},"#":{"d":"141,0r33,-191r-130,0r12,-74r131,0r29,-168r-129,0r12,-73r130,0r35,-200r81,0r-35,200r155,0r35,-200r81,0r-35,200r131,0r-13,73r-130,0r-30,168r130,0r-13,74r-129,0r-34,191r-81,0r33,-191r-155,0r-33,191r-81,0xm268,-265r155,0r30,-168r-155,0","w":718},"$":{"d":"512,-187v0,109,-83,188,-189,197r0,92r-71,0r0,-92v-79,-7,-148,-39,-198,-91r56,-75v40,38,101,75,180,76v66,1,124,-39,122,-104v-2,-65,-69,-95,-122,-120v-97,-43,-224,-83,-224,-217v0,-105,86,-183,186,-194r0,-94r71,0r0,93v69,5,136,34,171,69r-45,82v-27,-28,-97,-58,-155,-61v-87,-4,-167,83,-109,154v43,53,127,68,191,102v69,36,136,81,136,183","w":566},"%":{"d":"351,-570v0,80,-71,148,-152,148v-81,0,-151,-67,-151,-148v0,-80,70,-148,151,-148v81,0,152,68,152,148xm63,0r540,-706r94,0r-540,706r-94,0xm125,-570v0,41,33,74,74,74v41,0,74,-33,74,-74v0,-40,-34,-75,-74,-75v-40,0,-74,35,-74,75xm562,12v-82,0,-152,-67,-152,-148v0,-80,71,-148,152,-148v80,0,152,69,152,148v0,80,-72,148,-152,148xm562,-211v-40,0,-74,35,-74,75v0,42,32,74,74,74v40,0,74,-34,74,-74v0,-40,-34,-75,-74,-75","w":761},"&":{"d":"299,12v-134,0,-245,-84,-245,-210v0,-85,55,-160,124,-181r0,-2v-54,-22,-91,-76,-93,-155v-3,-147,153,-209,303,-171r-25,79v-90,-22,-180,16,-178,102v1,75,49,112,130,111r131,0r0,-96r97,0r0,96r94,0r0,86r-94,0r0,94v2,154,-92,247,-244,247xm311,-329v-92,-1,-155,40,-156,126v0,73,66,125,144,124v98,-2,148,-57,147,-160r0,-90r-135,0","w":684},"'":{"d":"63,-530r0,-188r77,0r0,188r-77,0","w":203},"(":{"d":"189,95v-77,-129,-116,-274,-116,-435v0,-140,39,-272,116,-395r85,0v-158,256,-144,568,0,830r-85,0","w":302},")":{"d":"113,95r-85,0v144,-262,158,-574,0,-830r85,0v162,246,147,584,0,830","w":302},"*":{"d":"155,-329r-72,-52r89,-110r0,-2r-136,-37r26,-84r133,50r-7,-142r91,0r-8,142r134,-50r27,84r-137,37r0,2r88,110r-71,52r-77,-118r-2,0","w":467},"+":{"d":"77,-246r0,-78r224,0r0,-246r82,0r0,246r223,0r0,78r-223,0r0,246r-82,0r0,-246r-224,0","w":683},",":{"d":"27,101r62,-206r99,0r-84,206r-77,0","w":255},"-":{"d":"90,-242r0,-86r292,0r0,86r-292,0","w":472},".":{"d":"76,0r0,-103r102,0r0,103r-102,0","w":254},"\/":{"d":"36,42r254,-786r86,0r-254,786r-86,0","w":404},"0":{"d":"312,12v-166,0,-249,-122,-249,-366v0,-243,83,-364,249,-364v167,0,250,121,250,364v0,244,-83,366,-250,366xm312,-79v99,0,149,-92,149,-275v0,-182,-50,-273,-149,-273v-99,0,-148,91,-148,273v0,183,49,275,148,275","w":625},"1":{"d":"56,0r0,-86r156,0r1,-500r-2,0v-21,34,-70,74,-100,106r-60,-62r169,-164r88,0r0,620r154,0r0,86r-406,0","w":489},"2":{"d":"281,-718v125,-2,226,80,223,203v-4,147,-116,202,-205,266v-43,31,-87,58,-115,101v-13,20,-19,41,-19,62r350,0r0,86r-455,0v-21,-109,26,-197,84,-247v50,-44,112,-86,168,-125v41,-30,87,-75,89,-136v3,-87,-91,-141,-177,-108v-43,16,-72,46,-93,81r-73,-49v39,-71,111,-133,223,-134","w":572},"3":{"d":"509,-215v0,127,-107,231,-240,227v-102,-3,-178,-45,-229,-96r54,-75v28,35,105,76,171,77v76,2,144,-54,144,-129v0,-85,-77,-131,-164,-130r-49,0r-23,-53r154,-181r44,-46r0,-2v-89,7,-203,1,-299,3r0,-86r422,0r0,63r-192,221v107,12,207,83,207,207","w":567},"4":{"d":"31,-189r0,-62r326,-455r113,0r0,433r96,0r0,84r-96,0r0,189r-97,0r0,-189r-342,0xm140,-273r233,0r0,-257r4,-70r-2,0v-11,22,-22,41,-35,58r-200,267r0,2","w":606},"5":{"d":"514,-226v0,135,-113,238,-250,238v-88,0,-166,-37,-216,-98r55,-72v32,39,83,75,155,76v83,2,155,-60,155,-143v0,-105,-111,-171,-221,-136v-29,9,-41,14,-59,26r-57,-21r35,-350r356,0r0,86r-270,0r-22,186v28,-13,57,-22,93,-22v138,0,246,99,246,230","w":563},"6":{"d":"550,-224v0,134,-95,237,-227,236v-164,-1,-267,-154,-264,-333v2,-105,33,-196,77,-266v54,-87,169,-154,312,-124v33,7,45,12,66,22r-32,85v-30,-15,-64,-23,-101,-23v-129,-1,-197,119,-212,237r2,0v27,-38,93,-67,156,-67v130,0,223,103,223,233xm163,-274v-3,88,72,195,159,195v79,0,130,-65,130,-145v0,-87,-58,-149,-145,-149v-67,0,-143,41,-144,99","w":599},"7":{"d":"86,0r275,-556v12,-23,27,-49,41,-65r0,-2v-11,2,-28,3,-52,3r-315,0r0,-86r472,0r0,68r-319,638r-102,0","w":529},"8":{"d":"303,12v-134,0,-248,-86,-246,-216v1,-92,61,-149,113,-188v-53,-38,-79,-85,-79,-141v2,-111,93,-185,220,-185v124,0,223,70,222,189v0,61,-28,122,-84,184v64,39,96,89,96,150v0,119,-112,207,-242,207xm303,-77v83,0,172,-73,131,-155v-33,-66,-125,-82,-191,-118v-57,39,-85,86,-85,140v0,77,69,133,145,133xm310,-629v-88,0,-154,75,-106,148v33,51,112,71,170,97v41,-41,62,-88,62,-139v1,-66,-56,-106,-126,-106","w":607},"9":{"d":"276,-718v163,2,268,154,264,333v-2,105,-32,196,-76,266v-54,87,-171,154,-314,124v-33,-7,-45,-12,-65,-22r32,-86v30,16,64,24,101,24v129,1,197,-119,212,-237r-2,0v-25,38,-93,66,-156,66v-130,0,-223,-102,-223,-232v0,-134,95,-237,227,-236xm147,-482v0,87,57,149,145,149v67,0,143,-42,144,-99v3,-88,-72,-195,-159,-195v-80,0,-130,64,-130,145","w":599},":":{"d":"95,-403r0,-103r102,0r0,103r-102,0xm95,0r0,-103r102,0r0,103r-102,0","w":292},";":{"d":"47,101r53,-206r100,0r-75,206r-78,0xm101,-403r0,-103r102,0r0,103r-102,0","w":293},"<":{"d":"33,-252r0,-66r466,-208r0,89r-358,151r0,2r358,151r0,89","w":558},"=":{"d":"96,-340r0,-78r477,0r0,78r-477,0xm96,-151r0,-78r477,0r0,78r-477,0","w":669},">":{"d":"59,-44r0,-89r357,-151r0,-2r-357,-151r0,-89r466,208r0,66","w":558},"?":{"d":"207,-720v110,0,210,74,209,183v-1,97,-61,146,-114,191v-30,27,-62,60,-63,111r0,41r-95,0v-1,-49,1,-89,18,-124v33,-66,97,-95,134,-154v12,-18,18,-37,18,-58v1,-78,-92,-120,-170,-88v-27,11,-41,17,-58,31r-54,-69v29,-31,109,-64,175,-64xm142,0r0,-97r99,0r0,97r-99,0","w":489},"@":{"d":"440,125v-212,6,-381,-159,-381,-366v0,-201,165,-370,365,-370v90,0,156,19,198,57v42,38,62,87,62,146r0,283r72,0r0,73r-273,0v-113,4,-207,-82,-207,-189v0,-106,93,-191,207,-187r108,0v-6,-69,-77,-103,-162,-103v-151,0,-273,138,-273,290v0,159,122,291,284,287r0,79xm492,-361v-67,-2,-118,53,-118,119v0,64,51,117,116,117r101,0r0,-236r-99,0"},"A":{"d":"517,0r-71,-203r-266,0r-70,203r-102,0r254,-706r104,0r254,706r-103,0xm315,-609r-2,0v-31,127,-69,210,-107,324r214,0r-78,-224","w":628},"B":{"d":"576,-201v0,128,-100,202,-227,201r-253,0r0,-706r247,0v116,-1,206,66,205,180v0,72,-37,127,-88,152r0,2v68,18,116,87,116,171xm447,-516v0,-63,-41,-104,-106,-104r-146,0r0,211r148,0v62,1,104,-45,104,-107xm475,-206v0,-71,-50,-121,-122,-121r-158,0r0,241r159,0v73,1,121,-47,121,-120","w":634},"C":{"d":"506,0v-255,63,-458,-121,-458,-357v0,-230,199,-407,451,-351v72,15,122,44,165,83r-49,74v-35,-37,-127,-76,-204,-77v-152,-3,-261,120,-261,270v0,150,111,279,262,279v71,0,158,-38,193,-69r25,-23r53,71v-42,44,-102,82,-177,100","w":722},"D":{"d":"688,-354v0,219,-141,354,-358,354r-234,0r0,-706r234,0v216,-2,358,134,358,352xm586,-354v0,-166,-101,-267,-263,-266r-128,0r0,534r128,0v163,1,263,-102,263,-268","w":740},"E":{"d":"96,0r0,-706r410,0r0,86r-311,0r0,221r253,0r0,86r-253,0r0,227r328,0r0,86r-427,0","w":573},"F":{"d":"96,0r0,-706r389,0r0,86r-290,0r0,232r247,0r0,86r-247,0r0,302r-99,0","w":521},"G":{"d":"396,12v-194,2,-347,-165,-347,-366v0,-200,159,-368,360,-364v110,2,199,34,257,85r-50,74v-35,-34,-124,-68,-199,-69v-157,-3,-266,118,-266,272v0,192,176,334,364,255v49,-21,68,-37,96,-66r0,-102r-115,0r0,-86r205,0r0,355r-87,0r1,-74v-6,1,-7,6,-11,9v-46,41,-119,76,-208,77","w":760},"H":{"d":"96,0r0,-706r99,0r0,310r366,0r0,-310r99,0r0,706r-99,0r0,-310r-366,0r0,310r-99,0","w":756},"I":{"d":"96,0r0,-706r99,0r0,706r-99,0","w":291},"J":{"d":"239,12v-120,0,-214,-83,-209,-215r0,-35r98,0r0,30v-2,81,42,129,112,129v69,0,110,-46,110,-125r0,-416r-178,0r0,-86r277,0r0,503v5,133,-89,215,-210,215","w":537},"K":{"d":"96,0r0,-706r99,0r0,297r105,0r178,-297r109,0r-205,335r0,2r218,369r-112,0r-188,-324r-105,0r0,324r-99,0","w":623},"L":{"d":"96,0r0,-706r99,0r0,620r316,0r0,86r-415,0","w":529},"M":{"d":"74,0r57,-706r104,0r162,382r35,95r2,0v60,-171,131,-314,197,-477r104,0r57,706r-98,0r-35,-445r-1,-104r-2,0v-14,43,-27,78,-38,104r-141,318r-88,0r-140,-318v-11,-25,-23,-61,-38,-106r-2,0r-2,106r-34,445r-99,0","w":866},"N":{"d":"96,0r0,-706r98,0r314,459v19,28,41,70,59,102r2,0v-5,-42,-7,-76,-7,-102r0,-459r99,0r0,706r-97,0r-315,-458v-17,-26,-37,-60,-59,-103r-2,0v5,42,7,76,7,103r0,458r-99,0","w":757},"O":{"d":"411,12v-200,0,-363,-168,-363,-370v0,-198,164,-360,363,-360v199,0,362,162,362,360v0,202,-162,370,-362,370xm411,-628v-144,0,-261,123,-261,270v0,150,116,279,261,279v146,0,260,-130,260,-279v0,-147,-116,-270,-260,-270"},"P":{"d":"576,-485v0,130,-94,224,-222,224r-159,0r0,261r-99,0r0,-706r258,0v129,-2,222,90,222,221xm475,-485v0,-83,-53,-136,-136,-135r-144,0r0,273r143,0v85,1,137,-54,137,-138","w":607},"Q":{"d":"411,12v-200,0,-362,-168,-362,-369v0,-199,163,-361,362,-361v200,0,363,161,363,361v0,88,-28,166,-83,233r84,80r-58,62r-82,-82v-63,51,-138,76,-224,76xm411,-628v-146,0,-260,123,-260,271v0,150,113,278,260,278v59,0,110,-17,153,-52r-83,-81r58,-62r81,82v35,-48,52,-103,52,-165v0,-149,-114,-271,-261,-271","w":833},"R":{"d":"563,-499v0,93,-54,169,-127,191v4,10,12,17,21,34r150,274r-112,0r-149,-281r-151,0r0,281r-99,0r0,-706v111,3,268,-11,348,16v71,24,119,97,119,191xm462,-495v-2,-89,-48,-125,-153,-125r-114,0r0,253r142,0v77,1,127,-51,125,-128","w":641},"S":{"d":"500,-187v1,118,-98,202,-224,199v-105,-2,-181,-42,-234,-93r56,-75v40,38,101,75,180,76v66,1,125,-39,122,-104v-4,-78,-75,-100,-134,-128v-93,-43,-205,-78,-208,-209v-2,-115,106,-197,228,-197v82,0,161,32,200,71r-45,82v-27,-28,-97,-60,-155,-61v-66,-1,-129,42,-128,103v1,65,66,94,120,116v100,41,221,82,222,220","w":546},"T":{"d":"247,0r0,-620r-242,0r0,-86r583,0r0,86r-242,0r0,620r-99,0","w":593},"U":{"d":"364,12v-160,0,-278,-105,-278,-262r0,-456r99,0r0,456v-1,107,71,171,178,171v109,0,180,-64,180,-173r0,-454r99,0r0,456v2,157,-119,262,-278,262","w":728},"V":{"d":"267,0r-261,-706r107,0r175,499r27,97r2,0v9,-39,18,-72,27,-97r177,-499r105,0r-260,706r-99,0","w":632},"W":{"d":"428,-706r88,0r138,518r15,75r2,0v2,-25,6,-50,13,-75r130,-518r102,0r-185,706r-115,0r-122,-458v-8,-30,-15,-63,-21,-100r-2,0v-6,37,-13,70,-21,100r-122,458r-115,0r-180,-706r102,0r125,518v6,25,10,50,13,75r2,0v3,-24,8,-49,15,-75","w":948},"X":{"d":"22,0r223,-364r-209,-342r114,0r111,191r45,84r2,0v46,-99,103,-183,154,-275r114,0r-209,342r223,364r-112,0r-128,-217r-45,-81r-2,0v-50,105,-114,198,-170,298r-111,0","w":612},"Y":{"d":"245,0r0,-299r-237,-407r112,0r131,232r43,89r2,0v51,-116,114,-212,172,-321r112,0r-236,407r0,299r-99,0","w":588},"Z":{"d":"41,0r0,-66r365,-524v12,-15,16,-21,26,-31r0,-2v-115,7,-252,1,-373,3r0,-86r496,0r0,65r-340,491v-15,22,-37,46,-51,64r0,2v13,-1,30,-2,53,-2r342,0r0,86r-518,0","w":607},"[":{"d":"101,95r0,-830r165,0r0,73r-80,0r0,683r80,0r0,74r-165,0","w":301},"\\":{"d":"282,42r-254,-786r86,0r254,786r-86,0","w":404},"]":{"d":"35,21r81,0r0,-683r-81,0r0,-73r166,0r0,830r-166,0r0,-74","w":302},"^":{"d":"69,-247r200,-459r63,0r199,459r-87,0r-144,-352r-143,352r-88,0","w":613},"_":{"d":"28,0r538,0r0,78r-538,0r0,-78","w":594},"`":{"d":"256,-755r-95,-127r104,0r73,127r-82,0","w":499},"a":{"d":"270,1v-113,37,-235,-28,-235,-143v0,-116,102,-174,305,-174r22,0v3,-80,-34,-120,-111,-120v-51,1,-98,17,-141,49r-40,-71v34,-31,118,-60,189,-60v127,-1,201,71,200,198r0,320r-90,0r0,-48r2,-40v-5,1,-4,8,-7,11v-21,31,-50,63,-94,78xm228,-66v81,0,142,-88,135,-177r-25,0v-137,0,-205,32,-205,96v1,48,41,81,95,81","w":528},"b":{"d":"557,-253v0,168,-119,302,-290,256v-47,-13,-76,-44,-99,-78r-2,0v3,21,2,51,2,75r-92,0r0,-706r97,0r0,231r-2,43r2,0v28,-48,84,-85,162,-86v140,-1,222,117,222,265xm316,-433v-93,0,-146,74,-146,182v0,92,51,182,143,180v90,-2,146,-81,146,-181v0,-100,-51,-181,-143,-181","w":600},"c":{"d":"382,3v-187,45,-342,-81,-342,-256v0,-149,119,-265,271,-265v80,0,155,33,190,74r-46,68v-23,-27,-85,-58,-140,-58v-100,0,-176,79,-176,180v0,131,131,223,260,165v38,-16,53,-29,75,-51r39,71v-32,32,-75,59,-131,72","w":547},"d":{"d":"266,12v-141,1,-223,-117,-223,-265v0,-169,116,-299,290,-257v43,10,69,37,91,64v2,2,1,8,6,8v-5,-84,0,-180,-2,-268r97,0r0,706r-92,0r1,-82r-2,0v-28,53,-83,94,-166,94xm288,-434v-90,2,-146,81,-146,181v0,100,51,181,143,181v93,0,146,-74,146,-182v0,-92,-51,-182,-143,-180","w":601},"e":{"d":"309,12v-153,0,-268,-114,-268,-265v0,-152,105,-265,253,-265v149,0,236,122,216,279r-369,0v2,100,76,167,174,167v55,1,106,-22,150,-59r40,71v-33,35,-121,72,-196,72xm414,-312v0,-78,-49,-129,-122,-129v-81,0,-137,54,-148,129r270,0","w":555},"f":{"d":"330,-625v-86,-12,-140,32,-131,126r120,0r0,78r-120,0r0,421r-96,0r0,-421r-63,0r0,-78r63,0v-9,-152,79,-226,227,-209r0,83","w":336},"g":{"d":"43,-265v0,-143,81,-253,221,-253v75,0,129,25,159,75r2,0v-2,-19,-1,-42,-1,-63r93,0r0,485v-3,155,-102,231,-255,231v-61,0,-118,-14,-173,-42r32,-76v42,23,88,34,139,34v95,0,162,-45,160,-142r1,-69r-2,0v-31,53,-81,79,-150,79v-139,0,-226,-117,-226,-259xm141,-267v0,100,52,179,147,177v91,-2,134,-66,134,-174v0,-113,-48,-170,-143,-170v-91,0,-138,70,-138,167","w":593},"h":{"d":"437,-302v-1,-78,-18,-127,-96,-127v-80,0,-142,59,-160,125v-5,18,-8,40,-8,67r0,237r-97,0r0,-706r97,0r0,259r-2,42r2,0v27,-58,98,-113,187,-113v116,0,174,65,174,194r0,324r-97,0r0,-302","w":603},"i":{"d":"75,-607r0,-99r98,0r0,99r-98,0xm76,0r0,-506r97,0r0,506r-97,0","w":249},"j":{"d":"75,-607r0,-99r98,0r0,99r-98,0xm-55,121v80,7,131,-29,131,-110r0,-517r96,0r0,523v1,74,-28,134,-74,159v-45,25,-90,34,-153,28r0,-83","w":248},"k":{"d":"76,0r0,-706r97,0r0,386r71,0r138,-186r110,0r-168,223r0,2r187,281r-113,0r-152,-238r-73,0r0,238r-97,0","w":526},"l":{"d":"167,-155v-1,56,19,76,71,71r0,86v-106,13,-168,-34,-168,-140r0,-568r97,0r0,551","w":265},"m":{"d":"412,-303v-2,-76,-13,-127,-88,-127v-78,0,-132,66,-145,133v-16,83,-3,202,-6,297r-97,0r0,-506r94,0r0,67r-2,37r2,0v22,-58,96,-116,174,-116v84,0,135,38,152,115r2,0v26,-59,98,-116,180,-115v111,0,167,65,167,194r0,324r-97,0r0,-303v-2,-77,-15,-127,-90,-127v-74,0,-129,64,-142,129v-17,85,-4,203,-7,301r-97,0r0,-303","w":914},"n":{"d":"437,-302v-1,-78,-18,-127,-96,-127v-81,0,-142,57,-160,124v-5,18,-8,41,-8,68r0,237r-97,0r0,-506r94,0r0,67r-2,37r2,0v28,-58,96,-116,190,-116v116,0,174,65,174,194r0,324r-97,0r0,-302","w":603},"o":{"d":"312,12v-148,0,-273,-117,-273,-266v0,-149,124,-264,273,-264v149,0,273,115,273,264v0,149,-125,266,-273,266xm312,-434v-96,0,-174,81,-174,180v0,99,78,182,174,182v97,0,174,-82,174,-182v0,-100,-77,-180,-174,-180","w":624},"p":{"d":"557,-253v0,167,-117,302,-287,257v-46,-12,-76,-41,-97,-75r-2,0v1,12,2,27,2,44r0,227r-97,0r0,-706r89,0r0,43r-2,37r2,0v29,-52,86,-92,170,-92v140,-1,222,117,222,265xm316,-433v-93,0,-146,74,-146,182v0,91,53,182,143,180v90,-2,146,-81,146,-181v0,-100,-51,-181,-143,-181","w":600},"q":{"d":"266,12v-141,1,-223,-117,-223,-265v0,-169,119,-302,291,-256v47,13,77,40,98,76r2,0r-1,-73r92,0r0,706r-97,0r0,-231r2,-44r-2,0v-28,49,-83,87,-162,87xm288,-434v-90,2,-146,81,-146,181v0,100,51,181,143,181v93,0,146,-74,146,-182v0,-92,-51,-182,-143,-180","w":601},"r":{"d":"170,-380v23,-75,86,-144,185,-130r0,96v-88,-16,-150,45,-170,116v-23,80,-8,199,-12,298r-97,0r0,-506r94,0r0,88r-2,38r2,0","w":375},"s":{"d":"410,-135v0,91,-84,147,-183,147v-64,0,-141,-29,-171,-56r-21,-18r47,-69v24,28,89,59,145,59v42,1,86,-23,84,-63v-2,-43,-53,-62,-92,-77v-75,-30,-165,-61,-168,-162v-3,-124,154,-170,273,-130v39,13,52,22,73,42r-39,73v-21,-23,-76,-45,-125,-45v-44,0,-85,19,-83,62v2,43,53,60,92,76v75,30,168,60,168,161","w":448},"t":{"d":"325,2v-139,14,-229,-51,-228,-187r0,-236r-66,0r0,-78r69,0r0,-146r94,0r0,146r122,0r0,78r-122,0r0,225v-1,81,49,123,131,112r0,86","w":358},"u":{"d":"428,-104v-25,58,-99,116,-186,116v-115,0,-173,-65,-173,-194r0,-324r97,0r0,302v2,78,17,125,95,126v99,1,164,-91,164,-191r0,-237r97,0r0,506r-94,0r0,-67r2,-37r-2,0","w":598},"v":{"d":"196,0r-189,-506r103,0r123,342r17,69v5,0,2,-8,4,-11r16,-58r123,-342r102,0r-187,506r-112,0","w":502},"w":{"d":"180,0r-163,-506r103,0r112,380r6,29r2,0v3,-19,8,-37,13,-54r110,-354r89,0r109,354r14,54r2,0v3,-19,7,-37,12,-54r106,-355r102,0r-163,506r-107,0r-105,-325r-14,-55r-2,0v-34,133,-80,252,-118,380r-108,0","w":814},"x":{"d":"255,-197r-2,0v-37,70,-81,130,-121,197r-110,0r172,-260r-163,-246r111,0r94,154r17,30r2,0r17,-30r94,-154r111,0r-163,246r172,260r-110,0r-106,-169","w":508},"y":{"d":"5,179r34,-74v60,42,122,19,150,-53r25,-58r-212,-500r109,0r127,331r19,61r2,0v5,-23,11,-43,17,-60r123,-332r105,0r-237,597v-29,79,-110,140,-213,111v-24,-8,-33,-14,-49,-23","w":510},"z":{"d":"39,0r0,-56r255,-320r42,-47r0,-2v-11,1,-27,2,-49,2r-237,0r0,-83r417,0r0,56r-255,321r-43,46r0,2v11,-1,28,-2,50,-2r257,0r0,83r-437,0","w":517},"{":{"d":"319,96v-118,12,-186,-55,-185,-173r0,-96v0,-63,-33,-100,-85,-109r0,-86v53,-8,85,-48,85,-111r0,-84v0,-118,65,-182,185,-173r0,74v-69,-3,-100,36,-100,105v-1,71,9,153,-29,191v-15,17,-30,32,-52,39r0,2v47,17,80,61,81,127r0,115v0,69,31,108,100,105r0,74","w":350},"|":{"d":"99,159r0,-951r85,0r0,951r-85,0","w":283},"}":{"d":"216,-77v0,118,-66,185,-185,173r0,-74v69,3,100,-36,100,-105v0,-70,-9,-149,21,-193v21,-30,32,-38,60,-49r0,-2v-45,-19,-80,-61,-81,-127r0,-103v0,-69,-31,-108,-100,-105r0,-74v120,-9,185,55,185,173r0,84v0,63,28,101,85,111r0,86v-52,8,-85,46,-85,109r0,96","w":350},"~":{"d":"213,-297v-48,0,-67,46,-67,93r-79,0v-1,-105,43,-167,140,-169v45,-1,87,26,107,49v18,21,48,49,84,49v49,0,67,-46,67,-94r79,0v0,113,-46,169,-139,169v-45,0,-87,-24,-107,-48v-18,-21,-48,-49,-85,-49","w":608},"\u00a0":{"w":257},"\u00a1":{"d":"94,-409r0,-97r99,0r0,97r-99,0xm94,200r7,-512r87,0r6,512r-100,0","w":289},"\u00a2":{"d":"523,-227v-33,75,-94,144,-188,154r0,86r-71,0r0,-86v-128,-14,-211,-136,-211,-280v0,-145,83,-266,211,-281r0,-84r71,0r0,84v92,14,156,76,188,155r-88,34v-29,-66,-74,-99,-133,-99v-98,-1,-150,88,-150,191v0,106,49,190,150,190v60,0,104,-33,133,-99","w":576},"\u00a3":{"d":"335,-628v-68,0,-118,43,-118,107r0,132r184,0r0,70r-184,0r0,233r325,0r0,86r-486,0r0,-86r61,0r0,-233r-44,0r0,-70r44,0r0,-136v-2,-113,99,-193,217,-193v62,0,122,22,167,64r-57,69v-32,-29,-68,-43,-109,-43","w":591},"\u00a5":{"d":"90,-347r0,-63r103,0r-165,-296r113,0r118,220r43,102r2,0v44,-120,107,-214,162,-322r113,0r-166,296r102,0r0,63r-135,0r-27,48r0,37r162,0r0,63r-162,0r0,199r-100,0r0,-199r-163,0r0,-63r163,0r0,-37r-27,-48r-136,0","w":607},"\u00a7":{"d":"252,-637v-77,0,-115,59,-101,141r68,385r-80,0r-70,-390v-38,-153,105,-256,257,-204v35,12,47,21,67,38r-46,64v-27,-23,-58,-34,-95,-34xm372,-155v35,156,-106,255,-257,204v-34,-12,-47,-21,-67,-38r44,-67v27,25,60,37,97,37v78,2,115,-65,100,-150r-66,-376r79,0","w":442},"\u00a8":{"d":"293,-781r0,-101r80,0r0,101r-80,0xm126,-781r0,-101r80,0r0,101r-80,0","w":499},"\u00a9":{"d":"409,12v-194,0,-355,-170,-355,-365v0,-196,161,-365,355,-365v195,0,358,169,358,365v0,196,-163,365,-358,365xm409,-650v-157,0,-282,137,-282,297v0,160,125,297,282,297v159,0,285,-136,285,-297v0,-161,-126,-297,-285,-297xm416,-152v-113,2,-197,-90,-197,-200v0,-109,84,-200,197,-200v70,0,130,39,163,99r-61,33v-13,-27,-55,-62,-99,-63v-74,-2,-124,60,-124,131v0,74,48,133,124,131v45,-1,84,-32,99,-63r61,33v-29,51,-81,97,-163,99"},"\u00aa":{"d":"274,-435v-12,26,-51,53,-92,53v-56,1,-108,-38,-108,-97v0,-76,72,-112,198,-110v7,-62,-50,-81,-104,-62v-20,7,-30,12,-43,21r-29,-49v30,-25,70,-37,121,-37v82,0,127,45,127,126r0,201r-68,0r0,-46r-2,0xm146,-484v2,26,22,43,51,43v46,0,78,-47,75,-97v-74,-2,-129,15,-126,54xm73,-265r0,-57r275,0r0,57r-275,0","w":422},"\u00ab":{"d":"245,-282r164,-206r97,0r-164,206r164,205r-97,0xm208,-77r-164,-205r164,-206r97,0r-164,206r164,205r-97,0","w":556},"\u00ac":{"d":"60,-340r0,-78r477,0r0,267r-81,0r0,-189r-396,0","w":614},"\u00ad":{"d":"70,-242r0,-86r292,0r0,86r-292,0","w":431},"\u00ae":{"d":"409,12v-194,0,-355,-170,-355,-365v0,-196,161,-365,355,-365v195,0,358,169,358,365v0,196,-163,365,-358,365xm409,-650v-157,0,-282,137,-282,297v0,160,125,297,282,297v159,0,285,-136,285,-297v0,-161,-126,-297,-285,-297xm551,-428v0,50,-32,90,-69,100r85,162r-78,0r-70,-146r-61,0r0,146r-71,0r0,-377r145,0v70,-1,119,46,119,115xm479,-428v0,-38,-24,-61,-61,-61r-60,0r0,125r60,0v38,0,61,-25,61,-64"},"\u00af":{"d":"122,-784r0,-70r255,0r0,70r-255,0","w":499},"\u00b0":{"d":"346,-570v0,80,-71,148,-152,148v-81,0,-151,-67,-151,-148v0,-80,70,-148,151,-148v81,0,152,68,152,148xm120,-570v0,40,34,74,74,74v40,0,74,-34,74,-74v0,-40,-34,-75,-74,-75v-40,0,-74,35,-74,75","w":389},"\u00b1":{"d":"76,-246r0,-78r224,0r0,-246r82,0r0,246r223,0r0,78r-223,0r0,246r-82,0r0,-246r-224,0xm92,95r497,0r0,78r-497,0r0,-78","w":681},"\u00b2":{"d":"142,-862v97,-31,196,29,193,123v-3,120,-121,141,-183,203v-14,14,-22,30,-23,47r213,0r0,66r-292,0v-15,-82,26,-145,72,-179v38,-28,84,-51,115,-84v15,-15,22,-32,22,-50v1,-38,-33,-66,-72,-65v-31,1,-59,17,-84,48r-49,-45v20,-28,49,-52,88,-64","w":389},"\u00b3":{"d":"343,-558v0,80,-72,147,-156,145v-64,-1,-122,-29,-147,-66r42,-53v15,23,61,50,102,50v42,1,83,-34,83,-76v0,-45,-44,-72,-89,-71r-34,0r-16,-38r89,-103r24,-24r0,-2v-55,7,-118,1,-177,3r0,-67r271,0r0,48r-109,126v65,9,117,53,117,128","w":389},"\u00b4":{"d":"161,-755r73,-127r104,0r-96,127r-81,0","w":499},"\u00b5":{"d":"441,-104v-30,62,-91,116,-186,116v-43,0,-73,-11,-91,-31r-2,0v12,78,5,137,7,219r-86,0r0,-706r97,0r0,302v2,78,17,125,94,126v100,1,165,-91,165,-191r0,-237r97,0r0,506r-94,0r0,-69r2,-35r-3,0","w":619},"\u03bc":{"d":"441,-104v-30,62,-91,116,-186,116v-43,0,-73,-11,-91,-31r-2,0v12,78,5,137,7,219r-86,0r0,-706r97,0r0,302v2,78,17,125,94,126v100,1,165,-91,165,-191r0,-237r97,0r0,506r-94,0r0,-69r2,-35r-3,0","w":619},"\u00b6":{"d":"43,-474v0,-127,110,-232,236,-232r272,0r0,86r-196,0r0,670r-75,0r0,-291v-126,3,-237,-106,-237,-233xm417,50r0,-613r74,0r0,613r-74,0","w":590},"\u00b7":{"d":"88,-239r0,-103r99,0r0,103r-99,0","w":275},"\u00b8":{"d":"328,123v0,77,-87,96,-157,77r0,-58v30,12,94,11,90,-24v4,-26,-36,-34,-71,-30r29,-111r49,10v-1,24,-8,42,-12,63v40,5,72,30,72,73","w":499},"\u00b9":{"d":"71,-423r0,-66r93,0r0,-249r2,-26r-2,0v-10,19,-37,39,-53,56r-46,-49r106,-103r68,0r0,371r91,0r0,66r-259,0","w":389},"\u00ba":{"d":"404,-552v0,95,-77,168,-171,168v-94,0,-171,-73,-171,-168v0,-93,78,-165,170,-165v93,0,172,72,172,165xm134,-552v0,57,43,104,99,104v55,0,98,-47,98,-104v0,-56,-43,-101,-98,-101v-56,0,-99,44,-99,101xm78,-265r0,-57r312,0r0,57r-312,0","w":467},"\u00bb":{"d":"252,-77r164,-205r-164,-206r97,0r164,206r-164,205r-97,0xm50,-77r164,-205r-164,-206r97,0r164,206r-164,205r-97,0","w":557},"\u00bc":{"d":"336,0r-75,0r336,-706r75,0xm59,-269r0,-66r93,0r0,-249r2,-26r-2,0v-10,19,-37,39,-53,56r-46,-49r106,-103r68,0r0,371r91,0r0,66r-259,0xm778,0r0,-107r-208,0r0,-50r201,-280r81,0r0,264r61,0r0,66r-61,0r0,107r-74,0xm652,-173r126,0r0,-123r3,-58r-2,0v-36,68,-84,118,-127,179r0,2","w":967},"\u00bd":{"d":"338,0r-75,0r336,-706r75,0xm59,-269r0,-66r93,0r0,-249r2,-26r-2,0v-10,19,-37,39,-53,56r-46,-49r106,-103r68,0r0,371r91,0r0,66r-259,0xm744,-447v79,-2,145,53,144,131v-3,120,-120,140,-182,202v-14,14,-23,31,-24,48r213,0r0,66r-292,0v-15,-82,26,-144,72,-178v38,-28,84,-52,115,-85v15,-15,22,-32,22,-50v1,-38,-33,-66,-72,-65v-31,1,-59,17,-84,48r-49,-45v26,-38,72,-70,137,-72","w":961},"\u00be":{"d":"348,0r-75,0r336,-706r75,0xm790,0r0,-107r-208,0r0,-50r201,-280r81,0r0,264r61,0r0,66r-61,0r0,107r-74,0xm664,-173r126,0r0,-123r3,-58r-2,0v-36,68,-84,118,-127,179r0,2xm343,-404v0,80,-72,147,-156,145v-64,-1,-122,-29,-147,-66r42,-53v15,23,61,50,102,50v42,1,83,-34,83,-76v0,-45,-44,-72,-89,-71r-34,0r-16,-38r89,-103r24,-24r0,-2v-55,7,-118,1,-177,3r0,-67r271,0r0,48r-109,126v65,9,117,53,117,128","w":979},"\u00bf":{"d":"214,-409r0,-97r99,0r0,97r-99,0xm248,210v-110,2,-210,-73,-209,-182v1,-97,62,-145,115,-190v30,-26,61,-62,62,-113r0,-37r94,0v1,48,-1,86,-18,120v-33,66,-97,95,-134,154v-12,18,-17,37,-17,58v-1,78,93,122,171,89v28,-12,39,-18,57,-32r53,69v-39,34,-99,63,-174,64","w":450},"\u00c0":{"d":"517,0r-71,-203r-266,0r-70,203r-102,0r254,-706r104,0r254,706r-103,0xm315,-609r-2,0v-31,127,-69,210,-107,324r214,0r-78,-224xm275,-755r-95,-127r104,0r73,127r-82,0","w":628},"\u00c1":{"d":"517,0r-71,-203r-266,0r-70,203r-102,0r254,-706r104,0r254,706r-103,0xm315,-609r-2,0v-31,127,-69,210,-107,324r214,0r-78,-224xm270,-755r73,-127r104,0r-96,127r-81,0","w":628},"\u00c2":{"d":"517,0r-71,-203r-266,0r-70,203r-102,0r254,-706r104,0r254,706r-103,0xm315,-609r-2,0v-31,127,-69,210,-107,324r214,0r-78,-224xm175,-755r88,-127r101,0r88,127r-85,0r-53,-80r-2,0r-52,80r-85,0","w":628},"\u00c3":{"d":"517,0r-71,-203r-266,0r-70,203r-102,0r254,-706r104,0r254,706r-103,0xm315,-609r-2,0v-31,127,-69,210,-107,324r214,0r-78,-224xm374,-815v29,0,39,-35,39,-65r70,0v0,85,-34,127,-102,127v-41,1,-69,-31,-91,-51v-36,-33,-77,-17,-74,48r-70,0v0,-85,34,-127,102,-127v41,-1,68,32,91,51v12,11,24,17,35,17","w":628},"\u00c4":{"d":"517,0r-71,-203r-266,0r-70,203r-102,0r254,-706r104,0r254,706r-103,0xm315,-609r-2,0v-31,127,-69,210,-107,324r214,0r-78,-224xm358,-781r0,-101r80,0r0,101r-80,0xm191,-781r0,-101r80,0r0,101r-80,0","w":628},"\u00c5":{"d":"517,0r-71,-203r-266,0r-70,203r-102,0r254,-706r104,0r254,706r-103,0xm315,-609r-2,0v-31,127,-69,210,-107,324r214,0r-78,-224xm399,-817v0,44,-41,74,-85,74v-44,0,-85,-30,-85,-74v0,-45,40,-75,85,-75v45,0,85,30,85,75xm281,-817v0,19,14,34,33,33v18,0,33,-15,33,-33v1,-20,-14,-35,-33,-35v-20,0,-33,14,-33,35","w":628},"\u00c6":{"d":"4,0r292,-706r516,0r0,86r-312,0r0,221r254,0r0,86r-254,0r0,227r329,0r0,86r-427,0r0,-314r-169,0r-126,314r-103,0xm356,-620r-90,224r136,0r0,-224r-46,0","w":878},"\u00c7":{"d":"372,10v-183,-12,-322,-172,-322,-367v0,-230,199,-407,451,-351v72,15,122,44,165,83r-49,74v-35,-37,-127,-76,-204,-77v-152,-3,-261,120,-261,270v0,150,111,279,262,279v71,0,158,-38,193,-69r25,-23r53,71v-56,59,-147,106,-259,112r-8,38v40,5,72,30,72,73v0,77,-87,96,-157,77r0,-58v30,12,94,11,90,-24v4,-26,-36,-34,-71,-30","w":724},"\u00c8":{"d":"96,0r0,-706r410,0r0,86r-311,0r0,221r253,0r0,86r-253,0r0,227r328,0r0,86r-427,0xm273,-755r-95,-127r104,0r73,127r-82,0","w":573},"\u00c9":{"d":"96,0r0,-706r410,0r0,86r-311,0r0,221r253,0r0,86r-253,0r0,227r328,0r0,86r-427,0xm269,-755r73,-127r104,0r-96,127r-81,0","w":573},"\u00ca":{"d":"96,0r0,-706r410,0r0,86r-311,0r0,221r253,0r0,86r-253,0r0,227r328,0r0,86r-427,0xm174,-755r88,-127r101,0r88,127r-85,0r-53,-80r-2,0r-52,80r-85,0","w":573},"\u00cb":{"d":"96,0r0,-706r410,0r0,86r-311,0r0,221r253,0r0,86r-253,0r0,227r328,0r0,86r-427,0xm356,-781r0,-101r80,0r0,101r-80,0xm189,-781r0,-101r80,0r0,101r-80,0","w":573},"\u00cc":{"d":"96,0r0,-706r99,0r0,706r-99,0xm107,-755r-95,-127r104,0r73,127r-82,0","w":291},"\u00cd":{"d":"96,0r0,-706r99,0r0,706r-99,0xm103,-755r73,-127r104,0r-96,127r-81,0","w":291},"\u00ce":{"d":"96,0r0,-706r99,0r0,706r-99,0xm7,-755r88,-127r101,0r88,127r-85,0r-53,-80r-2,0r-52,80r-85,0","w":291},"\u00cf":{"d":"96,0r0,-706r99,0r0,706r-99,0xm190,-781r0,-101r80,0r0,101r-80,0xm23,-781r0,-101r80,0r0,101r-80,0","w":291},"\u00d0":{"d":"707,-354v0,219,-141,354,-358,354r-234,0r0,-312r-59,0r0,-82r59,0r0,-312r234,0v216,-2,358,134,358,352xm605,-354v0,-166,-101,-267,-263,-266r-128,0r0,226r149,0r0,82r-149,0r0,226r128,0v163,1,263,-102,263,-268","w":759},"\u00d1":{"d":"96,0r0,-706r98,0r314,459v19,28,41,70,59,102r2,0v-5,-42,-7,-76,-7,-102r0,-459r99,0r0,706r-97,0r-315,-458v-17,-26,-37,-60,-59,-103r-2,0v5,42,7,76,7,103r0,458r-99,0xm438,-815v29,0,39,-35,39,-65r70,0v0,85,-34,127,-102,127v-41,1,-69,-31,-91,-51v-36,-33,-77,-17,-74,48r-70,0v0,-85,34,-127,102,-127v41,-1,68,32,91,51v12,11,24,17,35,17","w":757},"\u00d2":{"d":"411,12v-200,0,-363,-168,-363,-370v0,-198,164,-360,363,-360v199,0,362,162,362,360v0,202,-162,370,-362,370xm411,-628v-144,0,-261,123,-261,270v0,150,116,279,261,279v146,0,260,-130,260,-279v0,-147,-116,-270,-260,-270xm372,-755r-95,-127r104,0r73,127r-82,0"},"\u00d3":{"d":"411,12v-200,0,-363,-168,-363,-370v0,-198,164,-360,363,-360v199,0,362,162,362,360v0,202,-162,370,-362,370xm411,-628v-144,0,-261,123,-261,270v0,150,116,279,261,279v146,0,260,-130,260,-279v0,-147,-116,-270,-260,-270xm368,-755r73,-127r104,0r-96,127r-81,0"},"\u00d4":{"d":"411,12v-200,0,-363,-168,-363,-370v0,-198,164,-360,363,-360v199,0,362,162,362,360v0,202,-162,370,-362,370xm411,-628v-144,0,-261,123,-261,270v0,150,116,279,261,279v146,0,260,-130,260,-279v0,-147,-116,-270,-260,-270xm272,-755r88,-127r101,0r88,127r-85,0r-53,-80r-2,0r-52,80r-85,0"},"\u00d5":{"d":"411,12v-200,0,-363,-168,-363,-370v0,-198,164,-360,363,-360v199,0,362,162,362,360v0,202,-162,370,-362,370xm411,-628v-144,0,-261,123,-261,270v0,150,116,279,261,279v146,0,260,-130,260,-279v0,-147,-116,-270,-260,-270xm471,-815v29,0,39,-35,39,-65r70,0v0,85,-34,127,-102,127v-41,1,-69,-31,-91,-51v-36,-33,-77,-17,-74,48r-70,0v0,-85,34,-127,102,-127v41,-1,68,32,91,51v12,11,24,17,35,17"},"\u00d6":{"d":"411,12v-200,0,-363,-168,-363,-370v0,-198,164,-360,363,-360v199,0,362,162,362,360v0,202,-162,370,-362,370xm411,-628v-144,0,-261,123,-261,270v0,150,116,279,261,279v146,0,260,-130,260,-279v0,-147,-116,-270,-260,-270xm455,-781r0,-101r80,0r0,101r-80,0xm288,-781r0,-101r80,0r0,101r-80,0"},"\u00d7":{"d":"63,-55r206,-230r-206,-230r55,-55r204,228r205,-228r55,55r-207,230r207,230r-55,55r-205,-227r-204,227","w":645},"\u00d8":{"d":"173,-78v-70,-61,-121,-157,-123,-280v-4,-198,164,-360,363,-360v67,0,128,16,185,49r46,-63r49,34r-46,64v72,60,126,154,128,276v4,202,-162,370,-362,370v-71,0,-135,-18,-192,-53r-47,66r-50,-34xm413,-79v146,0,260,-130,260,-279v0,-81,-27,-147,-82,-198r-314,438v41,26,86,39,136,39xm413,-628v-144,-3,-261,123,-261,270v0,80,26,147,78,201r313,-435v-39,-24,-83,-36,-130,-36","w":824},"\u00d9":{"d":"364,12v-160,0,-278,-105,-278,-262r0,-456r99,0r0,456v-1,107,71,171,178,171v109,0,180,-64,180,-173r0,-454r99,0r0,456v2,157,-119,262,-278,262xm325,-755r-95,-127r104,0r73,127r-82,0","w":728},"\u00da":{"d":"364,12v-160,0,-278,-105,-278,-262r0,-456r99,0r0,456v-1,107,71,171,178,171v109,0,180,-64,180,-173r0,-454r99,0r0,456v2,157,-119,262,-278,262xm320,-755r73,-127r104,0r-96,127r-81,0","w":728},"\u00db":{"d":"364,12v-160,0,-278,-105,-278,-262r0,-456r99,0r0,456v-1,107,71,171,178,171v109,0,180,-64,180,-173r0,-454r99,0r0,456v2,157,-119,262,-278,262xm225,-755r88,-127r101,0r88,127r-85,0r-53,-80r-2,0r-52,80r-85,0","w":728},"\u00dc":{"d":"364,12v-160,0,-278,-105,-278,-262r0,-456r99,0r0,456v-1,107,71,171,178,171v109,0,180,-64,180,-173r0,-454r99,0r0,456v2,157,-119,262,-278,262xm408,-781r0,-101r80,0r0,101r-80,0xm241,-781r0,-101r80,0r0,101r-80,0","w":728},"\u00dd":{"d":"245,0r0,-299r-237,-407r112,0r131,232r43,89r2,0v51,-116,114,-212,172,-321r112,0r-236,407r0,299r-99,0xm251,-755r73,-127r104,0r-96,127r-81,0","w":588},"\u00de":{"d":"575,-365v0,130,-93,224,-222,224r-159,0r0,141r-98,0r0,-706r98,0r0,120r160,0v129,-2,221,90,221,221xm475,-365v0,-83,-53,-136,-136,-135r-145,0r0,273r144,0v85,1,137,-54,137,-138","w":607},"\u00df":{"d":"289,-634v-64,0,-116,43,-116,111r0,523r-97,0r0,-530v-4,-116,102,-188,216,-188v122,0,231,105,174,222v-18,37,-46,53,-68,84v-20,28,-24,52,2,76v56,55,158,84,161,191v4,122,-122,174,-247,145v-34,-7,-47,-11,-66,-22r0,-86v37,21,81,31,130,31v47,0,86,-24,84,-72v-2,-45,-57,-78,-90,-99v-37,-22,-89,-66,-89,-120v0,-86,101,-106,101,-188v0,-47,-42,-78,-95,-78","w":588},"\u00e0":{"d":"270,1v-113,37,-235,-28,-235,-143v0,-116,102,-174,305,-174r22,0v3,-80,-34,-120,-111,-120v-51,1,-98,17,-141,49r-40,-71v34,-31,118,-60,189,-60v127,-1,201,71,200,198r0,320r-90,0r0,-48r2,-40v-5,1,-4,8,-7,11v-21,31,-50,63,-94,78xm228,-66v81,0,142,-88,135,-177r-25,0v-137,0,-205,32,-205,96v1,48,41,81,95,81xm224,-579r-95,-127r104,0r73,127r-82,0","w":528},"\u00e1":{"d":"270,1v-113,37,-235,-28,-235,-143v0,-116,102,-174,305,-174r22,0v3,-80,-34,-120,-111,-120v-51,1,-98,17,-141,49r-40,-71v34,-31,118,-60,189,-60v127,-1,201,71,200,198r0,320r-90,0r0,-48r2,-40v-5,1,-4,8,-7,11v-21,31,-50,63,-94,78xm228,-66v81,0,142,-88,135,-177r-25,0v-137,0,-205,32,-205,96v1,48,41,81,95,81xm218,-579r73,-127r104,0r-96,127r-81,0","w":528},"\u00e2":{"d":"270,1v-113,37,-235,-28,-235,-143v0,-116,102,-174,305,-174r22,0v3,-80,-34,-120,-111,-120v-51,1,-98,17,-141,49r-40,-71v34,-31,118,-60,189,-60v127,-1,201,71,200,198r0,320r-90,0r0,-48r2,-40v-5,1,-4,8,-7,11v-21,31,-50,63,-94,78xm228,-66v81,0,142,-88,135,-177r-25,0v-137,0,-205,32,-205,96v1,48,41,81,95,81xm123,-579r88,-127r101,0r88,127r-85,0r-53,-80r-2,0r-52,80r-85,0","w":528},"\u00e3":{"d":"270,1v-113,37,-235,-28,-235,-143v0,-116,102,-174,305,-174r22,0v3,-80,-34,-120,-111,-120v-51,1,-98,17,-141,49r-40,-71v34,-31,118,-60,189,-60v127,-1,201,71,200,198r0,320r-90,0r0,-48r2,-40v-5,1,-4,8,-7,11v-21,31,-50,63,-94,78xm228,-66v81,0,142,-88,135,-177r-25,0v-137,0,-205,32,-205,96v1,48,41,81,95,81xm322,-639v29,0,39,-35,39,-65r70,0v0,85,-34,127,-102,127v-41,1,-69,-31,-91,-51v-36,-33,-77,-17,-74,48r-70,0v0,-85,34,-127,102,-127v41,-1,68,32,91,51v12,11,24,17,35,17","w":528},"\u00e4":{"d":"270,1v-113,37,-235,-28,-235,-143v0,-116,102,-174,305,-174r22,0v3,-80,-34,-120,-111,-120v-51,1,-98,17,-141,49r-40,-71v34,-31,118,-60,189,-60v127,-1,201,71,200,198r0,320r-90,0r0,-48r2,-40v-5,1,-4,8,-7,11v-21,31,-50,63,-94,78xm228,-66v81,0,142,-88,135,-177r-25,0v-137,0,-205,32,-205,96v1,48,41,81,95,81xm306,-605r0,-101r80,0r0,101r-80,0xm139,-605r0,-101r80,0r0,101r-80,0","w":528},"\u00e5":{"d":"270,1v-113,37,-235,-28,-235,-143v0,-116,102,-174,305,-174r22,0v3,-80,-34,-120,-111,-120v-51,1,-98,17,-141,49r-40,-71v34,-31,118,-60,189,-60v127,-1,201,71,200,198r0,320r-90,0r0,-48r2,-40v-5,1,-4,8,-7,11v-21,31,-50,63,-94,78xm228,-66v81,0,142,-88,135,-177r-25,0v-137,0,-205,32,-205,96v1,48,41,81,95,81xm347,-641v0,44,-41,74,-85,74v-44,0,-85,-30,-85,-74v0,-45,40,-75,85,-75v45,0,85,30,85,75xm229,-641v0,19,14,34,33,33v18,0,33,-15,33,-33v1,-20,-14,-35,-33,-35v-20,0,-33,14,-33,35","w":528},"\u00e6":{"d":"209,12v-94,0,-177,-60,-173,-154v7,-154,164,-174,327,-174v3,-80,-35,-120,-114,-120v-54,1,-110,24,-139,49r-39,-71v42,-33,108,-60,185,-60v85,0,141,30,168,89r2,0v40,-59,102,-89,185,-89v143,-1,224,124,209,275r-363,0v-1,131,120,204,245,157v36,-14,50,-26,73,-44r40,70v-33,35,-121,72,-195,72v-107,0,-180,-53,-218,-127r-2,0v-29,68,-90,127,-191,127xm724,-316v0,-75,-49,-125,-120,-125v-82,0,-132,49,-143,125r263,0xm230,-66v83,0,140,-88,134,-177r-47,0v-121,0,-182,32,-182,96v1,49,40,81,95,81","w":864},"\u00e7":{"d":"270,9v-129,-15,-229,-120,-229,-262v0,-149,119,-265,271,-265v65,0,141,28,170,56r20,18r-46,68v-23,-27,-85,-58,-140,-58v-100,0,-176,79,-176,180v0,131,131,223,260,165v38,-16,53,-29,75,-51r39,71v-42,42,-107,78,-190,81r-8,38v40,5,72,30,72,73v0,77,-87,96,-157,77r0,-58v30,12,94,11,90,-24v4,-26,-36,-34,-71,-30","w":548},"\u00e8":{"d":"309,12v-153,0,-268,-114,-268,-265v0,-152,105,-265,253,-265v149,0,236,122,216,279r-369,0v2,100,76,167,174,167v55,1,106,-22,150,-59r40,71v-33,35,-121,72,-196,72xm414,-312v0,-78,-49,-129,-122,-129v-81,0,-137,54,-148,129r270,0xm256,-579r-95,-127r104,0r73,127r-82,0","w":555},"\u00e9":{"d":"309,12v-153,0,-268,-114,-268,-265v0,-152,105,-265,253,-265v149,0,236,122,216,279r-369,0v2,100,76,167,174,167v55,1,106,-22,150,-59r40,71v-33,35,-121,72,-196,72xm414,-312v0,-78,-49,-129,-122,-129v-81,0,-137,54,-148,129r270,0xm251,-579r73,-127r104,0r-96,127r-81,0","w":555},"\u00ea":{"d":"309,12v-153,0,-268,-114,-268,-265v0,-152,105,-265,253,-265v149,0,236,122,216,279r-369,0v2,100,76,167,174,167v55,1,106,-22,150,-59r40,71v-33,35,-121,72,-196,72xm414,-312v0,-78,-49,-129,-122,-129v-81,0,-137,54,-148,129r270,0xm155,-579r88,-127r101,0r88,127r-85,0r-53,-80r-2,0r-52,80r-85,0","w":555},"\u00eb":{"d":"309,12v-153,0,-268,-114,-268,-265v0,-152,105,-265,253,-265v149,0,236,122,216,279r-369,0v2,100,76,167,174,167v55,1,106,-22,150,-59r40,71v-33,35,-121,72,-196,72xm414,-312v0,-78,-49,-129,-122,-129v-81,0,-137,54,-148,129r270,0xm338,-605r0,-101r80,0r0,101r-80,0xm171,-605r0,-101r80,0r0,101r-80,0","w":555},"\u00ec":{"d":"86,-579r-95,-127r104,0r73,127r-82,0xm76,0r0,-506r97,0r0,506r-97,0","w":249},"\u00ed":{"d":"82,-579r73,-127r104,0r-96,127r-81,0xm76,0r0,-506r97,0r0,506r-97,0","w":249},"\u00ee":{"d":"76,0r0,-506r97,0r0,506r-97,0xm-13,-579r88,-127r101,0r88,127r-85,0r-53,-80r-2,0r-52,80r-85,0","w":249},"\u00ef":{"d":"169,-605r0,-101r80,0r0,101r-80,0xm2,-605r0,-101r80,0r0,101r-80,0xm76,0r0,-506r97,0r0,506r-97,0","w":249},"\u00f0":{"d":"280,12v-140,4,-237,-114,-237,-247v0,-129,99,-235,237,-231v51,2,92,15,123,42r2,0v-20,-53,-56,-98,-109,-133r-181,80r-10,-62r124,-55v-41,-21,-84,-36,-129,-46r27,-79v77,17,146,44,207,80r139,-61r9,61r-92,42v96,80,144,187,144,322v0,167,-84,282,-254,287xm294,-388v-93,0,-153,68,-153,155v-1,85,54,164,141,161v106,-3,150,-82,153,-186v2,-78,-60,-130,-141,-130","w":589},"\u00f1":{"d":"437,-302v-1,-78,-18,-127,-96,-127v-81,0,-142,57,-160,124v-5,18,-8,41,-8,68r0,237r-97,0r0,-506r94,0r0,67r-2,37r2,0v28,-58,96,-116,190,-116v116,0,174,65,174,194r0,324r-97,0r0,-302xm373,-639v29,0,39,-35,39,-65r70,0v0,85,-34,127,-102,127v-41,1,-69,-31,-91,-51v-36,-33,-77,-17,-74,48r-70,0v0,-85,34,-127,102,-127v41,-1,68,32,91,51v12,11,24,17,35,17","w":603},"\u00f2":{"d":"312,12v-148,0,-273,-117,-273,-266v0,-149,124,-264,273,-264v149,0,273,115,273,264v0,149,-125,266,-273,266xm312,-434v-96,0,-174,81,-174,180v0,99,78,182,174,182v97,0,174,-82,174,-182v0,-100,-77,-180,-174,-180xm273,-579r-95,-127r104,0r73,127r-82,0","w":624},"\u00f3":{"d":"312,12v-148,0,-273,-117,-273,-266v0,-149,124,-264,273,-264v149,0,273,115,273,264v0,149,-125,266,-273,266xm312,-434v-96,0,-174,81,-174,180v0,99,78,182,174,182v97,0,174,-82,174,-182v0,-100,-77,-180,-174,-180xm269,-579r73,-127r104,0r-96,127r-81,0","w":624},"\u00f4":{"d":"312,12v-148,0,-273,-117,-273,-266v0,-149,124,-264,273,-264v149,0,273,115,273,264v0,149,-125,266,-273,266xm312,-434v-96,0,-174,81,-174,180v0,99,78,182,174,182v97,0,174,-82,174,-182v0,-100,-77,-180,-174,-180xm174,-579r88,-127r101,0r88,127r-85,0r-53,-80r-2,0r-52,80r-85,0","w":624},"\u00f5":{"d":"312,12v-148,0,-273,-117,-273,-266v0,-149,124,-264,273,-264v149,0,273,115,273,264v0,149,-125,266,-273,266xm312,-434v-96,0,-174,81,-174,180v0,99,78,182,174,182v97,0,174,-82,174,-182v0,-100,-77,-180,-174,-180xm372,-639v29,0,39,-35,39,-65r70,0v0,85,-34,127,-102,127v-41,1,-69,-31,-91,-51v-36,-33,-77,-17,-74,48r-70,0v0,-85,34,-127,102,-127v41,-1,68,32,91,51v12,11,24,17,35,17","w":624},"\u00f6":{"d":"312,12v-148,0,-273,-117,-273,-266v0,-149,124,-264,273,-264v149,0,273,115,273,264v0,149,-125,266,-273,266xm312,-434v-96,0,-174,81,-174,180v0,99,78,182,174,182v97,0,174,-82,174,-182v0,-100,-77,-180,-174,-180xm356,-605r0,-101r80,0r0,101r-80,0xm189,-605r0,-101r80,0r0,101r-80,0","w":624},"\u00f7":{"d":"270,-435r0,-91r94,0r0,91r-94,0xm65,-246r0,-78r505,0r0,78r-505,0xm270,-44r0,-91r94,0r0,91r-94,0","w":635},"\u00f8":{"d":"585,-254v0,149,-125,266,-273,266v-45,0,-87,-10,-128,-29r-39,55r-48,-35r37,-52v-63,-51,-95,-120,-95,-205v0,-149,124,-264,273,-264v48,0,93,11,135,33r40,-55r47,34r-39,54v60,51,90,117,90,198xm396,-413v-121,-65,-258,29,-258,159v0,52,17,95,50,130xm236,-89v123,58,250,-37,250,-165v0,-48,-15,-89,-45,-122","w":624},"\u00f9":{"d":"428,-104v-25,58,-99,116,-186,116v-115,0,-173,-65,-173,-194r0,-324r97,0r0,302v2,78,17,125,95,126v99,1,164,-91,164,-191r0,-237r97,0r0,506r-94,0r0,-67r2,-37r-2,0xm257,-579r-95,-127r104,0r73,127r-82,0","w":598},"\u00fa":{"d":"428,-104v-25,58,-99,116,-186,116v-115,0,-173,-65,-173,-194r0,-324r97,0r0,302v2,78,17,125,95,126v99,1,164,-91,164,-191r0,-237r97,0r0,506r-94,0r0,-67r2,-37r-2,0xm252,-579r73,-127r104,0r-96,127r-81,0","w":598},"\u00fb":{"d":"428,-104v-25,58,-99,116,-186,116v-115,0,-173,-65,-173,-194r0,-324r97,0r0,302v2,78,17,125,95,126v99,1,164,-91,164,-191r0,-237r97,0r0,506r-94,0r0,-67r2,-37r-2,0xm157,-579r88,-127r101,0r88,127r-85,0r-53,-80r-2,0r-52,80r-85,0","w":598},"\u00fc":{"d":"428,-104v-25,58,-99,116,-186,116v-115,0,-173,-65,-173,-194r0,-324r97,0r0,302v2,78,17,125,95,126v99,1,164,-91,164,-191r0,-237r97,0r0,506r-94,0r0,-67r2,-37r-2,0xm340,-605r0,-101r80,0r0,101r-80,0xm173,-605r0,-101r80,0r0,101r-80,0","w":598},"\u00fd":{"d":"5,179r34,-74v60,42,122,19,150,-53r25,-58r-212,-500r109,0r127,331r19,61r2,0v5,-23,11,-43,17,-60r123,-332r105,0r-237,597v-29,79,-110,140,-213,111v-24,-8,-33,-14,-49,-23xm215,-579r73,-127r104,0r-96,127r-81,0","w":510},"\u00fe":{"d":"558,-253v0,166,-116,302,-288,257v-46,-12,-76,-41,-97,-75r-2,0v1,12,2,27,2,44r0,227r-97,0r0,-906r97,0r-1,272v16,-11,27,-33,46,-47v29,-21,65,-36,115,-37v140,-1,225,119,225,265xm317,-434v-95,1,-147,73,-147,182v0,97,53,181,145,180v89,0,144,-84,144,-181v0,-97,-51,-182,-142,-181","w":600},"\u00ff":{"d":"5,179r34,-74v60,42,122,19,150,-53r25,-58r-212,-500r109,0r127,331r19,61r2,0v5,-23,11,-43,17,-60r123,-332r105,0r-237,597v-29,79,-110,140,-213,111v-24,-8,-33,-14,-49,-23xm302,-605r0,-101r80,0r0,101r-80,0xm135,-605r0,-101r80,0r0,101r-80,0","w":510},"\u0152":{"d":"413,9v-201,0,-365,-162,-365,-363v0,-201,163,-361,365,-361v26,0,100,9,123,9r358,0r0,86r-312,0r0,221r254,0r0,86r-254,0r0,227r330,0r0,86r-375,0v-23,0,-98,9,-124,9xm484,-622v-188,-45,-334,93,-334,268v0,176,142,313,334,270r0,-538","w":960},"\u0153":{"d":"310,12v-149,0,-270,-112,-270,-264v0,-152,121,-266,270,-266v98,0,171,40,219,120r2,0v43,-80,112,-120,208,-120v149,0,236,122,216,279r-369,0v5,99,75,166,174,167v55,1,106,-22,150,-59r40,71v-33,35,-121,72,-196,72v-102,0,-176,-41,-221,-123r-2,0v-47,82,-121,123,-221,123xm859,-312v-1,-77,-48,-128,-121,-129v-82,0,-138,54,-149,129r270,0xm312,-434v-97,0,-173,80,-173,182v0,102,75,180,173,180v99,0,174,-79,174,-183v0,-100,-78,-179,-174,-179","w":1000},"\u0178":{"d":"245,0r0,-299r-237,-407r112,0r131,232r43,89r2,0v51,-116,114,-212,172,-321r112,0r-236,407r0,299r-99,0xm335,-781r0,-101r80,0r0,101r-80,0xm168,-781r0,-101r80,0r0,101r-80,0","w":588},"\u02c6":{"d":"111,-755r88,-127r101,0r88,127r-85,0r-53,-80r-2,0r-52,80r-85,0","w":499},"\u02dc":{"d":"309,-815v29,0,39,-35,39,-65r70,0v0,85,-34,127,-102,127v-41,1,-69,-31,-91,-51v-36,-33,-77,-17,-74,48r-70,0v0,-85,34,-127,102,-127v41,-1,68,32,91,51v12,11,24,17,35,17","w":499},"\u2013":{"d":"90,-246r0,-78r526,0r0,78r-526,0","w":706},"\u2014":{"d":"90,-246r0,-78r726,0r0,78r-726,0","w":906},"\u2018":{"d":"49,-522r66,-195r71,0r-43,195r-94,0","w":227},"\u2019":{"d":"51,-523r43,-195r94,0r-65,195r-72,0","w":219},"\u201a":{"d":"42,90r43,-195r91,0r-65,195r-69,0","w":244},"\u201c":{"d":"190,-522r66,-195r72,0r-43,195r-95,0xm49,-522r66,-195r72,0r-43,195r-95,0","w":369},"\u201d":{"d":"192,-523r43,-195r95,0r-65,195r-73,0xm51,-523r43,-195r95,0r-66,195r-72,0","w":360},"\u201e":{"d":"180,90r43,-195r92,0r-65,195r-70,0xm42,90r43,-195r91,0r-65,195r-69,0","w":383},"\u2022":{"d":"360,-291v0,83,-71,155,-154,155v-83,0,-155,-71,-155,-155v0,-84,72,-155,155,-155v83,0,154,72,154,155","w":411},"\u2026":{"d":"595,0r0,-103r99,0r0,103r-99,0xm335,0r0,-103r100,0r0,103r-100,0xm76,0r0,-103r99,0r0,103r-99,0","w":770},"\u2039":{"d":"208,-77r-164,-205r164,-206r97,0r-164,206r164,205r-97,0","w":355},"\u203a":{"d":"50,-77r164,-205r-164,-206r97,0r164,206r-164,205r-97,0","w":355},"\u20ac":{"d":"443,12v-175,1,-308,-120,-339,-270r-66,0r0,-63r55,0v-2,-25,-3,-49,0,-72r-55,0r0,-64r67,0v40,-169,220,-303,439,-249r-24,91v-81,-23,-166,-9,-224,35v-41,31,-69,72,-86,123r281,0r-13,64r-282,0v-4,23,-4,47,-1,72r270,0r-13,63r-240,0v30,123,169,211,324,163r19,90v-32,11,-69,17,-112,17","w":591},"\u2122":{"d":"435,-266r35,-440r69,0r104,230r14,42r2,0v4,-16,8,-30,13,-42r104,-230r70,0r34,440r-75,0r-21,-263r1,-30r-2,0r-95,212r-61,0r-95,-212r-2,0r1,30r-21,263r-75,0xm175,-266r0,-373r-152,0r0,-67r380,0r0,67r-152,0r0,373r-76,0","w":940}}});
