/*!
 * The following copyright notice may not be removed under any circumstances.
 * 
 * Copyright:
 * Copyright (c) 2008 by Jos Buivenga/exljbris. All rights reserved.
 * 
 * Description:
 * This is a protected webfont and is intended for CSS @font-face use ONLY.
 * Reverse engineering this font is strictly prohibited.
 */
Cufon.registerFont({"w":606,"face":{"font-family":"","font-weight":300,"font-stretch":"normal","units-per-em":"1000","panose-1":"2 0 0 0 0 0 0 0 0 0","ascent":"750","descent":"-250","x-height":"12","bbox":"-21 -883 960.961 210","underline-thickness":"50","underline-position":"-50","unicode-range":"U+0020-U+2122"},"glyphs":{" ":{"w":272},"!":{"d":"116,-184r-3,-519r70,0r-3,519r-64,0xm111,0r0,-77r77,0r0,77r-77,0","w":297},"\"":{"d":"187,-544r0,-169r59,0r0,169r-59,0xm66,-544r0,-169r59,0r0,169r-59,0","w":312},"#":{"d":"149,0r34,-195r-142,0r10,-56r141,0r35,-196r-141,0r9,-56r142,0r35,-200r61,0r-35,200r173,0r35,-200r61,0r-35,200r140,0r-10,56r-140,0r-34,196r139,0r-9,56r-140,0r-34,195r-61,0r34,-195r-173,0r-34,195r-61,0xm254,-251r172,0r35,-196r-173,0","w":713},"$":{"d":"487,-181v0,102,-83,185,-183,191r0,93r-57,0r0,-93v-96,-12,-161,-64,-201,-130r52,-42v34,54,89,105,178,109v101,5,179,-103,120,-187v-85,-121,-328,-99,-328,-300v0,-97,83,-163,179,-172r0,-95r57,0r0,93v75,8,165,40,164,120r0,50r-66,0r0,-33v-1,-47,-63,-73,-118,-73v-78,0,-144,41,-144,109v0,99,102,118,174,155v84,43,172,83,173,205","w":532},"%":{"d":"343,-576v0,76,-65,139,-141,139v-75,0,-140,-64,-140,-139v0,-74,65,-139,140,-139v75,0,141,65,141,139xm68,0r536,-703r71,0r-535,703r-72,0xm121,-576v0,45,36,83,81,83v45,0,82,-38,82,-83v0,-44,-38,-83,-82,-83v-44,0,-81,39,-81,83xm540,12v-75,0,-140,-64,-140,-138v0,-75,65,-140,140,-140v75,0,141,65,141,140v0,74,-66,138,-141,138xm540,-210v-44,0,-80,39,-80,83v0,45,35,83,80,83v45,0,82,-38,82,-83v0,-44,-38,-83,-82,-83","w":743},"&":{"d":"283,12v-129,2,-238,-85,-237,-208v0,-87,53,-165,127,-183r0,-2v-56,-22,-95,-75,-97,-156v-3,-138,146,-207,290,-167r-20,57v-101,-27,-198,20,-198,114v0,87,58,128,151,127r146,0r0,-97r69,0r0,97r93,0r0,62r-93,0r0,103v2,156,-82,251,-231,253xm301,-344v-109,-1,-183,47,-184,146v-1,87,73,147,166,145v110,-2,164,-70,162,-190r0,-101r-144,0","w":624},"'":{"d":"66,-544r0,-169r59,0r0,169r-59,0","w":191},"(":{"d":"200,95v-147,-232,-157,-593,-7,-825r64,0v-153,251,-140,573,6,825r-63,0","w":309},")":{"d":"46,95v146,-252,159,-574,6,-825r64,0v150,235,140,592,-7,825r-63,0","w":309},"*":{"d":"152,-337r-53,-38r94,-120r0,-2r-147,-42r20,-63r144,53r-6,-154r68,0r-7,154r146,-52r20,61r-148,43r0,2r94,120r-52,39r-86,-127r-2,0","w":477},"+":{"d":"42,-255r0,-58r231,0r0,-255r61,0r0,255r230,0r0,58r-230,0r0,255r-61,0r0,-255r-231,0"},",":{"d":"80,-82r73,0r-73,179r-57,0","w":215},"-":{"d":"74,-253r0,-62r284,0r0,62r-284,0","w":432},".":{"d":"69,0r0,-80r77,0r0,80r-77,0","w":215},"\/":{"d":"3,42r254,-784r63,0r-253,784r-64,0","w":325},"0":{"d":"301,12v-161,0,-242,-121,-242,-364v0,-242,81,-363,242,-363v122,0,194,81,221,178v14,52,22,114,22,185v0,243,-81,364,-243,364xm301,-53v114,0,171,-100,171,-299v0,-199,-57,-298,-171,-298v-114,0,-171,99,-171,298v0,199,57,299,171,299","w":602},"1":{"d":"64,0r0,-62r157,0r1,-555r-2,0v-23,37,-78,82,-110,117r-44,-45r159,-158r66,0r0,641r154,0r0,62r-381,0","w":476},"2":{"d":"105,0v-48,0,-63,-20,-63,-69v0,-214,231,-230,334,-348v26,-29,38,-62,38,-100v1,-78,-62,-132,-144,-132v-57,0,-123,29,-125,76r0,33r-66,0v0,-45,-4,-81,19,-108v36,-42,102,-64,174,-67v123,-3,217,81,214,197v-6,207,-232,225,-334,341v-26,28,-38,60,-38,95v0,13,8,20,23,20r294,0v32,2,20,-41,22,-69r65,0r0,70v0,43,-18,61,-61,61r-352,0","w":564},"3":{"d":"483,-207v2,120,-107,222,-232,219v-102,-3,-174,-47,-225,-98r42,-52v40,42,101,83,184,84v83,2,159,-67,159,-152v0,-91,-80,-149,-171,-148r-49,0r-16,-41r173,-208v11,-15,23,-28,36,-39r0,-2v-69,6,-164,3,-240,3v-32,0,-20,41,-22,69r-65,0r0,-70v0,-44,15,-61,59,-61r357,0r0,46r-207,243v123,12,215,72,217,207","w":528},"4":{"d":"15,-194r0,-46r342,-463r75,0r0,447r112,0r0,62r-112,0r0,194r-70,0r0,-194r-347,0xm363,-256r0,-287r3,-68r-2,0v-11,19,-23,37,-36,54r-195,258r-37,44r0,2v84,-7,178,-1,267,-3","w":562},"5":{"d":"508,-217v0,152,-155,267,-322,219v-43,-12,-72,-32,-100,-54v-17,-14,-21,-23,-32,-36r44,-49v32,44,86,82,163,83v96,2,175,-71,175,-164v0,-120,-125,-194,-251,-156v-33,9,-46,17,-66,30r-36,-15r30,-283v4,-42,17,-60,61,-61r231,0v43,0,60,18,60,61r0,70r-65,0v-2,-28,10,-69,-22,-69r-178,0v-13,0,-20,7,-22,22r-18,159r-6,40v32,-15,65,-26,108,-26v134,0,246,100,246,229","w":569},"6":{"d":"518,-223v0,136,-92,235,-221,235v-159,0,-257,-151,-254,-321v2,-132,44,-240,106,-315v52,-63,156,-110,269,-84v31,7,43,12,63,22r-26,61v-69,-38,-167,-30,-225,19v-65,56,-101,139,-112,245r2,0v29,-51,101,-85,179,-85v127,0,219,96,219,223xm288,-384v-77,0,-169,55,-170,120v-3,94,81,211,178,211v94,0,151,-74,151,-169v0,-95,-64,-162,-159,-162","w":560},"7":{"d":"30,-642v0,-43,17,-61,60,-61r415,0r0,48r-348,655r-78,0r306,-576v12,-23,28,-43,39,-67v-12,1,-30,2,-53,2r-253,0v-32,-2,-20,41,-22,69r-66,0r0,-70","w":512},"8":{"d":"286,12v-148,0,-285,-121,-226,-276v21,-56,64,-93,112,-120v-1,-5,-7,-5,-10,-8v-43,-25,-86,-71,-86,-139v0,-109,92,-184,212,-184v142,0,249,103,206,246v-15,52,-50,86,-85,115r0,2v65,35,111,72,113,161v2,114,-115,203,-236,203xm288,-650v-79,0,-142,46,-142,119v0,33,13,58,34,77v23,21,124,70,164,70v15,0,34,-15,56,-46v22,-31,33,-63,33,-96v1,-77,-65,-124,-145,-124xm286,-53v81,0,166,-59,164,-139v0,-33,-12,-58,-33,-78v-24,-24,-147,-82,-183,-82v-18,0,-42,15,-71,46v-29,31,-44,66,-44,105v0,87,80,148,167,148","w":570},"9":{"d":"263,-715v159,0,257,151,254,321v-2,105,-32,198,-73,270v-51,89,-162,159,-302,129v-31,-7,-43,-12,-63,-22r26,-61v69,39,166,31,225,-19v66,-56,103,-139,112,-246r-2,0v-29,51,-102,86,-179,86v-127,0,-218,-96,-218,-223v0,-135,91,-235,220,-235xm113,-481v0,95,64,162,159,162v77,0,169,-55,170,-120v3,-94,-81,-211,-178,-211v-94,0,-151,74,-151,169","w":560},":":{"d":"103,-423r0,-80r77,0r0,80r-77,0xm103,0r0,-80r77,0r0,80r-77,0","w":283},";":{"d":"103,-423r0,-80r77,0r0,80r-77,0xm54,97r48,-179r73,0r-64,179r-57,0","w":283},"<":{"d":"69,-259r0,-50r452,-202r0,67r-367,159r0,2r367,159r0,67"},"=":{"d":"70,-342r0,-58r466,0r0,58r-466,0xm70,-168r0,-58r466,0r0,58r-466,0"},">":{"d":"77,-57r0,-67r367,-159r0,-2r-367,-159r0,-67r452,202r0,50"},"?":{"d":"200,-716v108,0,201,72,200,177v-1,98,-63,145,-116,192v-30,28,-63,66,-63,120r0,43r-68,0v-1,-50,1,-89,18,-125v33,-70,102,-99,139,-163v12,-20,18,-41,18,-64v1,-67,-60,-117,-131,-115v-44,1,-84,15,-121,43r-37,-51v28,-27,100,-57,161,-57xm149,0r0,-77r77,0r0,77r-77,0","w":431},"@":{"d":"407,124v-201,5,-366,-166,-366,-366v0,-196,163,-367,356,-367v148,0,245,64,245,189r0,315r71,0r0,56r-269,0v-108,3,-200,-87,-200,-192v0,-105,91,-192,200,-192r130,0v-6,-78,-76,-117,-172,-117v-161,0,-291,146,-291,308v0,167,130,310,296,306r0,60xm452,-380v-76,-2,-138,63,-138,138v0,74,62,137,136,137r124,0r0,-275r-122,0","w":739},"A":{"d":"12,0r0,-62v25,1,43,-3,49,-22r230,-619r75,0r230,619v6,18,23,24,48,22r0,62v-31,0,-72,0,-86,-11v-10,-8,-20,-23,-29,-47r-61,-166r-279,0r-62,166v-19,44,-25,57,-82,58r-33,0xm208,-285r241,0r-93,-251r-27,-91r-2,0v-34,130,-78,223,-119,342","w":657},"B":{"d":"166,0v-43,0,-61,-18,-61,-61r0,-580r-65,0r0,-62r299,0v109,-1,190,69,190,177v0,73,-30,124,-90,153r0,2v69,18,118,88,118,174v0,120,-91,197,-210,197r-181,0xm457,-521v0,-71,-48,-120,-120,-120r-162,0r0,243r163,0v70,1,119,-52,119,-123xm484,-199v0,-82,-56,-139,-138,-139r-171,0r0,254v0,15,7,22,22,22r150,0v84,1,137,-54,137,-137"},"C":{"d":"389,12v-201,4,-351,-167,-351,-369v0,-223,187,-402,430,-349v82,18,174,48,180,140r0,58r-66,0v4,-64,-6,-87,-63,-113v-42,-19,-86,-28,-132,-28v-158,-3,-276,130,-276,292v0,162,120,303,279,303v88,0,173,-38,230,-99r40,51v-57,61,-150,112,-271,114","w":694},"D":{"d":"168,0v-43,0,-61,-18,-61,-61r0,-580r-65,0r0,-62r282,0v213,-2,353,136,353,351v0,217,-139,353,-353,352r-156,0xm604,-352v0,-180,-110,-290,-287,-289r-140,0r0,557v0,15,7,22,22,22r118,0v177,1,287,-109,287,-290","w":715},"E":{"d":"168,0v-43,0,-61,-18,-61,-61r0,-580r-65,0r0,-62r402,0v43,0,61,18,61,61r0,70r-66,0v-2,-28,10,-69,-22,-69r-240,0r0,256r264,0r0,62r-264,0r0,239v0,15,7,22,22,22r247,0v32,2,20,-41,22,-69r65,0r0,70v0,43,-18,61,-61,61r-304,0","w":558},"F":{"d":"416,-703v43,0,60,18,60,61r0,70r-65,0v-2,-28,10,-69,-22,-69r-212,0r0,264r255,0r0,62r-255,0r0,315r-70,0r0,-641r-65,0r0,-62r374,0","w":499},"G":{"d":"383,12v-194,3,-344,-166,-344,-365v0,-196,156,-362,351,-362v100,0,185,31,246,86r-41,52v-36,-35,-126,-72,-204,-72v-159,0,-279,134,-279,296v0,189,154,342,354,289v64,-18,109,-53,146,-93r0,-87v2,-31,-38,-20,-65,-22r0,-62r70,0v43,0,61,18,61,61r0,267r-64,0r1,-83r-2,0v-48,51,-129,93,-230,95","w":730},"H":{"d":"581,-642v0,-43,17,-61,60,-61r75,0r0,62v-27,2,-65,-9,-65,22r0,619r-70,0r0,-321r-404,0r0,321r-70,0r0,-619v2,-31,-38,-20,-65,-22r0,-62r74,0v43,0,61,18,61,61r0,259r404,0r0,-259","w":757},"I":{"d":"46,0r0,-62r66,0r0,-579r-66,0r0,-62r201,0r0,62r-67,0r0,579r67,0r0,62r-201,0","w":293},"J":{"d":"222,12v-117,0,-203,-79,-198,-209r0,-28r70,0v-8,106,40,171,129,171v79,0,127,-55,127,-145r0,-420v0,-15,-7,-22,-22,-22r-174,0r0,-62r205,0v43,0,61,18,61,61r0,445v4,131,-80,209,-198,209","w":505},"K":{"d":"116,-703v43,0,61,18,61,61r0,244v53,-2,122,9,143,-25r170,-280r80,0r-181,295v-12,19,-24,32,-36,39r0,2v11,4,23,17,34,40r122,242v9,26,36,23,71,23r0,62v-34,0,-83,0,-99,-10v-12,-7,-24,-20,-35,-43r-128,-257v-13,-35,-90,-25,-141,-26r0,336r-70,0r0,-619v2,-31,-38,-20,-65,-22r0,-62r74,0","w":590},"L":{"d":"168,0v-43,0,-61,-18,-61,-61r0,-558v2,-31,-38,-20,-65,-22r0,-62r74,0v43,0,61,18,61,61r0,558v0,15,7,22,22,22r233,0v32,2,20,-41,22,-69r66,0r0,70v0,43,-18,61,-61,61r-291,0","w":530},"M":{"d":"22,0r0,-62v26,-1,57,7,59,-22r49,-619r71,0r186,409r35,83r2,0v12,-31,23,-59,34,-83r186,-409r71,0r49,619v-1,29,33,21,60,22r0,62v-40,-2,-95,7,-114,-14v-9,-9,-14,-25,-15,-47r-33,-427r-3,-98r-2,0v-13,41,-25,74,-36,98r-167,357r-63,0r-166,-357r-37,-100r-2,0v0,41,-1,75,-3,100r-33,427v-3,43,-16,60,-61,61r-67,0","w":845},"N":{"d":"177,-61v0,43,-18,61,-61,61r-74,0r0,-62v27,-2,65,9,65,-22r0,-619r64,0r359,501r57,92r2,0v-3,-37,-5,-67,-5,-92r0,-440v0,-43,18,-61,61,-61r74,0r0,62v-27,2,-65,-9,-65,22r0,619r-64,0r-359,-501r-58,-91r-2,0v4,36,6,66,6,91r0,440","w":760},"O":{"d":"396,12v-197,0,-358,-170,-358,-368v0,-196,163,-359,358,-359v195,0,358,163,358,359v0,198,-162,368,-358,368xm396,-649v-157,0,-285,134,-285,293v0,162,127,302,285,302v157,0,285,-141,285,-302v0,-159,-128,-293,-285,-293","w":791},"P":{"d":"556,-491v0,127,-92,215,-217,215r-162,0r0,276r-70,0r0,-641r-65,0r0,-62r297,0v125,-2,217,86,217,212xm484,-491v0,-92,-61,-151,-153,-150r-154,0r0,303r153,0v93,1,154,-60,154,-153","w":579},"Q":{"d":"394,12v-196,0,-356,-170,-356,-368v0,-196,162,-359,356,-359v197,0,360,162,360,359v0,92,-29,173,-88,242r86,86r-43,45r-86,-87v-64,55,-140,82,-229,82xm394,-648v-158,0,-283,132,-283,292v0,162,125,302,283,302v69,0,132,-23,180,-64r-84,-85r43,-45r83,86v43,-55,65,-120,65,-194v0,-161,-127,-292,-287,-292","w":791},"R":{"d":"542,-503v0,98,-60,172,-136,188r0,2v9,5,17,15,24,28r101,200v9,24,31,23,64,23r0,62v-33,0,-78,-1,-93,-10v-12,-7,-24,-20,-35,-43r-101,-201v-19,-33,-24,-42,-71,-42r-118,0r0,296r-70,0r0,-641r-65,0r0,-62r298,0v117,-1,202,81,202,200xm469,-501v0,-84,-52,-141,-135,-140r-157,0r0,283r156,0v84,1,136,-57,136,-143","w":605},"S":{"d":"458,-258v58,139,-52,276,-198,270v-102,-4,-175,-46,-223,-100r43,-51v39,43,100,84,182,86v75,2,140,-51,139,-125v-1,-74,-66,-112,-122,-139v-98,-45,-225,-82,-225,-218v0,-133,150,-210,296,-170v48,13,111,51,109,111r0,50r-66,0r0,-33v-1,-47,-68,-73,-123,-73v-98,0,-179,80,-129,166v20,35,56,50,95,70v84,43,185,68,222,156","w":518},"T":{"d":"548,-703v43,1,56,14,57,57r0,74r-65,0v-2,-28,10,-69,-22,-69r-173,0r0,641r-70,0r0,-641r-174,0v-32,-2,-20,41,-22,69r-64,0r0,-74v1,-43,14,-56,57,-57r476,0","w":620},"U":{"d":"359,12v-151,0,-260,-102,-260,-253r0,-378v2,-31,-38,-20,-65,-22r0,-62r74,0v43,0,61,18,61,61r0,398v-2,115,75,190,189,190v115,0,190,-75,190,-192r0,-396v0,-43,18,-61,61,-61r74,0r0,62v-27,2,-65,-9,-65,22r0,378v2,151,-108,253,-259,253","w":717},"V":{"d":"289,0r-231,-619v-6,-18,-22,-23,-46,-22r0,-62v31,0,70,0,84,11v10,8,20,23,29,47r173,473r27,91r2,0v9,-37,18,-67,27,-91r173,-473v18,-45,26,-57,83,-58r30,0r0,62v-23,-1,-39,5,-45,22r-231,619r-75,0","w":653},"W":{"d":"227,0r-161,-619v-4,-18,-24,-24,-49,-22r0,-62v33,-1,73,0,89,11v12,8,21,24,27,47r122,485r15,75r2,0v6,-26,12,-51,19,-75r155,-540r69,0r141,540r16,75r2,0v5,-26,10,-51,16,-75r122,-485v13,-46,29,-57,85,-58r31,0r0,62v-25,-1,-44,4,-48,22r-162,619r-83,0r-131,-489r-23,-104r-2,0v-8,39,-16,73,-25,103r-144,490r-83,0","w":945},"X":{"d":"15,0r224,-367r-152,-248v-14,-23,-37,-28,-71,-26r0,-62v34,0,76,-1,94,11v12,8,26,22,40,45r90,151r45,80r2,0v41,-84,86,-154,133,-231v25,-42,37,-55,97,-56r37,0r0,62v-34,-2,-57,3,-71,26r-153,248r225,367r-80,0r-146,-242r-45,-77r-2,0v-57,113,-125,211,-187,319r-80,0","w":570},"Y":{"d":"261,0r0,-306r-188,-309v-14,-22,-32,-28,-63,-26r0,-62v30,0,66,0,82,10v12,7,26,22,41,46r119,199r43,79r2,0v50,-98,106,-186,162,-278v26,-44,35,-54,96,-56r27,0r0,62v-31,-2,-49,4,-62,26r-189,309r0,306r-70,0","w":592},"Z":{"d":"547,-61v0,43,-18,61,-61,61r-467,0r0,-49r377,-528r24,-32r27,-32r0,-2v-11,1,-28,2,-51,2r-280,0v-32,-2,-20,41,-22,69r-65,0r0,-70v0,-43,18,-61,61,-61r443,0r0,49r-376,528r-52,64r0,2v11,-1,29,-2,52,-2r303,0v32,2,20,-41,22,-69r65,0r0,70","w":575},"[":{"d":"162,95v-43,0,-61,-18,-61,-61r0,-703v0,-43,18,-61,61,-61r74,0r0,56v-29,3,-72,-11,-72,22r0,669v-2,33,43,19,72,22r0,56r-74,0","w":303},"\\":{"d":"259,42r-254,-784r64,0r253,784r-63,0","w":317},"]":{"d":"202,34v0,43,-18,61,-61,61r-74,0r0,-56v29,-3,72,11,72,-22r0,-669v2,-33,-43,-19,-72,-22r0,-56r74,0v43,0,61,18,61,61r0,703","w":303},"^":{"d":"73,-250r198,-453r47,0r198,453r-65,0r-156,-370r-156,370r-66,0"},"_":{"d":"5,0r516,0r0,58r-516,0r0,-58","w":526},"`":{"d":"180,-752r-87,-119r76,0r70,119r-59,0","w":360},"a":{"d":"276,1v-111,37,-236,-23,-236,-138v0,-115,103,-173,308,-173r28,0v1,-104,-30,-148,-130,-148v-34,0,-99,9,-98,44r0,32r-65,0v1,-39,-4,-69,19,-90v32,-29,89,-42,145,-43v141,-3,197,63,197,193r0,241v-2,31,37,20,64,22r0,59r-69,0v-43,0,-60,-18,-60,-60r1,-37v-4,-1,0,3,-6,11v-21,36,-51,72,-98,87xm222,-46v97,-2,162,-103,154,-210r-74,1v-91,6,-192,19,-192,114v0,55,49,96,112,95","w":529},"b":{"d":"542,-251v0,147,-88,263,-227,263v-73,0,-132,-37,-165,-97r-2,0v3,23,2,58,2,85r-66,0r0,-622v2,-31,-37,-20,-64,-22r0,-59r71,0v43,0,61,18,61,61r0,182r-2,41v5,-1,5,-8,8,-11v29,-47,86,-85,165,-85v139,-1,219,118,219,264xm313,-453v-103,0,-163,84,-163,203v0,103,57,204,160,202v100,-2,162,-92,162,-203v0,-110,-58,-202,-159,-202","w":584},"c":{"d":"304,12v-150,3,-264,-112,-264,-263v0,-166,140,-293,318,-259v58,11,123,35,126,102r0,45r-64,0r0,-29v1,-41,-72,-62,-115,-62v-111,0,-195,88,-195,203v0,115,87,201,197,201v64,0,121,-27,162,-71r32,51v-41,45,-109,81,-197,82","w":528},"d":{"d":"330,1v-171,51,-288,-83,-288,-253v0,-147,87,-263,226,-263v74,0,133,35,164,94r2,0v-5,-62,-2,-135,-2,-201v0,-31,-37,-20,-64,-22r0,-59r71,0v43,0,61,18,61,61r0,561v-2,31,37,20,64,22r0,59r-70,0v-54,2,-66,-37,-58,-88v-5,1,-5,8,-8,11v-20,33,-52,65,-98,78xm112,-252v0,111,57,203,159,203v103,0,163,-84,163,-203v0,-104,-56,-204,-160,-202v-100,2,-162,92,-162,202","w":588},"e":{"d":"303,12v-148,0,-263,-113,-263,-263v0,-151,105,-264,248,-264v142,0,225,117,209,266r-386,0v-2,116,84,200,195,200v57,1,111,-22,151,-62r33,51v-32,34,-115,72,-187,72xm429,-303v-1,-91,-56,-155,-142,-155v-94,0,-161,67,-173,155r315,0","w":548},"f":{"d":"88,0r0,-446r-63,0r0,-57r63,0v-4,-80,20,-147,66,-175v39,-24,81,-34,138,-28r0,61v-91,-12,-144,41,-136,142r128,0r0,57r-128,0r0,446r-68,0","w":305},"g":{"d":"266,-3v-138,2,-224,-115,-224,-258v0,-143,80,-255,218,-254v82,1,142,32,167,86r2,0v-3,-47,11,-75,57,-74r70,0r0,59v-27,2,-63,-8,-63,22r0,410v4,146,-104,221,-242,222v-57,0,-112,-13,-164,-40r26,-57v41,23,87,35,136,35v104,0,178,-52,176,-158r1,-80r-2,0v-31,58,-84,87,-158,87xm112,-262v0,111,60,200,164,198v104,-2,150,-75,150,-197v0,-128,-53,-192,-159,-192v-104,0,-155,80,-155,191","w":579},"h":{"d":"452,-302v2,-89,-21,-149,-110,-149v-90,0,-164,67,-182,143v-5,18,-8,40,-8,67r0,241r-68,0r0,-622v2,-31,-37,-20,-64,-22r0,-59r71,0v42,0,61,17,61,59r0,213r-2,41r2,0v25,-61,105,-127,199,-125v125,3,169,69,169,195r0,239v-2,31,37,20,64,22r0,59r-71,0v-43,0,-61,-18,-61,-61r0,-241","w":605},"i":{"d":"90,-617r0,-86r66,0r0,86r-66,0xm153,0v-43,0,-61,-18,-61,-61r0,-361v2,-31,-37,-20,-64,-22r0,-59r71,0v43,0,61,18,61,61r0,361v-2,31,37,20,64,22r0,59r-71,0","w":251},"j":{"d":"114,-617r0,-86r65,0r0,86r-65,0xm122,-503v43,0,61,18,61,61r0,461v1,73,-24,131,-67,157v-39,24,-81,35,-137,27r0,-59v89,8,136,-39,136,-128r0,-438v2,-31,-37,-20,-64,-22r0,-59r71,0","w":268},"k":{"d":"91,-703v44,1,61,14,61,58r0,334v45,0,88,3,109,-24r129,-168r83,0r-145,184v-12,15,-24,29,-38,36r0,2v10,5,20,17,31,37r91,163v9,25,39,22,73,22r0,59v-34,0,-84,2,-101,-10v-11,-6,-22,-19,-33,-40r-100,-180v-11,-26,-60,-22,-99,-22r0,252r-68,0r0,-622v2,-31,-37,-20,-64,-22r0,-59r71,0","w":498},"l":{"d":"147,0v-43,0,-61,-18,-61,-61r0,-561v2,-31,-37,-20,-64,-22r0,-59r71,0v43,0,61,18,61,61r0,561v-2,31,37,20,64,22r0,59r-71,0","w":245},"m":{"d":"778,-303v-2,-90,-20,-150,-109,-150v-80,0,-141,75,-159,142v-5,19,-9,43,-9,73r0,238r-68,0r0,-303v1,-87,-18,-151,-106,-150v-86,0,-145,75,-164,148v-5,19,-8,41,-8,67r0,238r-68,0r0,-422v2,-31,-37,-20,-64,-22r0,-59r70,0v65,-4,65,54,59,115r2,0v21,-63,101,-128,182,-127v89,0,141,42,156,126r2,0v24,-65,99,-127,185,-126v123,0,166,70,167,195r0,239v-2,31,37,20,64,22r0,59r-71,0v-43,0,-61,-18,-61,-61r0,-242","w":931},"n":{"d":"455,-302v-2,-91,-17,-149,-109,-149v-90,0,-165,66,-183,142v-5,19,-8,41,-8,68r0,241r-68,0r0,-422v2,-31,-37,-20,-64,-22r0,-59r70,0v65,-4,65,54,59,115r2,0v26,-63,102,-129,200,-127v125,3,169,69,169,195r0,239v-2,31,37,20,64,22r0,59r-71,0v-43,0,-61,-18,-61,-61r0,-241","w":608},"o":{"d":"306,12v-145,0,-266,-120,-266,-266v0,-144,122,-261,265,-261v144,0,266,116,266,261v0,146,-121,266,-265,266xm306,-453v-108,0,-196,90,-196,199v0,111,87,205,196,205v108,0,195,-94,195,-205v0,-109,-88,-199,-195,-199","w":611},"p":{"d":"545,-251v0,167,-120,303,-289,253v-49,-14,-80,-46,-101,-85r-2,0v1,12,2,27,2,44r0,239r-68,0r0,-622v2,-31,-37,-20,-64,-22r0,-59r69,0v40,0,60,18,60,53r-1,34v5,-1,4,-7,7,-10v22,-33,51,-65,99,-78v172,-48,288,83,288,253xm316,-453v-103,0,-163,84,-163,203v0,103,58,204,160,202v100,-2,162,-92,162,-203v0,-111,-57,-202,-159,-202","w":587},"q":{"d":"329,2v-171,49,-286,-85,-286,-254v0,-168,120,-302,290,-253v50,14,81,47,102,87r2,0v-1,-9,-1,-20,-1,-33v0,-35,20,-52,60,-52r69,0r0,59v-27,2,-64,-9,-64,22r0,622r-68,0r0,-241r2,-44v-5,1,-4,8,-7,11v-22,30,-53,63,-99,76xm112,-252v0,111,58,203,160,203v103,0,163,-84,163,-203v0,-104,-56,-204,-160,-202v-99,2,-163,92,-163,202","w":588},"r":{"d":"154,-374v24,-77,85,-147,186,-131r0,67v-94,-14,-149,54,-171,128v-9,30,-14,63,-14,98r0,212r-68,0r0,-422v2,-31,-37,-20,-64,-22r0,-59r70,0v70,-5,64,64,59,129r2,0","w":362},"s":{"d":"398,-129v2,87,-84,141,-176,141v-80,0,-149,-32,-193,-88r39,-47v32,39,83,75,155,76v55,1,108,-27,106,-80v-2,-50,-56,-72,-99,-90v-78,-32,-180,-58,-183,-162v-2,-93,82,-139,179,-136v72,2,147,21,153,91r0,43r-64,0r0,-24v1,-35,-51,-51,-87,-51v-75,0,-112,24,-112,73v0,51,57,73,100,91v79,31,179,58,182,163","w":440},"t":{"d":"297,2v-130,14,-204,-56,-204,-185r0,-263r-66,0r0,-57r67,0r0,-139r67,0r0,139r126,0r0,57r-126,0r0,256v0,89,45,143,136,131r0,61","w":335},"u":{"d":"254,12v-123,-3,-169,-68,-169,-195r0,-239v2,-31,-37,-20,-64,-22r0,-59r71,0v42,0,61,17,61,59r0,243v2,92,18,149,110,149v109,0,185,-102,185,-210r0,-241r68,0r0,422v-2,31,37,20,64,22r0,59r-69,0v-65,4,-65,-54,-59,-115r-2,0v-26,61,-102,129,-196,127","w":603},"v":{"d":"222,0r-164,-421v-7,-18,-21,-24,-44,-23r0,-59v29,0,65,1,78,11v10,8,20,21,29,44r121,314r17,59r2,0v5,-23,11,-42,17,-59r121,-314v16,-50,41,-57,105,-55r0,59v-23,-1,-38,5,-44,23r-164,421r-74,0","w":518},"w":{"d":"202,0r-144,-421v-6,-19,-23,-25,-48,-23r0,-59v31,0,73,0,88,11v10,8,19,22,26,45r103,319r15,54r2,0v5,-20,11,-38,16,-54r123,-373r68,0r123,373r16,54r2,0v34,-131,78,-248,118,-373v14,-45,24,-55,79,-56r35,0r0,59v-25,-1,-43,3,-49,23r-144,421r-75,0r-123,-358r-15,-54r-2,0v-5,19,-10,37,-16,54r-122,358r-76,0","w":834},"x":{"d":"19,0r175,-262r-109,-161v-13,-19,-36,-22,-67,-21r0,-59v32,0,76,-1,92,10v11,7,24,22,39,45r72,112r17,30r2,0v26,-51,58,-96,89,-142v29,-43,32,-53,94,-55r36,0r0,59v-30,-1,-55,3,-67,20r-109,162r176,262r-80,0r-123,-187r-16,-28r-2,0v-5,9,-11,19,-17,28r-123,187r-79,0","w":477},"y":{"d":"40,111v11,17,45,38,75,38v39,0,69,-28,93,-82r30,-69r-177,-419v-8,-18,-21,-25,-45,-23r0,-59v29,0,67,0,80,11v9,8,19,21,28,44r129,314r18,54r2,0v5,-19,10,-37,17,-54r124,-314v18,-42,24,-54,78,-55r31,0r0,59v-24,-1,-38,5,-45,23r-217,526v-23,58,-70,104,-144,105v-44,0,-83,-16,-109,-49","w":539},"z":{"d":"473,-61v0,43,-18,61,-61,61r-373,0r0,-44r283,-353r40,-46r0,-2v-70,4,-159,2,-234,2v-30,0,-21,35,-22,61r-64,0r0,-60v0,-43,18,-61,61,-61r349,0r0,45r-282,352r-42,46r0,2v78,-5,176,-2,259,-2v30,0,21,-35,22,-61r64,0r0,60","w":499},"{":{"d":"282,96v-112,7,-164,-66,-164,-179r0,-95v-1,-64,-32,-105,-85,-114r0,-62v52,-10,85,-51,85,-115r0,-82v1,-113,49,-183,164,-179r0,56v-74,-2,-101,48,-101,125r0,98v0,66,-35,107,-80,127r0,2v46,18,80,60,80,127r0,110v0,76,28,126,101,125r0,56","w":326},"|":{"d":"111,157r0,-945r63,0r0,945r-63,0","w":285},"}":{"d":"208,-83v-1,113,-51,186,-164,179r0,-56v73,1,101,-49,101,-125r0,-110v0,-67,34,-108,80,-127r0,-2v-45,-19,-79,-62,-80,-127r0,-98v0,-77,-27,-127,-101,-125r0,-56v114,-3,163,65,164,179r0,82v0,64,29,103,85,115r0,62v-52,10,-85,50,-85,114r0,95","w":326},"~":{"d":"197,-309v-53,0,-70,50,-71,100r-59,0v-1,-96,40,-154,127,-155v62,-1,94,35,124,68v17,18,42,36,75,36v53,0,70,-50,71,-100r59,0v1,96,-40,153,-127,155v-48,1,-89,-27,-109,-52v-18,-22,-50,-52,-90,-52"},"\u00a0":{"w":272},"\u00a1":{"d":"109,-426r0,-77r77,0r0,77r-77,0xm113,200r3,-519r64,0r3,519r-70,0","w":297},"\u00a2":{"d":"126,-352v0,118,49,215,162,215v63,0,109,-36,140,-108r64,25v-41,91,-100,141,-179,148r0,111r-57,0r0,-111v-128,-13,-201,-136,-201,-280v0,-145,73,-266,201,-279r0,-111r57,0r0,111v81,9,140,59,179,148r-64,24v-31,-72,-77,-108,-140,-108v-111,-1,-162,99,-162,215","w":545},"\u00a3":{"d":"537,-61v0,43,-18,61,-61,61r-422,0r0,-62r63,0r0,-264r-45,0r0,-55r45,0r0,-149v-2,-107,94,-185,206,-185v60,0,113,21,157,57r-43,50v-32,-28,-70,-42,-114,-42v-79,0,-136,50,-136,124r0,145r191,0r0,55r-191,0r0,264r263,0v32,2,20,-41,22,-69r65,0r0,70","w":582},"\u00a5":{"d":"107,-213r0,-52r162,0r0,-41r-29,-46r-137,0r0,-51r105,0r0,-2r-131,-214v-10,-18,-31,-23,-60,-22r0,-62v70,-2,94,8,123,56r119,199r43,78r2,0v51,-97,110,-183,163,-277v27,-48,52,-57,122,-56r0,62v-29,-1,-50,4,-60,22r-130,214r0,2r100,0r0,51r-133,0r-27,46r0,41r160,0r0,52r-160,0r0,213r-70,0r0,-213r-162,0","w":607},"\u00a7":{"d":"245,-655v-73,-2,-118,58,-106,138r66,432r-60,0r-68,-434v-23,-114,59,-198,168,-196v45,1,83,15,116,42r-35,47v-23,-19,-50,-29,-81,-29xm345,-134v23,117,-60,196,-169,196v-45,-1,-83,-15,-116,-42r35,-48v23,20,51,30,82,30v73,1,117,-61,105,-141r-65,-429r60,0","w":415},"\u00a8":{"d":"307,-785r0,-86r59,0r0,86r-59,0xm157,-785r0,-86r59,0r0,86r-59,0","w":493},"\u00a9":{"d":"394,12v-193,0,-353,-169,-353,-364v0,-194,162,-363,353,-363v194,0,358,168,358,363v0,198,-162,364,-358,364xm394,-661v-164,0,-294,143,-294,309v0,167,130,310,294,310v167,0,300,-141,300,-310v0,-168,-133,-309,-300,-309xm404,-146v-120,3,-206,-91,-206,-204v0,-132,121,-241,265,-196v48,15,80,47,104,83r-46,31v-22,-34,-59,-67,-115,-69v-88,-3,-149,66,-149,150v0,84,60,150,149,150v46,0,87,-27,115,-69r46,31v-32,47,-83,91,-163,93","w":793},"\u00aa":{"d":"265,-439v-11,28,-52,57,-95,57v-58,1,-110,-38,-110,-96v0,-77,76,-113,203,-110v-2,-54,-17,-77,-71,-77v-49,0,-56,6,-52,44r-53,0v0,-34,-4,-57,22,-72v25,-14,51,-19,84,-20v89,-1,125,41,125,123r0,142v0,16,25,7,38,9r0,51r-47,0v-32,0,-44,-18,-42,-51r-2,0xm117,-481v0,30,26,51,60,51v55,0,85,-58,87,-114r-12,0v-90,0,-135,21,-135,63xm58,-264r0,-47r303,0r0,47r-303,0","w":414},"\u00ab":{"d":"217,-282r164,-206r74,0r-164,206r164,205r-74,0xm202,-77r-164,-205r164,-206r73,0r-164,206r164,205r-73,0","w":522},"\u00ac":{"d":"70,-342r0,-58r466,0r0,242r-61,0r0,-184r-405,0"},"\u00ad":{"d":"74,-253r0,-62r284,0r0,62r-284,0","w":432},"\u00ae":{"d":"394,12v-193,0,-353,-169,-353,-364v0,-194,162,-363,353,-363v194,0,358,168,358,363v0,198,-162,364,-358,364xm394,-661v-164,0,-294,143,-294,309v0,167,130,310,294,310v167,0,300,-141,300,-310v0,-168,-133,-309,-300,-309xm532,-431v0,52,-33,94,-73,103r0,2v7,3,14,10,20,21r45,90v4,11,19,14,37,13r0,45v-22,0,-50,2,-63,-5v-8,-4,-15,-12,-22,-25r-54,-106v-13,-30,-52,-20,-90,-22r0,158r-56,0r0,-343r-36,0r0,-47r175,0v68,-1,117,48,117,116xm474,-431v0,-43,-26,-69,-69,-69r-73,0r0,141r73,0v43,0,69,-28,69,-72","w":793},"\u00af":{"d":"112,-785r0,-54r246,0r0,54r-246,0","w":461},"\u02c9":{"d":"112,-785r0,-54r246,0r0,54r-246,0","w":461},"\u00b0":{"d":"332,-575v0,76,-65,139,-141,139v-75,0,-140,-64,-140,-139v0,-74,65,-139,140,-139v75,0,141,65,141,139xm111,-575v0,45,35,83,80,83v45,0,82,-38,82,-83v0,-44,-38,-83,-82,-83v-44,0,-80,39,-80,83","w":383},"\u00b1":{"d":"42,-255r0,-58r231,0r0,-255r61,0r0,255r230,0r0,58r-230,0r0,255r-61,0r0,-255r-231,0xm60,104r486,0r0,58r-486,0r0,-58"},"\u00b2":{"d":"352,-309v0,31,-13,44,-44,44r-212,0v-35,-1,-45,-14,-45,-50v-3,-67,40,-107,79,-131r96,-58v21,-14,49,-46,49,-81v0,-43,-34,-72,-79,-72v-31,0,-68,15,-68,40r0,26r-54,0r0,-39v-3,-52,72,-81,122,-81v100,0,162,84,127,179v-10,27,-50,60,-71,73r-96,58v-19,13,-49,45,-48,78v0,4,3,6,9,6r175,0v4,0,6,-2,6,-7r0,-35r54,0r0,50","w":409},"\u00b3":{"d":"345,-396v0,106,-123,173,-223,121v-36,-18,-50,-31,-72,-54r40,-39v18,23,66,57,109,57v46,1,88,-39,88,-86v0,-50,-44,-82,-94,-81r-35,0r-10,-34r96,-117r23,-24r0,-2v-39,6,-87,2,-131,3v-16,0,-8,25,-10,39r-54,0r0,-43v1,-36,11,-47,47,-47r221,0r0,39r-118,138v63,5,123,57,123,130","w":409},"\u00b4":{"d":"115,-752r70,-119r76,0r-87,119r-59,0","w":371},"\u00b5":{"d":"449,-115v-31,68,-94,126,-195,127v-48,0,-94,-16,-111,-42r-2,0v13,83,5,144,7,230r-63,0r0,-622v2,-31,-37,-20,-64,-22r0,-59r71,0v42,0,61,17,61,59r0,243v2,92,18,149,110,149v109,0,185,-102,185,-210r0,-241r68,0r0,422v-2,31,37,20,64,22r0,59r-69,0v-65,4,-65,-54,-59,-115r-3,0","w":603},"\u03bc":{"d":"449,-115v-31,68,-94,126,-195,127v-48,0,-94,-16,-111,-42r-2,0v13,83,5,144,7,230r-63,0r0,-622v2,-31,-37,-20,-64,-22r0,-59r71,0v42,0,61,17,61,59r0,243v2,92,18,149,110,149v109,0,185,-102,185,-210r0,-241r68,0r0,422v-2,31,37,20,64,22r0,59r-69,0v-65,4,-65,-54,-59,-115r-3,0","w":603},"\u00b6":{"d":"43,-473v0,-127,112,-230,238,-230r239,0r0,62r-181,0r0,691r-57,0r0,-291v-126,3,-239,-106,-239,-232xm401,50r0,-631r58,0r0,631r-58,0","w":574},"\u00b7":{"d":"69,-248r0,-80r77,0r0,80r-77,0","w":215},"\u2219":{"d":"69,-248r0,-80r77,0r0,80r-77,0","w":215},"\u00b8":{"d":"186,55v39,6,71,29,71,71v1,54,-44,79,-97,79r-49,-5r0,-48v32,11,98,9,93,-28v3,-27,-34,-37,-72,-33r26,-111r40,7v-1,26,-8,45,-12,68","w":413},"\u00b9":{"d":"80,-265r0,-52r94,0r1,-309r-2,0v-15,25,-39,41,-58,62r-36,-37r102,-102r51,0r0,386r93,0r0,52r-245,0","w":409},"\u00ba":{"d":"395,-550v0,92,-76,167,-167,167v-91,0,-167,-75,-167,-167v0,-90,78,-164,167,-164v89,0,167,74,167,164xm116,-550v0,64,50,116,112,116v62,0,112,-52,112,-116v0,-63,-50,-114,-112,-114v-62,0,-112,51,-112,114xm78,-264r0,-47r303,0r0,47r-303,0","w":456},"\u00bb":{"d":"246,-77r164,-205r-164,-206r74,0r164,206r-164,205r-74,0xm66,-77r164,-205r-164,-206r74,0r164,206r-164,205r-74,0","w":522},"\u00bc":{"d":"269,0r297,-703r62,0r-296,703r-63,0xm78,-265r0,-52r94,0r1,-309r-2,0v-15,25,-39,41,-58,62r-36,-37r102,-102r50,0r0,386r92,0r0,52r-243,0xm496,-117r0,-37r208,-284r60,0r0,269r67,0r0,52r-67,0r0,117r-57,0r0,-117r-211,0xm564,-168r144,-1r1,-192r-2,0v-38,64,-87,117,-129,176v-4,6,-11,10,-14,17","w":890},"\u00bd":{"d":"258,0r297,-703r62,0r-296,703r-63,0xm78,-265r0,-52r94,0r1,-309r-2,0v-15,25,-39,41,-58,62r-36,-37r102,-102r50,0r0,386r92,0r0,52r-243,0xm564,0v-35,-1,-44,-14,-45,-50v-2,-67,40,-107,79,-131r96,-57v21,-14,49,-47,49,-82v0,-43,-34,-72,-79,-72v-31,0,-67,15,-68,40r0,25r-54,0r0,-38v-3,-54,71,-81,122,-81v100,0,162,86,127,180v-10,28,-50,57,-71,72v-39,25,-77,43,-112,73v-19,16,-30,32,-31,62v0,5,3,7,8,7r175,0v4,0,6,-2,6,-7r0,-35r54,0r0,50v0,29,-15,44,-44,44r-212,0","w":890},"\u00be":{"d":"268,0r297,-703r62,0r-296,703r-63,0xm357,-396v0,106,-123,173,-223,121v-36,-18,-50,-31,-72,-54r40,-39v18,23,66,57,109,57v46,1,88,-39,88,-86v0,-50,-44,-82,-94,-81r-35,0r-10,-34r96,-117r23,-24r0,-2v-39,6,-87,2,-131,3v-16,0,-8,25,-10,39r-54,0r0,-43v1,-36,11,-47,47,-47r221,0r0,39r-118,138v63,5,123,57,123,130xm496,-117r0,-37r208,-284r60,0r0,269r67,0r0,52r-67,0r0,117r-57,0r0,-117r-211,0xm564,-168r144,-1r1,-192r-2,0v-38,64,-87,117,-129,176v-4,6,-11,10,-14,17","w":890},"\u00bf":{"d":"205,-426r0,-77r77,0r0,77r-77,0xm231,210v-108,0,-202,-72,-200,-177v1,-97,62,-145,115,-192v31,-28,64,-66,64,-120r0,-40r67,0v1,49,-1,88,-18,123v-34,69,-102,97,-138,162v-12,20,-18,41,-18,64v-1,88,100,138,191,104v29,-11,43,-17,61,-31r37,50v-28,27,-100,57,-161,57","w":431},"\u00c0":{"d":"12,0r0,-62v25,1,43,-3,49,-22r230,-619r75,0r230,619v6,18,23,24,48,22r0,62v-31,0,-72,0,-86,-11v-10,-8,-20,-23,-29,-47r-61,-166r-279,0r-62,166v-19,44,-25,57,-82,58r-33,0xm208,-285r241,0r-93,-251r-27,-91r-2,0v-34,130,-78,223,-119,342xm299,-752r-87,-119r76,0r70,119r-59,0","w":657},"\u00c1":{"d":"12,0r0,-62v25,1,43,-3,49,-22r230,-619r75,0r230,619v6,18,23,24,48,22r0,62v-31,0,-72,0,-86,-11v-10,-8,-20,-23,-29,-47r-61,-166r-279,0r-62,166v-19,44,-25,57,-82,58r-33,0xm208,-285r241,0r-93,-251r-27,-91r-2,0v-34,130,-78,223,-119,342xm299,-752r70,-119r76,0r-87,119r-59,0","w":657},"\u00c2":{"d":"12,0r0,-62v25,1,43,-3,49,-22r230,-619r75,0r230,619v6,18,23,24,48,22r0,62v-31,0,-72,0,-86,-11v-10,-8,-20,-23,-29,-47r-61,-166r-279,0r-62,166v-19,44,-25,57,-82,58r-33,0xm208,-285r241,0r-93,-251r-27,-91r-2,0v-34,130,-78,223,-119,342xm211,-752r83,-119r70,0r83,119r-63,0r-54,-81r-2,0r-54,81r-63,0","w":657},"\u00c3":{"d":"12,0r0,-62v25,1,43,-3,49,-22r230,-619r75,0r230,619v6,18,23,24,48,22r0,62v-31,0,-72,0,-86,-11v-10,-8,-20,-23,-29,-47r-61,-166r-279,0r-62,166v-19,44,-25,57,-82,58r-33,0xm208,-285r241,0r-93,-251r-27,-91r-2,0v-34,130,-78,223,-119,342xm171,-755v0,-78,31,-117,93,-117v42,-1,68,33,90,54v37,35,79,17,76,-51r53,0v0,78,-31,117,-93,117v-41,1,-68,-34,-90,-54v-36,-34,-81,-17,-77,51r-52,0","w":657},"\u00c4":{"d":"12,0r0,-62v25,1,43,-3,49,-22r230,-619r75,0r230,619v6,18,23,24,48,22r0,62v-31,0,-72,0,-86,-11v-10,-8,-20,-23,-29,-47r-61,-166r-279,0r-62,166v-19,44,-25,57,-82,58r-33,0xm208,-285r241,0r-93,-251r-27,-91r-2,0v-34,130,-78,223,-119,342xm375,-785r0,-86r59,0r0,86r-59,0xm225,-785r0,-86r59,0r0,86r-59,0","w":657},"\u00c5":{"d":"12,0r0,-62v25,1,43,-3,49,-22r230,-619r75,0r230,619v6,18,23,24,48,22r0,62v-31,0,-72,0,-86,-11v-10,-8,-20,-23,-29,-47r-61,-166r-279,0r-62,166v-19,44,-25,57,-82,58r-33,0xm208,-285r241,0r-93,-251r-27,-91r-2,0v-34,130,-78,223,-119,342xm403,-812v0,41,-34,71,-74,71v-40,0,-74,-30,-74,-71v0,-41,34,-71,74,-71v40,0,74,30,74,71xm296,-812v0,19,14,34,33,33v18,0,33,-15,33,-33v1,-19,-14,-34,-33,-34v-19,0,-34,15,-33,34","w":657},"\u00c6":{"d":"450,0v-51,-1,-69,-11,-70,-61r0,-262r-159,0r-100,265v-18,45,-25,57,-82,58r-27,0r0,-62v23,1,39,-5,45,-22r238,-619r414,0v43,0,61,18,61,61r0,70r-66,0v-2,-28,10,-69,-22,-69r-232,0r0,256r256,0r0,62r-256,0r0,239v0,19,9,22,28,22r233,0v32,2,20,-41,22,-69r66,0r0,70v0,43,-18,61,-61,61r-288,0xm244,-385r136,0r0,-256r-40,0","w":823},"\u00c7":{"d":"350,10v-180,-13,-312,-173,-312,-367v0,-223,187,-402,430,-349v82,18,174,48,180,140r0,58r-66,0v4,-64,-6,-87,-63,-113v-42,-19,-86,-28,-132,-28v-158,-3,-276,130,-276,292v0,188,151,347,355,293v66,-17,115,-49,154,-88r40,50v-58,60,-149,110,-266,114r-9,43v39,6,70,29,70,71v1,55,-43,79,-96,79r-49,-5r0,-48v32,11,97,9,92,-28v3,-26,-34,-37,-71,-33","w":694},"\u00c8":{"d":"168,0v-43,0,-61,-18,-61,-61r0,-580r-65,0r0,-62r402,0v43,0,61,18,61,61r0,70r-66,0v-2,-28,10,-69,-22,-69r-240,0r0,256r264,0r0,62r-264,0r0,239v0,15,7,22,22,22r247,0v32,2,20,-41,22,-69r65,0r0,70v0,43,-18,61,-61,61r-304,0xm264,-752r-87,-119r76,0r70,119r-59,0","w":558},"\u00c9":{"d":"168,0v-43,0,-61,-18,-61,-61r0,-580r-65,0r0,-62r402,0v43,0,61,18,61,61r0,70r-66,0v-2,-28,10,-69,-22,-69r-240,0r0,256r264,0r0,62r-264,0r0,239v0,15,7,22,22,22r247,0v32,2,20,-41,22,-69r65,0r0,70v0,43,-18,61,-61,61r-304,0xm264,-752r70,-119r76,0r-87,119r-59,0","w":558},"\u00ca":{"d":"168,0v-43,0,-61,-18,-61,-61r0,-580r-65,0r0,-62r402,0v43,0,61,18,61,61r0,70r-66,0v-2,-28,10,-69,-22,-69r-240,0r0,256r264,0r0,62r-264,0r0,239v0,15,7,22,22,22r247,0v32,2,20,-41,22,-69r65,0r0,70v0,43,-18,61,-61,61r-304,0xm176,-752r83,-119r70,0r83,119r-63,0r-54,-81r-2,0r-54,81r-63,0","w":558},"\u00cb":{"d":"168,0v-43,0,-61,-18,-61,-61r0,-580r-65,0r0,-62r402,0v43,0,61,18,61,61r0,70r-66,0v-2,-28,10,-69,-22,-69r-240,0r0,256r264,0r0,62r-264,0r0,239v0,15,7,22,22,22r247,0v32,2,20,-41,22,-69r65,0r0,70v0,43,-18,61,-61,61r-304,0xm340,-785r0,-86r59,0r0,86r-59,0xm190,-785r0,-86r59,0r0,86r-59,0","w":558},"\u00cc":{"d":"46,0r0,-62r66,0r0,-579r-66,0r0,-62r201,0r0,62r-67,0r0,579r67,0r0,62r-201,0xm116,-752r-87,-119r76,0r70,119r-59,0","w":293},"\u00cd":{"d":"46,0r0,-62r66,0r0,-579r-66,0r0,-62r201,0r0,62r-67,0r0,579r67,0r0,62r-201,0xm116,-752r70,-119r76,0r-87,119r-59,0","w":293},"\u00ce":{"d":"46,0r0,-62r66,0r0,-579r-66,0r0,-62r201,0r0,62r-67,0r0,579r67,0r0,62r-201,0xm28,-752r83,-119r70,0r83,119r-63,0r-54,-81r-2,0r-54,81r-63,0","w":293},"\u00cf":{"d":"46,0r0,-62r66,0r0,-579r-66,0r0,-62r201,0r0,62r-67,0r0,579r67,0r0,62r-201,0xm192,-785r0,-86r59,0r0,86r-59,0xm42,-785r0,-86r59,0r0,86r-59,0","w":293},"\u00d0":{"d":"168,0v-43,0,-61,-18,-61,-61r0,-262r-50,0r0,-60r50,0r0,-258r-65,0r0,-62r282,0v213,-2,353,136,353,351v0,217,-139,353,-353,352r-156,0xm604,-352v0,-180,-110,-290,-287,-289r-140,0r0,258r164,0r0,60r-164,0r0,239v0,15,7,22,22,22r118,0v177,1,287,-109,287,-290","w":715},"\u00d1":{"d":"177,-61v0,43,-18,61,-61,61r-74,0r0,-62v27,-2,65,9,65,-22r0,-619r64,0r359,501r57,92r2,0v-3,-37,-5,-67,-5,-92r0,-440v0,-43,18,-61,61,-61r74,0r0,62v-27,2,-65,-9,-65,22r0,619r-64,0r-359,-501r-58,-91r-2,0v4,36,6,66,6,91r0,440xm233,-755v0,-78,31,-117,93,-117v42,-1,68,33,90,54v37,35,79,17,76,-51r53,0v0,78,-31,117,-93,117v-41,1,-68,-34,-90,-54v-36,-34,-81,-17,-77,51r-52,0","w":760},"\u00d2":{"d":"396,12v-197,0,-358,-170,-358,-368v0,-196,163,-359,358,-359v195,0,358,163,358,359v0,198,-162,368,-358,368xm396,-649v-157,0,-285,134,-285,293v0,162,127,302,285,302v157,0,285,-141,285,-302v0,-159,-128,-293,-285,-293xm363,-752r-87,-119r76,0r70,119r-59,0","w":791},"\u00d3":{"d":"396,12v-197,0,-358,-170,-358,-368v0,-196,163,-359,358,-359v195,0,358,163,358,359v0,198,-162,368,-358,368xm396,-649v-157,0,-285,134,-285,293v0,162,127,302,285,302v157,0,285,-141,285,-302v0,-159,-128,-293,-285,-293xm363,-752r70,-119r76,0r-87,119r-59,0","w":791},"\u00d4":{"d":"396,12v-197,0,-358,-170,-358,-368v0,-196,163,-359,358,-359v195,0,358,163,358,359v0,198,-162,368,-358,368xm396,-649v-157,0,-285,134,-285,293v0,162,127,302,285,302v157,0,285,-141,285,-302v0,-159,-128,-293,-285,-293xm275,-752r83,-119r70,0r83,119r-63,0r-54,-81r-2,0r-54,81r-63,0","w":791},"\u00d5":{"d":"396,12v-197,0,-358,-170,-358,-368v0,-196,163,-359,358,-359v195,0,358,163,358,359v0,198,-162,368,-358,368xm396,-649v-157,0,-285,134,-285,293v0,162,127,302,285,302v157,0,285,-141,285,-302v0,-159,-128,-293,-285,-293xm235,-755v0,-78,31,-117,93,-117v42,-1,68,33,90,54v37,35,79,17,76,-51r53,0v0,78,-31,117,-93,117v-41,1,-68,-34,-90,-54v-36,-34,-81,-17,-77,51r-52,0","w":791},"\u00d6":{"d":"396,12v-197,0,-358,-170,-358,-368v0,-196,163,-359,358,-359v195,0,358,163,358,359v0,198,-162,368,-358,368xm396,-649v-157,0,-285,134,-285,293v0,162,127,302,285,302v157,0,285,-141,285,-302v0,-159,-128,-293,-285,-293xm439,-785r0,-86r59,0r0,86r-59,0xm289,-785r0,-86r59,0r0,86r-59,0","w":791},"\u00d7":{"d":"48,-41r216,-243r-216,-243r41,-41r214,241r214,-241r41,41r-217,243r217,243r-41,41r-214,-241r-214,241"},"\u00d8":{"d":"755,-356v0,198,-162,368,-358,368v-70,0,-134,-19,-191,-56r-48,68r-42,-29r49,-69v-71,-61,-124,-159,-126,-282v-4,-196,163,-359,358,-359v68,0,131,18,189,54r48,-67r41,30r-47,66v85,73,127,165,127,276xm397,-649v-157,0,-285,134,-285,293v0,92,32,167,95,225r340,-475v-47,-29,-97,-43,-150,-43xm397,-54v158,0,285,-141,285,-302v0,-89,-32,-161,-96,-218r-340,475v47,30,98,45,151,45","w":794},"\u00d9":{"d":"359,12v-151,0,-260,-102,-260,-253r0,-378v2,-31,-38,-20,-65,-22r0,-62r74,0v43,0,61,18,61,61r0,398v-2,115,75,190,189,190v115,0,190,-75,190,-192r0,-396v0,-43,18,-61,61,-61r74,0r0,62v-27,2,-65,-9,-65,22r0,378v2,151,-108,253,-259,253xm330,-752r-87,-119r76,0r70,119r-59,0","w":717},"\u00da":{"d":"359,12v-151,0,-260,-102,-260,-253r0,-378v2,-31,-38,-20,-65,-22r0,-62r74,0v43,0,61,18,61,61r0,398v-2,115,75,190,189,190v115,0,190,-75,190,-192r0,-396v0,-43,18,-61,61,-61r74,0r0,62v-27,2,-65,-9,-65,22r0,378v2,151,-108,253,-259,253xm330,-752r70,-119r76,0r-87,119r-59,0","w":717},"\u00db":{"d":"359,12v-151,0,-260,-102,-260,-253r0,-378v2,-31,-38,-20,-65,-22r0,-62r74,0v43,0,61,18,61,61r0,398v-2,115,75,190,189,190v115,0,190,-75,190,-192r0,-396v0,-43,18,-61,61,-61r74,0r0,62v-27,2,-65,-9,-65,22r0,378v2,151,-108,253,-259,253xm242,-752r83,-119r70,0r83,119r-63,0r-54,-81r-2,0r-54,81r-63,0","w":717},"\u00dc":{"d":"359,12v-151,0,-260,-102,-260,-253r0,-378v2,-31,-38,-20,-65,-22r0,-62r74,0v43,0,61,18,61,61r0,398v-2,115,75,190,189,190v115,0,190,-75,190,-192r0,-396v0,-43,18,-61,61,-61r74,0r0,62v-27,2,-65,-9,-65,22r0,378v2,151,-108,253,-259,253xm406,-785r0,-86r59,0r0,86r-59,0xm256,-785r0,-86r59,0r0,86r-59,0","w":717},"\u00dd":{"d":"261,0r0,-306r-188,-309v-14,-22,-32,-28,-63,-26r0,-62v30,0,66,0,82,10v12,7,26,22,41,46r119,199r43,79r2,0v50,-98,106,-186,162,-278v26,-44,35,-54,96,-56r27,0r0,62v-31,-2,-49,4,-62,26r-189,309r0,306r-70,0xm267,-752r70,-119r76,0r-87,119r-59,0","w":592},"\u00de":{"d":"556,-365v0,126,-93,214,-219,214r-160,0r0,151r-70,0r0,-619v2,-31,-38,-20,-65,-22r0,-62r74,0v43,0,61,18,61,61r0,64r162,0v125,-2,217,86,217,213xm484,-365v0,-93,-60,-152,-153,-151r-154,0r0,303r153,0v93,1,154,-59,154,-152","w":584},"\u00df":{"d":"151,-61v0,43,-18,61,-61,61r-70,0r0,-59v27,-2,63,8,63,-22r0,-450v-4,-110,95,-184,201,-184v117,0,216,104,158,211v-21,39,-51,54,-76,86v-28,36,-23,61,12,92v60,52,161,88,165,195v3,90,-74,144,-162,143v-59,0,-114,-20,-155,-58r25,-53v21,22,79,49,125,50v55,0,103,-28,98,-84v-11,-117,-196,-119,-196,-242v0,-89,111,-104,111,-190v0,-52,-48,-88,-108,-88v-70,0,-130,52,-130,127r0,465","w":558},"\u00e0":{"d":"276,1v-111,37,-236,-23,-236,-138v0,-115,103,-173,308,-173r28,0v1,-104,-30,-148,-130,-148v-34,0,-99,9,-98,44r0,32r-65,0v1,-39,-4,-69,19,-90v32,-29,89,-42,145,-43v141,-3,197,63,197,193r0,241v-2,31,37,20,64,22r0,59r-69,0v-43,0,-60,-18,-60,-60r1,-37v-4,-1,0,3,-6,11v-21,36,-51,72,-98,87xm222,-46v97,-2,162,-103,154,-210r-74,1v-91,6,-192,19,-192,114v0,55,49,96,112,95xm230,-584r-87,-119r76,0r70,119r-59,0","w":529},"\u00e1":{"d":"276,1v-111,37,-236,-23,-236,-138v0,-115,103,-173,308,-173r28,0v1,-104,-30,-148,-130,-148v-34,0,-99,9,-98,44r0,32r-65,0v1,-39,-4,-69,19,-90v32,-29,89,-42,145,-43v141,-3,197,63,197,193r0,241v-2,31,37,20,64,22r0,59r-69,0v-43,0,-60,-18,-60,-60r1,-37v-4,-1,0,3,-6,11v-21,36,-51,72,-98,87xm222,-46v97,-2,162,-103,154,-210r-74,1v-91,6,-192,19,-192,114v0,55,49,96,112,95xm230,-584r70,-119r76,0r-87,119r-59,0","w":529},"\u00e2":{"d":"276,1v-111,37,-236,-23,-236,-138v0,-115,103,-173,308,-173r28,0v1,-104,-30,-148,-130,-148v-34,0,-99,9,-98,44r0,32r-65,0v1,-39,-4,-69,19,-90v32,-29,89,-42,145,-43v141,-3,197,63,197,193r0,241v-2,31,37,20,64,22r0,59r-69,0v-43,0,-60,-18,-60,-60r1,-37v-4,-1,0,3,-6,11v-21,36,-51,72,-98,87xm222,-46v97,-2,162,-103,154,-210r-74,1v-91,6,-192,19,-192,114v0,55,49,96,112,95xm142,-584r83,-119r70,0r83,119r-63,0r-54,-81r-2,0r-54,81r-63,0","w":529},"\u00e3":{"d":"276,1v-111,37,-236,-23,-236,-138v0,-115,103,-173,308,-173r28,0v1,-104,-30,-148,-130,-148v-34,0,-99,9,-98,44r0,32r-65,0v1,-39,-4,-69,19,-90v32,-29,89,-42,145,-43v141,-3,197,63,197,193r0,241v-2,31,37,20,64,22r0,59r-69,0v-43,0,-60,-18,-60,-60r1,-37v-4,-1,0,3,-6,11v-21,36,-51,72,-98,87xm222,-46v97,-2,162,-103,154,-210r-74,1v-91,6,-192,19,-192,114v0,55,49,96,112,95xm102,-587v0,-78,31,-117,93,-117v42,-1,68,33,90,54v37,35,79,17,76,-51r53,0v0,78,-31,117,-93,117v-41,1,-69,-34,-91,-54v-36,-34,-80,-17,-76,51r-52,0","w":529},"\u00e4":{"d":"276,1v-111,37,-236,-23,-236,-138v0,-115,103,-173,308,-173r28,0v1,-104,-30,-148,-130,-148v-34,0,-99,9,-98,44r0,32r-65,0v1,-39,-4,-69,19,-90v32,-29,89,-42,145,-43v141,-3,197,63,197,193r0,241v-2,31,37,20,64,22r0,59r-69,0v-43,0,-60,-18,-60,-60r1,-37v-4,-1,0,3,-6,11v-21,36,-51,72,-98,87xm222,-46v97,-2,162,-103,154,-210r-74,1v-91,6,-192,19,-192,114v0,55,49,96,112,95xm306,-617r0,-86r59,0r0,86r-59,0xm156,-617r0,-86r59,0r0,86r-59,0","w":529},"\u00e5":{"d":"276,1v-111,37,-236,-23,-236,-138v0,-115,103,-173,308,-173r28,0v1,-104,-30,-148,-130,-148v-34,0,-99,9,-98,44r0,32r-65,0v1,-39,-4,-69,19,-90v32,-29,89,-42,145,-43v141,-3,197,63,197,193r0,241v-2,31,37,20,64,22r0,59r-69,0v-43,0,-60,-18,-60,-60r1,-37v-4,-1,0,3,-6,11v-21,36,-51,72,-98,87xm222,-46v97,-2,162,-103,154,-210r-74,1v-91,6,-192,19,-192,114v0,55,49,96,112,95xm334,-644v0,41,-34,71,-74,71v-40,0,-74,-30,-74,-71v0,-41,34,-71,74,-71v40,0,74,30,74,71xm227,-644v0,19,14,34,33,33v18,0,33,-15,33,-33v1,-19,-14,-34,-33,-34v-19,0,-34,15,-33,34","w":529},"\u00e6":{"d":"213,12v-94,2,-176,-55,-173,-149v5,-161,167,-170,335,-168v2,-105,-28,-153,-129,-153v-36,0,-99,9,-98,44r0,32r-65,0r0,-48v0,-63,95,-85,164,-85v94,0,152,35,174,104r2,0v41,-69,105,-104,190,-104v141,-1,223,116,205,264r-377,0v0,119,74,202,188,202v57,1,110,-22,151,-62r32,51v-31,35,-114,72,-186,72v-109,0,-188,-59,-221,-140r-2,0v-27,76,-86,138,-190,140xm751,-305v-1,-90,-58,-152,-141,-152v-93,0,-153,64,-164,152r305,0xm376,-251v-124,1,-266,-9,-266,110v0,56,49,95,113,95v95,0,160,-102,153,-205","w":871},"\u00e7":{"d":"258,8v-123,-16,-218,-120,-218,-259v0,-166,140,-293,318,-259v58,11,123,35,126,102r0,45r-64,0r0,-29v1,-41,-72,-62,-115,-62v-111,0,-195,88,-195,203v0,115,87,201,197,201v64,0,121,-27,162,-71r32,51v-42,44,-110,81,-199,82r-8,43v39,6,70,29,70,71v1,55,-43,79,-96,79r-50,-5r0,-48v32,11,98,9,93,-28v3,-27,-34,-37,-72,-33","w":528},"\u00e8":{"d":"303,12v-148,0,-263,-113,-263,-263v0,-151,105,-264,248,-264v142,0,225,117,209,266r-386,0v-2,116,84,200,195,200v57,1,111,-22,151,-62r33,51v-32,34,-115,72,-187,72xm429,-303v-1,-91,-56,-155,-142,-155v-94,0,-161,67,-173,155r315,0xm256,-584r-87,-119r76,0r70,119r-59,0","w":548},"\u00e9":{"d":"303,12v-148,0,-263,-113,-263,-263v0,-151,105,-264,248,-264v142,0,225,117,209,266r-386,0v-2,116,84,200,195,200v57,1,111,-22,151,-62r33,51v-32,34,-115,72,-187,72xm429,-303v-1,-91,-56,-155,-142,-155v-94,0,-161,67,-173,155r315,0xm256,-584r70,-119r76,0r-87,119r-59,0","w":548},"\u00ea":{"d":"303,12v-148,0,-263,-113,-263,-263v0,-151,105,-264,248,-264v142,0,225,117,209,266r-386,0v-2,116,84,200,195,200v57,1,111,-22,151,-62r33,51v-32,34,-115,72,-187,72xm429,-303v-1,-91,-56,-155,-142,-155v-94,0,-161,67,-173,155r315,0xm168,-584r83,-119r70,0r83,119r-63,0r-54,-81r-2,0r-54,81r-63,0","w":548},"\u00eb":{"d":"303,12v-148,0,-263,-113,-263,-263v0,-151,105,-264,248,-264v142,0,225,117,209,266r-386,0v-2,116,84,200,195,200v57,1,111,-22,151,-62r33,51v-32,34,-115,72,-187,72xm429,-303v-1,-91,-56,-155,-142,-155v-94,0,-161,67,-173,155r315,0xm332,-617r0,-86r59,0r0,86r-59,0xm182,-617r0,-86r59,0r0,86r-59,0","w":548},"\u00ec":{"d":"154,0v-43,0,-61,-18,-61,-61r0,-361v2,-31,-37,-20,-64,-22r0,-59r71,0v43,0,61,18,61,61r0,361v-2,31,37,20,64,22r0,59r-71,0xm89,-584r-86,-119r76,0r69,119r-59,0","w":252},"\u00ed":{"d":"154,0v-43,0,-61,-18,-61,-61r0,-361v2,-31,-37,-20,-64,-22r0,-59r71,0v43,0,61,18,61,61r0,361v-2,31,37,20,64,22r0,59r-71,0xm89,-584r70,-119r76,0r-87,119r-59,0","w":252},"\u00ee":{"d":"154,0v-43,0,-61,-18,-61,-61r0,-361v2,-31,-37,-20,-64,-22r0,-59r71,0v43,0,61,18,61,61r0,361v-2,31,37,20,64,22r0,59r-71,0xm1,-584r84,-119r69,0r84,119r-63,0r-54,-81r-2,0r-55,81r-63,0","w":252},"\u00ef":{"d":"154,0v-43,0,-61,-18,-61,-61r0,-361v2,-31,-37,-20,-64,-22r0,-59r71,0v43,0,61,18,61,61r0,361v-2,31,37,20,64,22r0,59r-71,0xm151,-617r0,-86r59,0r0,86r-59,0xm25,-617r0,-86r60,0r0,86r-60,0","w":252},"\u00f0":{"d":"268,12v-135,0,-231,-114,-231,-244v0,-131,98,-235,239,-235v60,0,109,19,144,54r2,0v-23,-65,-64,-118,-124,-159r-176,80r-13,-48r135,-63v-43,-22,-90,-39,-142,-51r20,-58v77,19,142,45,196,77r131,-59r13,48r-97,45v101,79,151,188,151,328v0,123,-50,214,-136,259v-33,17,-70,26,-112,26xm283,-409v-108,0,-176,78,-176,178v-1,96,65,182,163,182v113,0,176,-104,176,-211v1,-88,-71,-149,-163,-149","w":565},"\u00f1":{"d":"455,-302v-2,-91,-17,-149,-109,-149v-90,0,-165,66,-183,142v-5,19,-8,41,-8,68r0,241r-68,0r0,-422v2,-31,-37,-20,-64,-22r0,-59r70,0v65,-4,65,54,59,115r2,0v26,-63,102,-129,200,-127v125,3,169,69,169,195r0,239v-2,31,37,20,64,22r0,59r-71,0v-43,0,-61,-18,-61,-61r0,-241xm159,-587v0,-78,31,-117,93,-117v42,-1,68,33,90,54v37,35,79,17,76,-51r53,0v0,78,-31,117,-93,117v-41,1,-68,-34,-90,-54v-36,-34,-81,-17,-77,51r-52,0","w":608},"\u00f2":{"d":"306,12v-145,0,-266,-120,-266,-266v0,-144,122,-261,265,-261v144,0,266,116,266,261v0,146,-121,266,-265,266xm306,-453v-108,0,-196,90,-196,199v0,111,87,205,196,205v108,0,195,-94,195,-205v0,-109,-88,-199,-195,-199xm276,-584r-87,-119r76,0r70,119r-59,0","w":611},"\u00f3":{"d":"306,12v-145,0,-266,-120,-266,-266v0,-144,122,-261,265,-261v144,0,266,116,266,261v0,146,-121,266,-265,266xm306,-453v-108,0,-196,90,-196,199v0,111,87,205,196,205v108,0,195,-94,195,-205v0,-109,-88,-199,-195,-199xm276,-584r70,-119r76,0r-87,119r-59,0","w":611},"\u00f4":{"d":"306,12v-145,0,-266,-120,-266,-266v0,-144,122,-261,265,-261v144,0,266,116,266,261v0,146,-121,266,-265,266xm306,-453v-108,0,-196,90,-196,199v0,111,87,205,196,205v108,0,195,-94,195,-205v0,-109,-88,-199,-195,-199xm188,-584r83,-119r70,0r83,119r-63,0r-54,-81r-2,0r-54,81r-63,0","w":611},"\u00f5":{"d":"306,12v-145,0,-266,-120,-266,-266v0,-144,122,-261,265,-261v144,0,266,116,266,261v0,146,-121,266,-265,266xm306,-453v-108,0,-196,90,-196,199v0,111,87,205,196,205v108,0,195,-94,195,-205v0,-109,-88,-199,-195,-199xm148,-587v0,-78,31,-117,93,-117v42,-1,68,33,90,54v37,35,79,17,76,-51r53,0v0,78,-31,117,-93,117v-41,1,-69,-34,-91,-54v-36,-34,-80,-17,-76,51r-52,0","w":611},"\u00f6":{"d":"306,12v-145,0,-266,-120,-266,-266v0,-144,122,-261,265,-261v144,0,266,116,266,261v0,146,-121,266,-265,266xm306,-453v-108,0,-196,90,-196,199v0,111,87,205,196,205v108,0,195,-94,195,-205v0,-109,-88,-199,-195,-199xm352,-617r0,-86r59,0r0,86r-59,0xm202,-617r0,-86r59,0r0,86r-59,0","w":611},"\u00f7":{"d":"257,-433r0,-74r75,0r0,74r-75,0xm50,-255r0,-58r490,0r0,58r-490,0xm257,-61r0,-74r75,0r0,74r-75,0"},"\u00f8":{"d":"571,-254v0,146,-121,266,-265,266v-47,0,-90,-11,-129,-32r-38,53r-41,-30r37,-51v-63,-53,-95,-121,-95,-206v0,-144,122,-261,265,-261v50,0,96,12,137,37r39,-55r41,30r-39,54v59,51,88,116,88,195xm306,-453v-108,-2,-196,90,-196,199v0,61,21,111,63,152r232,-324v-31,-18,-64,-27,-99,-27xm214,-73v135,76,287,-37,287,-181v0,-56,-19,-103,-58,-140","w":611},"\u00f9":{"d":"254,12v-123,-3,-169,-68,-169,-195r0,-239v2,-31,-37,-20,-64,-22r0,-59r71,0v42,0,61,17,61,59r0,243v2,92,18,149,110,149v109,0,185,-102,185,-210r0,-241r68,0r0,422v-2,31,37,20,64,22r0,59r-69,0v-65,4,-65,-54,-59,-115r-2,0v-26,61,-102,129,-196,127xm265,-584r-87,-119r76,0r70,119r-59,0","w":603},"\u00fa":{"d":"254,12v-123,-3,-169,-68,-169,-195r0,-239v2,-31,-37,-20,-64,-22r0,-59r71,0v42,0,61,17,61,59r0,243v2,92,18,149,110,149v109,0,185,-102,185,-210r0,-241r68,0r0,422v-2,31,37,20,64,22r0,59r-69,0v-65,4,-65,-54,-59,-115r-2,0v-26,61,-102,129,-196,127xm265,-584r70,-119r76,0r-87,119r-59,0","w":603},"\u00fb":{"d":"254,12v-123,-3,-169,-68,-169,-195r0,-239v2,-31,-37,-20,-64,-22r0,-59r71,0v42,0,61,17,61,59r0,243v2,92,18,149,110,149v109,0,185,-102,185,-210r0,-241r68,0r0,422v-2,31,37,20,64,22r0,59r-69,0v-65,4,-65,-54,-59,-115r-2,0v-26,61,-102,129,-196,127xm177,-584r83,-119r70,0r83,119r-63,0r-54,-81r-2,0r-54,81r-63,0","w":603},"\u00fc":{"d":"254,12v-123,-3,-169,-68,-169,-195r0,-239v2,-31,-37,-20,-64,-22r0,-59r71,0v42,0,61,17,61,59r0,243v2,92,18,149,110,149v109,0,185,-102,185,-210r0,-241r68,0r0,422v-2,31,37,20,64,22r0,59r-69,0v-65,4,-65,-54,-59,-115r-2,0v-26,61,-102,129,-196,127xm341,-617r0,-86r59,0r0,86r-59,0xm191,-617r0,-86r59,0r0,86r-59,0","w":603},"\u00fd":{"d":"40,111v11,17,45,38,75,38v39,0,69,-28,93,-82r30,-69r-177,-419v-8,-18,-21,-25,-45,-23r0,-59v29,0,67,0,80,11v9,8,19,21,28,44r129,314r18,54r2,0v5,-19,10,-37,17,-54r124,-314v18,-42,24,-54,78,-55r31,0r0,59v-24,-1,-38,5,-45,23r-217,526v-23,58,-70,104,-144,105v-44,0,-83,-16,-109,-49xm238,-584r70,-119r76,0r-87,119r-59,0","w":539},"\u00fe":{"d":"542,-252v0,170,-114,302,-288,254v-50,-14,-80,-45,-102,-84r-2,0v1,12,2,27,2,44r0,238r-68,0r0,-822v2,-31,-37,-20,-64,-22r0,-59r71,0v43,0,61,18,61,61r0,179r-2,44r2,0v33,-64,89,-96,169,-96v141,-1,221,116,221,263xm314,-453v-108,0,-164,78,-164,202v0,122,58,202,164,202v102,0,158,-92,158,-203v0,-110,-56,-201,-158,-201","w":584},"\u00ff":{"d":"40,111v11,17,45,38,75,38v39,0,69,-28,93,-82r30,-69r-177,-419v-8,-18,-21,-25,-45,-23r0,-59v29,0,67,0,80,11v9,8,19,21,28,44r129,314r18,54r2,0v5,-19,10,-37,17,-54r124,-314v18,-42,24,-54,78,-55r31,0r0,59v-24,-1,-38,5,-45,23r-217,526v-23,58,-70,104,-144,105v-44,0,-83,-16,-109,-49xm314,-617r0,-86r59,0r0,86r-59,0xm164,-617r0,-86r59,0r0,86r-59,0","w":539},"\u0152":{"d":"377,10v-194,0,-339,-165,-339,-362v0,-196,145,-361,339,-361v24,0,120,10,142,10r276,0v43,0,61,18,61,61r0,70r-65,0v-2,-28,10,-69,-22,-69r-233,0r0,256r256,0r0,62r-256,0r0,261r262,0v32,2,20,-41,22,-69r65,0r0,70v0,41,-19,61,-56,61r-309,0v-22,0,-119,10,-143,10xm377,-646v-159,-3,-266,132,-266,294v0,163,106,298,266,295v39,0,68,-2,89,-7r0,-574v-23,-5,-53,-8,-89,-8","w":910},"\u0153":{"d":"305,12v-146,2,-265,-112,-265,-262v0,-151,118,-267,265,-265v108,1,189,59,228,135r2,0v34,-78,109,-134,215,-135v142,-2,225,117,209,266r-386,0v2,116,83,200,195,200v57,1,111,-22,151,-62r33,51v-32,34,-115,72,-187,72v-111,0,-192,-58,-229,-137r-2,0v-38,79,-118,136,-229,137xm891,-303v-3,-91,-56,-155,-142,-155v-94,0,-161,67,-173,155r315,0xm305,-453v-110,0,-195,89,-195,203v0,114,85,201,195,201v111,0,195,-90,195,-205v0,-113,-86,-199,-195,-199","w":1010},"\u0178":{"d":"261,0r0,-306r-188,-309v-14,-22,-32,-28,-63,-26r0,-62v30,0,66,0,82,10v12,7,26,22,41,46r119,199r43,79r2,0v50,-98,106,-186,162,-278v26,-44,35,-54,96,-56r27,0r0,62v-31,-2,-49,4,-62,26r-189,309r0,306r-70,0xm343,-785r0,-86r59,0r0,86r-59,0xm193,-785r0,-86r59,0r0,86r-59,0","w":592},"\u02c6":{"d":"117,-752r83,-119r70,0r83,119r-63,0r-54,-81r-2,0r-54,81r-63,0","w":470},"\u02dc":{"d":"89,-755v0,-78,31,-117,93,-117v42,-1,68,33,90,54v37,35,79,17,76,-51r53,0v0,78,-31,117,-93,117v-41,1,-68,-34,-90,-54v-36,-34,-81,-17,-77,51r-52,0","w":492},"\u2013":{"d":"71,-255r0,-58r500,0r0,58r-500,0","w":642},"\u2014":{"d":"71,-255r0,-58r700,0r0,58r-700,0","w":842},"\u2018":{"d":"51,-540r56,-172r54,0r-39,172r-71,0","w":212},"\u2019":{"d":"51,-541r39,-172r71,0r-56,172r-54,0","w":212},"\u201a":{"d":"90,-82r71,0r-56,172r-54,0","w":212},"\u201c":{"d":"169,-540r56,-172r54,0r-39,172r-71,0xm51,-540r56,-172r54,0r-39,172r-71,0","w":330},"\u201d":{"d":"169,-541r39,-172r71,0r-56,172r-54,0xm51,-541r39,-172r71,0r-56,172r-54,0","w":330},"\u201e":{"d":"169,90r39,-172r71,0r-56,172r-54,0xm90,-82r71,0r-56,172r-54,0","w":330},"\u2022":{"d":"362,-291v0,77,-65,143,-142,143v-77,0,-143,-67,-143,-143v0,-77,67,-143,143,-143v77,0,142,67,142,143","w":439},"\u2026":{"d":"605,0r0,-80r77,0r0,80r-77,0xm370,0r0,-80r77,0r0,80r-77,0xm135,0r0,-80r77,0r0,80r-77,0","w":817},"\u2039":{"d":"202,-77r-164,-205r164,-206r73,0r-164,206r164,205r-73,0","w":343},"\u203a":{"d":"66,-77r164,-205r-164,-206r74,0r164,206r-164,205r-74,0","w":343},"\u20ac":{"d":"548,-4v-218,66,-413,-80,-445,-262r-64,0r0,-51r57,0v-4,-27,-1,-54,0,-81r-57,0r0,-51r66,0v38,-169,213,-308,428,-254r-16,65v-164,-45,-305,56,-337,189r303,0r-10,51r-304,0v-5,24,-4,54,-2,81r291,0r-9,51r-270,0v28,142,180,252,353,198","w":590},"\u2122":{"d":"419,-265r0,-51v14,-1,35,5,36,-10r29,-377r52,0r115,251v6,13,11,26,14,41r2,0v3,-15,8,-28,14,-41r115,-251r52,0r29,377v1,15,22,9,36,10r0,51v-27,-1,-67,4,-79,-9v-6,-6,-11,-19,-12,-37r-20,-251r1,-29r-2,0r-112,244r-46,0r-112,-244r-2,0r1,29r-20,251v-4,36,-10,45,-48,46r-43,0xm366,-703v36,1,46,10,47,46r0,46r-52,0v-2,-15,7,-40,-10,-40r-95,0r0,386r-57,0r0,-386r-94,0v-17,0,-8,25,-10,40r-52,0r0,-46v1,-36,11,-45,47,-46r276,0","w":976}}});
