/*!
 * The following copyright notice may not be removed under any circumstances.
 * 
 * Copyright:
 * Copyright (c) 2008 by Jos Buivenga/exljbris. All rights reserved.
 * 
 * Description:
 * This is a protected webfont and is intended for CSS @font-face use ONLY.
 * Reverse engineering this font is strictly prohibited.
 */
Cufon.registerFont({"w":613,"face":{"font-family":"","font-weight":400,"font-stretch":"normal","units-per-em":"1000","panose-1":"2 0 0 0 0 0 0 0 0 0","ascent":"750","descent":"-250","x-height":"12","bbox":"-20 -892 957.842 210.045","underline-thickness":"50","underline-position":"-50","unicode-range":"U+0020-U+2122"},"glyphs":{" ":{"w":269},"!":{"d":"114,-194r-7,-512r100,0r-6,512r-87,0xm108,0r0,-97r99,0r0,97r-99,0","w":314},"\"":{"d":"202,-530r0,-188r76,0r0,188r-76,0xm62,-530r0,-188r76,0r0,188r-76,0","w":340},"#":{"d":"134,0r33,-191r-130,0r12,-74r131,0r29,-168r-129,0r12,-73r130,0r35,-200r81,0r-35,200r155,0r35,-200r81,0r-35,200r131,0r-13,73r-130,0r-30,168r130,0r-13,74r-129,0r-34,191r-81,0r33,-191r-155,0r-33,191r-81,0xm261,-265r155,0r30,-168r-155,0","w":706},"$":{"d":"487,-273v61,131,-35,275,-166,282r0,93r-73,0r0,-92v-87,-9,-161,-61,-206,-135r71,-59v33,51,86,103,171,105v67,2,122,-41,121,-105v-1,-66,-67,-98,-120,-123v-98,-45,-221,-89,-221,-228v0,-101,86,-169,184,-180r0,-94r73,0r0,93v58,8,102,24,137,59v30,31,28,72,28,127r-92,0r0,-33v-1,-41,-56,-64,-104,-64v-66,0,-124,33,-124,91v0,76,76,97,134,124v74,35,151,65,187,139","w":546},"%":{"d":"362,-570v0,80,-71,148,-152,148v-81,0,-151,-67,-151,-148v0,-80,70,-148,151,-148v81,0,152,68,152,148xm74,0r540,-706r94,0r-540,706r-94,0xm136,-570v0,42,32,74,74,74v42,0,74,-32,74,-74v0,-40,-34,-75,-74,-75v-40,0,-74,35,-74,75xm573,12v-82,0,-152,-67,-152,-148v0,-80,71,-148,152,-148v80,0,152,69,152,148v0,80,-72,148,-152,148xm573,-211v-40,0,-74,35,-74,75v0,41,33,74,74,74v40,0,74,-34,74,-74v0,-40,-34,-75,-74,-75","w":783},"&":{"d":"289,12v-133,0,-246,-88,-245,-214v0,-82,52,-160,122,-176r0,-2v-53,-23,-90,-78,-91,-156v-1,-113,94,-184,212,-182v31,0,60,4,89,11r-25,79v-89,-26,-178,18,-176,102v1,75,49,112,130,111r127,0r0,-91r97,0r0,91r89,0r0,86r-89,0r0,94v2,153,-90,247,-240,247xm306,-329v-94,-1,-160,39,-161,126v0,73,65,126,144,124v96,-2,144,-58,143,-160r0,-90r-126,0","w":638},"'":{"d":"62,-530r0,-188r77,0r0,188r-77,0","w":201},"(":{"d":"200,95v-152,-228,-158,-602,-4,-830r85,0v-153,250,-142,577,5,830r-86,0","w":330},")":{"d":"44,95v147,-253,158,-580,5,-830r85,0v154,228,148,602,-4,830r-86,0","w":330},"*":{"d":"161,-329r-72,-52r89,-110r0,-2r-136,-37r26,-84r133,50r-7,-142r91,0r-8,142r134,-50r27,84r-137,37r0,2r88,110r-71,52r-77,-118r-2,0","w":480},"+":{"d":"42,-246r0,-78r224,0r0,-246r82,0r0,246r223,0r0,78r-223,0r0,246r-82,0r0,-246r-224,0"},",":{"d":"84,-105r98,0r-85,206r-75,0","w":240},"-":{"d":"70,-242r0,-86r292,0r0,86r-292,0","w":431},".":{"d":"70,0r0,-103r99,0r0,103r-99,0","w":240},"\/":{"d":"1,42r254,-786r86,0r-254,786r-86,0","w":346},"0":{"d":"304,12v-167,0,-250,-122,-250,-366v0,-243,83,-364,250,-364v166,0,249,121,249,364v0,244,-83,366,-249,366xm304,-79v99,0,148,-92,148,-275v0,-182,-49,-273,-148,-273v-99,0,-149,91,-149,273v0,183,50,275,149,275","w":607},"1":{"d":"64,0r0,-86r155,0r1,-500r-2,0v-20,35,-69,75,-99,106r-60,-62r169,-164r91,0r0,620r154,0r0,86r-409,0","w":504},"2":{"d":"105,0v-57,-1,-67,-23,-67,-81v0,-190,176,-225,288,-309v37,-27,70,-65,71,-124v1,-67,-54,-112,-124,-112v-51,0,-107,25,-109,67r0,31r-92,0v-1,-61,-3,-101,35,-134v41,-36,100,-55,170,-56v124,-2,225,82,222,203v-6,201,-216,225,-321,329v-25,24,-37,52,-37,81v0,13,8,19,25,19r251,0v32,2,20,-39,22,-67r92,0r0,89v0,46,-18,64,-64,64r-362,0","w":573},"3":{"d":"501,-212v0,126,-109,224,-242,224v-77,0,-171,-40,-207,-74r-26,-25r54,-75v40,40,97,79,179,80v74,2,140,-55,140,-129v0,-78,-72,-127,-152,-126r-50,0r-21,-53r166,-210v10,-11,13,-14,22,-21r0,-2v-54,6,-135,3,-196,3v-32,0,-20,39,-22,67r-92,0r0,-89v0,-45,16,-64,61,-64r372,0r0,63r-186,224v105,12,200,84,200,207","w":541},"4":{"d":"17,-187r0,-64r318,-455r114,0r0,433r110,0r0,86r-110,0r0,187r-100,0r0,-187r-332,0xm350,-273r0,-243r4,-72r-2,0v-12,23,-24,42,-36,59r-154,212v-12,17,-24,32,-37,45r0,2v70,-6,150,-2,225,-3","w":575},"5":{"d":"524,-221v0,131,-115,233,-254,233v-76,0,-163,-39,-196,-74r-23,-25r54,-73v33,42,90,77,165,78v84,2,152,-60,152,-141v0,-110,-121,-169,-236,-135v-32,9,-46,15,-66,27r-41,-19r28,-292v5,-45,17,-63,64,-64r246,0v46,0,64,18,64,64r0,89r-91,0v-2,-28,10,-67,-22,-67r-148,0v-13,0,-20,7,-22,22r-19,166v28,-12,56,-21,93,-21v141,0,252,97,252,232","w":582},"6":{"d":"529,-224v0,134,-95,237,-227,236v-162,-1,-267,-148,-264,-325v2,-107,32,-199,76,-271v54,-89,170,-157,314,-127v33,7,45,12,65,22r-32,85v-30,-15,-64,-23,-101,-23v-129,-1,-198,121,-212,242r2,0v25,-41,91,-69,156,-69v129,0,223,102,223,230xm286,-370v-66,0,-142,41,-143,99v-2,88,71,192,158,192v80,0,130,-64,130,-145v0,-86,-58,-146,-145,-146","w":567},"7":{"d":"26,-642v0,-45,16,-64,61,-64r429,0r0,68r-342,638r-111,0r300,-556v13,-23,29,-43,41,-67v-77,7,-180,3,-264,3v-32,0,-20,39,-22,67r-92,0r0,-89","w":525},"8":{"d":"288,12v-131,0,-246,-85,-246,-214v0,-70,49,-140,116,-181r0,-2v-44,-27,-87,-73,-87,-144v0,-111,96,-189,220,-189v143,0,254,103,212,248v-14,49,-42,84,-76,111r0,2v70,41,105,95,105,162v1,119,-115,207,-244,207xm291,-627v-68,0,-121,38,-122,100v0,28,11,49,29,65v21,19,103,58,142,63v32,-2,75,-77,75,-122v0,-66,-55,-106,-124,-106xm288,-79v71,0,145,-50,143,-119v0,-28,-11,-48,-29,-67v-20,-21,-137,-75,-163,-75v-16,0,-36,14,-60,42v-24,28,-36,58,-36,91v-2,76,69,128,145,128","w":576},"9":{"d":"265,-718v162,1,267,148,264,325v-2,107,-33,199,-77,271v-54,89,-168,157,-312,127v-33,-7,-45,-13,-66,-22r32,-86v30,16,64,24,101,24v129,1,198,-122,212,-243r-2,0v-25,41,-91,69,-156,69v-129,0,-223,-101,-223,-229v0,-134,95,-237,227,-236xm136,-482v0,85,58,146,145,146v66,0,142,-41,143,-99v2,-88,-71,-192,-158,-192v-80,0,-130,64,-130,145","w":567},":":{"d":"98,-403r0,-103r99,0r0,103r-99,0xm98,0r0,-103r99,0r0,103r-99,0","w":294},";":{"d":"98,-403r0,-103r99,0r0,103r-99,0xm45,101r51,-206r97,0r-73,206r-75,0","w":294},"<":{"d":"67,-252r0,-66r466,-208r0,89r-358,151r0,2r358,151r0,89"},"=":{"d":"68,-340r0,-78r477,0r0,78r-477,0xm68,-151r0,-78r477,0r0,78r-477,0"},">":{"d":"74,-44r0,-89r357,-151r0,-2r-357,-151r0,-89r466,208r0,66"},"?":{"d":"212,-720v110,0,209,74,209,183v0,130,-107,162,-159,241v-20,28,-19,59,-18,102r-95,0v-1,-49,0,-89,17,-124v33,-66,99,-95,136,-154v12,-18,17,-37,17,-58v1,-78,-93,-120,-171,-88v-28,11,-39,17,-57,31r-54,-69v29,-31,109,-64,175,-64xm147,0r0,-97r99,0r0,97r-99,0","w":453},"@":{"d":"421,125v-212,6,-381,-159,-381,-366v0,-201,165,-370,365,-370v90,0,155,19,197,57v42,38,63,87,63,146r0,283r72,0r0,73r-273,0v-113,4,-207,-82,-207,-189v0,-106,93,-191,207,-187r108,0v-6,-69,-77,-103,-162,-103v-151,0,-273,138,-273,290v0,159,122,291,284,287r0,79xm473,-361v-67,-2,-118,53,-118,119v0,64,51,117,116,117r101,0r0,-236r-99,0","w":762},"A":{"d":"12,0r0,-86v24,1,40,-3,47,-22r221,-598r105,0r221,598v6,19,23,24,48,22r0,86v-38,-1,-90,3,-110,-12v-11,-8,-20,-23,-28,-46r-53,-145r-260,0r-53,145v-18,44,-27,57,-83,58r-55,0xm227,-287r211,0r-77,-215r-28,-99r-2,0v-28,123,-68,204,-104,314","w":665},"B":{"d":"166,0v-46,0,-64,-18,-64,-64r0,-556r-65,0r0,-86r302,0v116,-1,205,66,205,180v0,74,-39,127,-88,152r0,2v69,18,115,87,116,171v2,128,-100,202,-227,201r-179,0xm442,-516v0,-63,-40,-104,-104,-104r-136,0r0,211r138,0v61,1,102,-46,102,-107xm469,-206v0,-71,-48,-121,-119,-121r-148,0r0,219v0,15,7,22,22,22r126,0v74,1,119,-47,119,-120","w":617},"C":{"d":"392,12v-205,4,-358,-166,-358,-371v0,-224,191,-403,436,-351v83,18,178,51,183,145r0,69r-92,0r0,-40v0,-61,-104,-89,-171,-89v-145,0,-252,116,-252,266v0,172,145,319,332,267v64,-17,109,-48,146,-86r54,72v-59,63,-154,116,-278,118","w":701},"D":{"d":"167,0v-46,0,-64,-18,-64,-64r0,-556r-65,0r0,-86r286,0v216,-2,357,135,357,352v0,218,-141,356,-357,354r-157,0xm577,-354v0,-165,-100,-267,-260,-266r-114,0r0,512v0,15,7,22,22,22r92,0v162,1,260,-102,260,-268","w":715},"E":{"d":"167,0v-46,0,-64,-18,-64,-64r0,-556r-65,0r0,-86r415,0v46,0,64,18,64,64r0,89r-91,0v-2,-28,10,-67,-22,-67r-201,0r0,221r247,0r0,86r-247,0r0,205v0,15,7,22,22,22r206,0v32,2,20,-39,22,-67r92,0r0,89v0,46,-18,64,-64,64r-314,0","w":568},"F":{"d":"427,-706v46,0,64,18,64,64r0,89r-91,0v-2,-28,10,-67,-22,-67r-175,0r0,232r241,0r0,86r-241,0r0,302r-100,0r0,-620r-65,0r0,-86r389,0","w":513},"G":{"d":"379,12v-195,2,-344,-164,-344,-368v0,-198,159,-362,356,-362v85,0,185,33,227,66r25,21r-57,73v-34,-33,-120,-67,-193,-68v-143,-2,-254,122,-254,270v0,175,141,311,325,265v53,-13,91,-42,124,-70r8,-9r0,-71v2,-31,-38,-20,-65,-22r0,-86r93,0v46,0,64,18,64,64r0,285r-88,0r1,-74r-2,0v-47,46,-124,85,-220,86","w":736},"H":{"d":"562,-642v0,-46,18,-64,64,-64r101,0r0,86v-27,2,-65,-9,-65,22r0,598r-100,0r0,-310r-359,0r0,310r-100,0r0,-598v2,-31,-38,-20,-65,-22r0,-86r101,0v46,0,64,18,64,64r0,247r359,0r0,-247","w":765},"I":{"d":"42,0r0,-86r69,0r0,-534r-69,0r0,-86r233,0r0,86r-69,0r0,534r69,0r0,86r-233,0","w":317},"J":{"d":"232,12v-121,0,-215,-83,-210,-215r0,-35r100,0v-8,95,31,156,111,156v69,0,110,-47,110,-125r0,-391v0,-15,-7,-22,-22,-22r-173,0r0,-86r231,0v46,0,64,18,64,64r0,439v5,134,-89,215,-211,215","w":522},"K":{"d":"139,-706v46,0,64,18,64,64r0,233v47,-1,108,6,125,-24r157,-273r112,0r-171,293v-11,18,-24,38,-40,46r0,2v13,3,27,18,40,44r106,212v8,20,37,25,69,23r0,86v-39,0,-96,3,-117,-10v-13,-7,-25,-21,-36,-43r-122,-245v-13,-31,-75,-26,-123,-26r0,324r-100,0r0,-598v2,-31,-38,-20,-65,-22r0,-86r101,0","w":611},"L":{"d":"167,0v-46,0,-64,-18,-64,-64r0,-534v2,-31,-38,-20,-65,-22r0,-86r101,0v46,0,64,18,64,64r0,534v0,15,7,22,22,22r195,0v32,2,20,-39,22,-67r91,0r0,89v0,46,-18,64,-64,64r-302,0","w":543},"M":{"d":"20,0r0,-86v26,-1,54,6,56,-22r48,-598r103,0r166,374r35,89r2,0v12,-34,24,-64,35,-89r166,-374r103,0r48,598v0,28,29,21,55,22r0,86v-47,-3,-113,9,-137,-15v-10,-10,-15,-26,-16,-49r-29,-373r-2,-104r-2,0v-13,44,-26,79,-37,104r-143,310r-84,0r-143,-310v-11,-25,-24,-60,-38,-105r-2,0v-1,168,-20,319,-30,478v-3,45,-18,64,-65,64r-89,0","w":857},"N":{"d":"203,-64v0,46,-18,64,-64,64r-101,0r0,-86v27,-2,65,9,65,-22r0,-598r91,0r314,447r59,96r2,0v-5,-37,-7,-69,-7,-96r0,-383v0,-46,19,-64,65,-64r100,0r0,86v-27,2,-65,-9,-65,22r0,598r-90,0r-315,-447r-58,-96r-2,0v13,156,6,316,6,479","w":765},"O":{"d":"396,12v-200,0,-362,-168,-362,-370v0,-198,163,-360,362,-360v199,0,363,162,363,360v0,202,-163,370,-363,370xm396,-625v-143,0,-258,122,-258,267v0,147,114,276,258,276v144,0,259,-129,259,-276v0,-145,-117,-267,-259,-267","w":793},"P":{"d":"570,-485v0,130,-93,224,-221,224r-146,0r0,261r-100,0r0,-620r-65,0r0,-86r311,0v129,-2,221,90,221,221xm467,-485v0,-83,-51,-136,-133,-135r-131,0r0,273r130,0v83,1,134,-54,134,-138","w":592},"Q":{"d":"395,12v-200,0,-361,-168,-361,-369v0,-199,162,-361,361,-361v200,0,364,161,364,361v0,87,-28,165,-83,232r81,79r-60,64r-81,-81v-62,50,-136,75,-221,75xm395,-624v-144,0,-257,121,-257,267v0,147,113,275,257,275v59,0,109,-17,149,-49r-78,-76r60,-65r77,79v35,-47,52,-102,52,-164v0,-147,-115,-267,-260,-267","w":793},"R":{"d":"557,-499v0,96,-59,170,-127,187r0,2v12,6,22,17,30,32r85,169v8,18,32,25,63,23r0,86v-37,0,-91,2,-111,-10v-13,-7,-25,-21,-36,-43r-96,-190v-18,-31,-25,-37,-70,-38r-92,0r0,281r-100,0r0,-620r-65,0r0,-86r308,0v124,-1,211,82,211,207xm454,-495v0,-77,-44,-125,-119,-125r-132,0r0,253r130,0v77,1,121,-50,121,-128","w":618},"S":{"d":"492,-189v1,117,-98,204,-224,201v-107,-3,-184,-48,-234,-105r59,-71v39,41,97,84,177,85v65,1,125,-42,121,-105v-6,-91,-102,-109,-171,-146v-81,-43,-168,-81,-170,-199v-2,-141,160,-221,312,-177v51,15,116,55,115,118r0,58r-92,0r0,-33v-1,-41,-62,-64,-109,-64v-67,0,-124,35,-124,95v0,89,102,103,170,138v83,42,169,85,170,205","w":533},"T":{"d":"561,-706v46,1,59,14,60,60r0,93r-89,0v-2,-28,10,-67,-22,-67r-142,0r0,620r-100,0r0,-620r-142,0v-32,-2,-20,39,-22,67r-89,0r0,-93v1,-46,14,-59,60,-60r486,0","w":636},"U":{"d":"365,12v-157,0,-270,-104,-270,-259r0,-351v2,-31,-38,-20,-65,-22r0,-86r101,0v46,0,64,18,64,64r0,391v-1,103,67,169,169,169v102,0,169,-67,169,-170r0,-390v0,-46,19,-64,65,-64r100,0r0,86v-27,2,-65,-9,-65,22r0,351v2,154,-112,259,-268,259","w":728},"V":{"d":"281,0r-222,-598v-6,-19,-22,-24,-47,-22r0,-86v38,1,91,-3,110,12v11,8,21,23,29,46r155,435r27,97r2,0v9,-39,18,-72,27,-97r155,-435v18,-44,26,-57,83,-58r56,0r0,86v-24,-1,-40,3,-47,22r-222,598r-106,0","w":668},"W":{"d":"221,0r-155,-598v-4,-19,-24,-24,-49,-22r0,-86v40,0,94,-4,116,12v13,8,22,23,28,46r109,454r14,75r2,0v4,-24,10,-49,17,-75r142,-510r90,0r132,510r15,75r2,0v3,-25,7,-50,13,-75r111,-454v12,-46,31,-58,86,-58r57,0r0,86v-25,-1,-45,3,-49,22r-155,598r-116,0r-120,-446r-20,-97r-2,0v-7,34,-14,66,-23,96r-128,447r-117,0","w":968},"X":{"d":"10,0r222,-364r-142,-231v-13,-24,-37,-27,-72,-25r0,-86v39,1,92,-4,115,10v13,7,25,22,38,44r79,134r45,83r2,0v36,-79,81,-145,123,-217v24,-41,36,-53,95,-54r58,0r0,86v-18,0,-42,-2,-53,4v-6,3,-12,10,-19,21r-143,231r223,364r-113,0r-128,-215r-45,-80r-2,0v-51,104,-114,196,-170,295r-113,0","w":591},"Y":{"d":"252,0r0,-308r-179,-287v-13,-23,-31,-27,-63,-25r0,-86v36,0,82,-2,102,10v13,7,26,21,39,44r107,178r43,79r2,0v44,-89,99,-172,149,-257v25,-42,36,-53,95,-54r46,0r0,86v-31,-2,-50,3,-63,25r-178,287r0,308r-100,0","w":603},"Z":{"d":"557,-64v0,46,-18,64,-64,64r-475,0r0,-66r348,-490v16,-22,34,-45,53,-65r0,-2v-84,7,-190,3,-280,3v-32,0,-20,39,-22,67r-91,0r0,-89v0,-46,18,-64,64,-64r453,0r0,65r-349,491v-15,22,-36,47,-52,64r0,2v13,-1,30,-2,52,-2r249,0v32,2,20,-39,22,-67r92,0r0,89","w":582},"[":{"d":"161,95v-46,0,-64,-18,-64,-64r0,-702v0,-46,18,-64,64,-64r101,0r0,73v-30,4,-81,-13,-80,22r0,639v-1,35,50,18,80,22r0,74r-101,0","w":327},"\\":{"d":"259,42r-254,-786r86,0r254,786r-86,0","w":340},"]":{"d":"231,31v0,46,-19,64,-65,64r-101,0r0,-74v30,-4,81,13,80,-22r0,-639v1,-35,-50,-18,-80,-22r0,-73r101,0v46,0,65,18,65,64r0,702","w":327},"^":{"d":"69,-247r200,-459r63,0r199,459r-87,0r-144,-352r-143,352r-88,0"},"_":{"d":"5,0r538,0r0,78r-538,0r0,-78","w":548},"`":{"d":"178,-755r-95,-127r98,0r73,127r-76,0","w":379},"a":{"d":"209,12v-91,1,-174,-60,-172,-154v1,-55,26,-96,61,-118v66,-42,158,-57,266,-55v1,-88,-27,-126,-112,-126v-32,1,-84,7,-83,39r0,29r-91,0r0,-50v5,-79,95,-93,175,-95v145,-3,208,65,208,198r0,215v-2,30,36,20,63,22r0,83r-91,0v-54,2,-69,-36,-61,-88r-2,0v-25,55,-79,99,-161,100xm230,-66v82,0,142,-89,135,-178r-25,0v-75,1,-146,5,-185,43v-14,13,-20,32,-20,54v1,48,41,81,95,81","w":544},"b":{"d":"563,-253v0,148,-90,265,-230,265v-70,0,-126,-32,-159,-85r-2,0v3,20,2,49,2,73r-93,0r0,-601v2,-30,-36,-20,-63,-22r0,-83r96,0v46,0,64,18,64,64r0,165r-2,42r2,0v28,-47,85,-82,163,-83v140,-1,222,117,222,265xm321,-433v-93,0,-145,74,-145,182v0,92,51,182,143,180v90,-2,146,-81,146,-181v0,-100,-52,-181,-144,-181","w":600},"c":{"d":"306,12v-154,3,-270,-113,-270,-265v0,-167,143,-294,327,-259v59,12,124,37,127,105r0,52r-88,0r0,-28v1,-36,-57,-52,-94,-52v-100,-1,-173,78,-173,181v0,106,78,180,178,180v59,0,115,-26,157,-70r42,69v-44,47,-114,85,-206,87","w":533},"d":{"d":"260,12v-141,1,-223,-117,-223,-265v0,-169,116,-299,290,-257v42,10,69,35,91,62v2,2,1,8,6,8v-4,-49,-2,-108,-2,-161v0,-30,-36,-20,-63,-22r0,-83r96,0v46,0,64,18,64,64r0,537v-2,30,36,20,63,22r0,83r-93,0v-52,1,-67,-30,-61,-80r-2,0v-28,51,-84,92,-166,92xm136,-253v0,100,51,181,143,181v93,0,146,-74,146,-182v0,-92,-51,-182,-144,-180v-90,2,-145,82,-145,181","w":605},"e":{"d":"305,12v-154,0,-269,-114,-269,-265v0,-152,106,-265,254,-265v149,0,235,121,215,277r-369,0v1,124,128,204,250,154v36,-15,50,-25,72,-44r42,69v-33,36,-121,74,-195,74xm408,-312v0,-75,-49,-129,-119,-129v-82,0,-137,53,-149,129r268,0","w":552},"f":{"d":"313,-625v-84,-11,-138,29,-131,119r120,0r0,78r-120,0r0,428r-97,0r0,-428r-63,0r0,-78r63,0v-7,-148,83,-218,228,-202r0,83","w":325},"g":{"d":"263,-6v-139,0,-226,-117,-226,-259v0,-143,82,-253,222,-253v79,0,134,31,162,79r2,0v-3,-44,12,-67,56,-67r94,0r0,83v-25,2,-62,-8,-62,20r0,382v-3,155,-102,231,-255,231v-59,0,-117,-14,-173,-42r33,-78v41,23,87,34,138,34v94,0,162,-45,160,-141r0,-34r2,-32r-2,0v-31,51,-82,77,-151,77xm136,-267v0,99,52,179,146,177v91,-2,135,-66,135,-174v0,-113,-48,-170,-143,-170v-91,0,-138,70,-138,167","w":595},"h":{"d":"443,-302v-1,-78,-18,-129,-96,-127v-105,3,-169,78,-169,192r0,237r-97,0r0,-601v2,-30,-36,-20,-63,-22r0,-83r96,0v45,0,64,18,64,62r0,197r-2,42r2,0v27,-58,99,-113,188,-113v115,0,173,65,173,194r0,219v-2,30,36,20,63,22r0,83r-95,0v-46,0,-64,-18,-64,-64r0,-238","w":622},"i":{"d":"92,-605r0,-101r87,0r0,101r-87,0xm154,0v-46,0,-64,-18,-64,-64r0,-337v2,-30,-36,-20,-63,-22r0,-83r95,0v46,0,64,18,64,64r0,337v-2,30,36,20,63,22r0,83r-95,0","w":275},"j":{"d":"112,-605r0,-101r88,0r0,101r-88,0xm143,-506v46,0,64,18,64,64r0,459v1,74,-29,134,-75,159v-45,25,-89,34,-152,28r0,-83v79,7,130,-28,130,-110r0,-412v2,-30,-36,-20,-63,-22r0,-83r96,0","w":286},"k":{"d":"114,-706v46,1,63,12,64,58r0,328v41,0,80,3,98,-22r117,-164r111,0r-137,188v-15,21,-28,33,-38,38r0,2v11,4,23,17,34,38r75,137v8,21,42,21,74,20r0,83v-40,-1,-97,5,-122,-9v-11,-6,-21,-19,-32,-38r-92,-170v-10,-23,-52,-22,-88,-21r0,238r-97,0r0,-601v2,-30,-36,-20,-63,-22r0,-83r96,0","w":525},"l":{"d":"147,0v-46,0,-64,-18,-64,-64r0,-537v2,-30,-36,-20,-63,-22r0,-83r96,0v46,0,64,18,64,64r0,537v-2,30,36,20,63,22r0,83r-96,0","w":268},"m":{"d":"421,-303v-2,-75,-13,-127,-87,-127v-78,0,-128,67,-145,134v-5,19,-7,40,-7,65r0,231r-97,0r0,-401v2,-30,-36,-20,-63,-22r0,-83r93,0v63,-3,69,43,63,104r2,0v22,-58,95,-116,173,-116v84,0,135,38,152,115r2,0v26,-59,98,-116,180,-115v111,0,167,65,167,194r0,219v-2,30,36,20,63,22r0,83r-96,0v-46,0,-64,-18,-64,-64r0,-239v-2,-76,-15,-127,-89,-127v-96,0,-150,93,-150,199r0,231r-97,0r0,-303","w":937},"n":{"d":"446,-302v-2,-78,-17,-127,-95,-127v-81,0,-142,57,-160,124v-5,18,-9,40,-9,68r0,237r-97,0r0,-401v2,-30,-36,-20,-63,-22r0,-83r93,0v63,-3,70,45,62,104r2,0v28,-58,96,-118,190,-116v123,2,174,68,174,194r0,219v-2,30,36,20,63,22r0,83r-96,0v-46,0,-64,-18,-64,-64r0,-238","w":626},"o":{"d":"308,12v-148,0,-272,-117,-272,-266v0,-149,124,-264,272,-264v149,0,273,115,273,264v0,149,-125,266,-273,266xm308,-434v-96,0,-173,81,-173,180v0,99,77,182,173,182v97,0,174,-82,174,-182v0,-100,-77,-180,-174,-180","w":617},"p":{"d":"567,-253v0,167,-119,301,-289,257v-46,-12,-75,-39,-96,-73r-2,0v1,12,2,27,2,44r0,225r-97,0r0,-601v2,-30,-36,-20,-63,-22r0,-83r91,0v53,-1,67,29,61,78r2,0v28,-51,86,-90,168,-90v140,-1,223,117,223,265xm325,-433v-93,0,-146,74,-146,182v0,92,52,182,143,180v90,-2,146,-81,146,-181v0,-100,-51,-181,-143,-181","w":604},"q":{"d":"260,12v-140,1,-222,-117,-222,-265v0,-149,87,-265,228,-265v73,0,131,31,163,86r2,0v-6,-46,8,-74,61,-74r91,0r0,83v-27,2,-63,-8,-63,22r0,601r-97,0r0,-229r2,-44r-2,0v-29,48,-84,85,-163,85xm136,-253v0,100,52,181,144,181v93,0,145,-74,145,-182v0,-92,-51,-182,-143,-180v-90,2,-146,81,-146,181","w":604},"r":{"d":"179,-380v25,-74,86,-144,186,-130r0,96v-88,-16,-151,45,-171,116v-23,80,-8,199,-12,298r-97,0r0,-401v2,-30,-36,-20,-63,-22r0,-83r92,0v71,-5,69,60,63,126r2,0","w":387},"s":{"d":"415,-136v3,118,-136,171,-259,139v-53,-14,-91,-41,-122,-71r-7,-9r50,-65v33,37,83,74,153,75v46,0,90,-21,88,-65v-2,-44,-58,-61,-98,-78v-78,-32,-175,-63,-178,-166v-3,-97,87,-143,188,-142v71,0,168,26,166,98r0,48r-87,0r0,-25v1,-30,-45,-43,-76,-43v-51,0,-94,16,-94,60v0,45,56,64,97,80v79,30,177,59,179,164","w":454},"t":{"d":"316,2v-138,14,-228,-51,-227,-187r0,-243r-66,0r0,-78r68,0r0,-139r95,0r0,139r121,0r0,78r-121,0r0,232v-2,82,49,122,130,112r0,86","w":352},"u":{"d":"255,12v-120,-2,-172,-68,-172,-194r0,-219v2,-30,-36,-20,-63,-22r0,-83r95,0v45,0,65,18,65,62r0,240v2,78,17,125,94,126v100,1,165,-91,165,-191r0,-237r97,0r0,401v-2,30,36,20,63,22r0,83r-93,0v-63,3,-69,-43,-63,-104r-2,0v-25,58,-99,118,-186,116","w":621},"v":{"d":"210,0r-156,-403v-7,-16,-20,-21,-41,-20r0,-83v35,0,81,-4,100,10v11,7,20,21,27,41r109,291r18,66r2,0v5,-25,11,-47,18,-66r108,-291v15,-38,28,-50,77,-51r47,0r0,83v-22,-1,-37,4,-43,20r-154,403r-112,0","w":532},"w":{"d":"188,0r-133,-403v-5,-18,-22,-21,-45,-20r0,-83v38,1,90,-5,110,11v10,7,19,22,26,43r90,301r12,54r2,0v4,-19,9,-37,14,-54r109,-353r89,0r110,353r13,54r2,0v3,-19,7,-37,12,-54r89,-301v14,-41,26,-53,76,-54r60,0r0,83v-23,-1,-39,3,-45,20r-133,403r-109,0r-105,-325r-14,-55r-2,0v-34,133,-80,252,-118,380r-110,0","w":834},"x":{"d":"15,0r171,-260r-97,-144v-12,-20,-40,-20,-71,-19r0,-83v38,1,92,-4,114,10v11,6,23,20,36,41v26,43,56,83,78,130r2,0v24,-48,51,-86,78,-130v24,-39,31,-51,88,-51r63,0r0,83v-31,-1,-60,0,-72,18r-97,145r171,260r-109,0r-107,-165r-15,-27r-2,0v-5,10,-11,19,-16,27r-105,165r-110,0","w":494},"y":{"d":"45,90v11,15,45,37,74,36v39,0,68,-24,89,-73r23,-55r-173,-401v-8,-17,-21,-21,-44,-20r0,-83v35,1,83,-5,102,10v10,7,19,21,27,41r115,285v7,17,13,38,18,61r2,0v5,-23,10,-44,17,-61r105,-285v14,-37,27,-51,74,-51r58,0r0,83v-23,-1,-37,3,-45,20r-200,494v-28,85,-122,146,-226,107v-29,-12,-39,-22,-56,-38","w":546},"z":{"d":"481,-64v0,46,-18,64,-64,64r-384,0r0,-56r259,-320r42,-47r0,-2v-53,4,-128,2,-187,2v-28,0,-21,31,-22,56r-89,0r0,-75v0,-46,18,-64,64,-64r362,0r0,56r-260,321r-42,46r0,2v61,-4,145,-2,211,-2v28,0,21,-31,22,-56r88,0r0,75","w":505},"{":{"d":"299,96v-118,12,-186,-55,-185,-173r0,-96v0,-63,-33,-100,-85,-109r0,-86v53,-8,85,-48,85,-111r0,-84v0,-118,65,-182,185,-173r0,74v-69,-3,-100,36,-100,105v-1,71,9,153,-29,191v-15,17,-30,32,-52,39r0,2v47,17,80,61,81,127r0,115v0,69,31,108,100,105r0,74","w":339},"|":{"d":"107,159r0,-951r85,0r0,951r-85,0","w":299},"}":{"d":"225,-77v0,118,-66,185,-185,173r0,-74v69,3,100,-36,100,-105r0,-115v1,-66,33,-110,81,-127r0,-2v-45,-19,-80,-61,-81,-127r0,-103v0,-69,-31,-108,-100,-105r0,-74v120,-9,185,55,185,173r0,84v0,63,28,101,85,111r0,86v-52,8,-85,46,-85,109r0,96","w":339},"~":{"d":"208,-297v-48,0,-67,46,-67,93r-79,0v-1,-105,43,-167,140,-169v45,-1,87,26,107,49v18,21,48,49,84,49v49,0,67,-46,67,-94r79,0v0,113,-46,169,-139,169v-45,0,-87,-24,-107,-48v-18,-21,-48,-49,-85,-49"},"\u00a0":{"w":269},"\u00a1":{"d":"107,-409r0,-97r99,0r0,97r-99,0xm107,200r7,-512r87,0r6,512r-100,0","w":314},"\u00a2":{"d":"513,-227v-31,74,-90,144,-181,154r0,111r-73,0r0,-111v-125,-15,-204,-138,-204,-280v0,-143,79,-266,204,-281r0,-110r73,0r0,110v90,14,151,76,181,155r-88,34v-27,-66,-69,-99,-126,-99v-96,0,-145,89,-145,191v0,105,46,190,145,190v57,0,99,-33,126,-99","w":565},"\u00a3":{"d":"541,-64v0,46,-19,64,-65,64r-426,0r0,-86r61,0r0,-233r-44,0r0,-70r44,0r0,-136v-2,-113,99,-193,217,-193v62,0,122,22,167,64r-57,69v-32,-29,-68,-43,-109,-43v-68,0,-118,43,-118,107r0,132r184,0r0,70r-184,0r0,233r216,0v32,2,20,-39,22,-67r92,0r0,89","w":584},"\u00a5":{"d":"96,-204r0,-63r161,0r0,-41r-28,-44r-135,0r0,-63r94,0r0,-2r-112,-181v-12,-19,-32,-24,-61,-22r0,-86v36,0,80,-3,101,10v13,7,27,22,40,44r107,178r43,78r2,0v13,-26,28,-52,43,-78r106,-178v26,-41,38,-53,98,-54r44,0r0,86v-29,-1,-50,3,-62,22r-111,181r0,2r91,0r0,63r-133,0r-27,44r0,41r160,0r0,63r-160,0r0,204r-100,0r0,-204r-161,0","w":614},"\u00a7":{"d":"265,-637v-77,0,-115,59,-101,141r68,385r-80,0r-70,-390v-38,-153,104,-256,256,-204v35,12,48,21,68,38r-46,64v-27,-23,-58,-34,-95,-34xm385,-155v35,156,-106,255,-257,204v-34,-12,-47,-21,-67,-38r44,-67v27,25,60,37,97,37v78,2,115,-65,100,-150r-66,-376r79,0","w":459},"\u00a8":{"d":"307,-781r0,-101r73,0r0,101r-73,0xm142,-781r0,-101r74,0r0,101r-74,0","w":501},"\u00a9":{"d":"392,12v-194,0,-355,-170,-355,-365v0,-196,161,-365,355,-365v195,0,358,169,358,365v0,196,-163,365,-358,365xm392,-650v-157,0,-282,137,-282,297v0,160,125,297,282,297v159,0,285,-136,285,-297v0,-161,-126,-297,-285,-297xm399,-152v-113,2,-197,-90,-197,-200v0,-109,84,-200,197,-200v70,0,130,39,163,99r-61,33v-13,-27,-55,-62,-99,-63v-74,-2,-124,60,-124,131v0,74,48,133,124,131v45,-1,84,-32,99,-63r61,33v-29,51,-81,97,-163,99","w":787},"\u00aa":{"d":"256,-436v-15,29,-47,53,-92,53v-59,1,-109,-39,-109,-99v0,-75,75,-110,198,-107v-2,-47,-15,-66,-61,-66v-39,0,-45,6,-42,36r-70,0r0,-40v5,-48,63,-56,113,-57v92,-2,132,41,132,126r0,126v-1,18,23,9,38,11r0,64v-51,0,-109,8,-105,-47r-2,0xm129,-485v2,26,21,43,50,43v47,0,72,-48,74,-96v-74,-2,-127,15,-124,53xm54,-265r0,-57r312,0r0,57r-312,0","w":415},"\u00ab":{"d":"243,-282r164,-206r97,0r-164,206r164,205r-97,0xm206,-77r-164,-205r164,-206r97,0r-164,206r164,205r-97,0","w":567},"\u00ac":{"d":"68,-340r0,-78r477,0r0,267r-81,0r0,-189r-396,0"},"\u00ad":{"d":"70,-242r0,-86r292,0r0,86r-292,0","w":431},"\u00ae":{"d":"392,12v-194,0,-355,-170,-355,-365v0,-196,161,-365,355,-365v195,0,358,169,358,365v0,196,-163,365,-358,365xm392,-650v-157,0,-282,137,-282,297v0,160,125,297,282,297v159,0,285,-136,285,-297v0,-161,-126,-297,-285,-297xm534,-428v0,50,-32,90,-69,100r0,2v8,2,15,9,21,20r39,75v7,12,18,14,35,13r0,52v-24,0,-57,2,-72,-5v-7,-3,-14,-11,-20,-23r-52,-99v-10,-24,-43,-18,-75,-19r0,146r-71,0r0,-323r-34,0r0,-54r179,0v70,-1,119,46,119,115xm462,-428v0,-38,-24,-61,-61,-61r-60,0r0,125r60,0v38,0,61,-25,61,-64","w":787},"\u00af":{"d":"108,-784r0,-68r254,0r0,68r-254,0","w":464},"\u02c9":{"d":"108,-784r0,-68r254,0r0,68r-254,0","w":464},"\u00b0":{"d":"350,-570v0,80,-71,148,-152,148v-81,0,-151,-67,-151,-148v0,-80,70,-148,151,-148v81,0,152,68,152,148xm124,-570v0,40,34,74,74,74v40,0,74,-34,74,-74v0,-40,-34,-75,-74,-75v-40,0,-74,35,-74,75","w":397},"\u00b1":{"d":"42,-246r0,-78r224,0r0,-246r82,0r0,246r223,0r0,78r-223,0r0,246r-82,0r0,-246r-224,0xm58,95r497,0r0,78r-497,0r0,-78"},"\u00b2":{"d":"202,-715v101,0,170,87,132,185v-11,30,-50,59,-73,74v-40,27,-88,43,-119,81v-9,11,-13,23,-13,36v0,4,3,6,9,6r149,0v4,0,6,-2,6,-7r0,-33r70,0r0,61v0,31,-15,46,-46,46r-218,0v-40,-1,-48,-15,-48,-59v0,-114,104,-138,171,-186v19,-13,46,-42,45,-74v0,-36,-28,-59,-66,-59v-27,0,-58,13,-58,35r0,24r-71,0r0,-44v-3,-55,77,-86,130,-86","w":423},"\u00b3":{"d":"361,-400v0,111,-131,177,-234,122v-37,-20,-53,-34,-75,-60r53,-49v17,26,60,57,103,58v40,1,77,-32,76,-72v-1,-55,-53,-73,-115,-67r-12,-44r84,-106r22,-23r0,-2v-34,4,-73,1,-110,2v-15,0,-7,23,-9,36r-71,0r0,-53v1,-37,10,-47,48,-48r232,0r0,51r-104,127v59,7,112,61,112,128","w":423},"\u00b4":{"d":"119,-755r73,-127r98,0r-95,127r-76,0","w":388},"\u00b5":{"d":"441,-104v-30,62,-91,116,-186,116v-43,0,-73,-11,-91,-31r-2,0v12,78,5,137,7,219r-86,0r0,-601v2,-30,-36,-20,-63,-22r0,-83r95,0v45,0,65,18,65,62r0,240v2,78,17,125,94,126v100,1,165,-91,165,-191r0,-237r97,0r0,401v-2,30,36,20,63,22r0,83r-93,0v-63,3,-69,-43,-63,-104r-2,0","w":621},"\u03bc":{"d":"441,-104v-30,62,-91,116,-186,116v-43,0,-73,-11,-91,-31r-2,0v12,78,5,137,7,219r-86,0r0,-601v2,-30,-36,-20,-63,-22r0,-83r95,0v45,0,65,18,65,62r0,240v2,78,17,125,94,126v100,1,165,-91,165,-191r0,-237r97,0r0,401v-2,30,36,20,63,22r0,83r-93,0v-63,3,-69,-43,-63,-104r-2,0","w":621},"\u00b6":{"d":"41,-474v0,-127,110,-232,236,-232r272,0r0,86r-196,0r0,670r-75,0r0,-291v-126,3,-237,-106,-237,-233xm415,50r0,-613r74,0r0,613r-74,0","w":599},"\u00b7":{"d":"70,-239r0,-103r99,0r0,103r-99,0","w":240},"\u2219":{"d":"70,-239r0,-103r99,0r0,103r-99,0","w":240},"\u00b8":{"d":"269,123v0,78,-86,96,-157,77r0,-58v30,12,94,11,90,-24v4,-25,-35,-34,-70,-30r28,-111r49,10v-1,24,-8,42,-11,63v39,5,71,30,71,73","w":416},"\u00b9":{"d":"76,-266r0,-67r93,0r1,-274r-2,0v-12,23,-35,36,-52,55r-46,-49r109,-105r66,0r0,373r92,0r0,67r-261,0","w":423},"\u00ba":{"d":"399,-552v0,95,-77,168,-171,168v-94,0,-171,-73,-171,-168v0,-93,78,-165,170,-165v93,0,172,72,172,165xm129,-552v0,57,43,104,99,104v55,0,98,-47,98,-104v0,-56,-43,-101,-98,-101v-56,0,-99,44,-99,101xm73,-265r0,-57r312,0r0,57r-312,0","w":456},"\u00bb":{"d":"264,-77r164,-205r-164,-206r97,0r164,206r-164,205r-97,0xm62,-77r164,-205r-164,-206r97,0r164,206r-164,205r-97,0","w":567},"\u00bc":{"d":"284,0r287,-706r80,0r-286,706r-81,0xm78,-266r0,-67r93,0r1,-274r-2,0v-13,23,-35,36,-52,55r-46,-49r108,-105r67,0r0,373r89,0r0,67r-258,0xm517,-113r0,-46r191,-282r87,0r0,261r66,0r0,67r-66,0r0,113r-76,0r0,-113r-202,0xm599,-179r121,-1r1,-173r-2,0v-30,57,-71,103,-106,156v-4,6,-11,10,-14,18","w":916},"\u00bd":{"d":"273,0r287,-706r80,0r-287,706r-80,0xm78,-266r0,-67r93,0r1,-274r-2,0v-13,23,-35,36,-52,55r-46,-49r108,-105r67,0r0,373r89,0r0,67r-258,0xm590,0v-40,-1,-47,-15,-47,-59v0,-113,102,-140,170,-187v19,-13,46,-41,46,-73v0,-37,-29,-60,-67,-60v-26,0,-57,13,-57,35r0,24r-71,0r0,-43v-3,-55,77,-86,130,-86v100,0,170,87,132,185v-11,28,-51,60,-73,74v-41,27,-88,43,-119,81v-9,11,-14,23,-14,36v0,4,3,6,10,6r148,0v4,0,6,-2,6,-7r0,-34r71,0r0,61v0,34,-13,47,-47,47r-218,0","w":916},"\u00be":{"d":"282,0r287,-706r80,0r-286,706r-81,0xm369,-400v0,111,-131,177,-234,122v-37,-20,-53,-34,-75,-60r52,-49v18,25,61,57,104,58v40,1,77,-32,76,-72v-1,-55,-54,-73,-116,-67r-12,-44r85,-106v6,-9,16,-14,21,-25v-34,4,-72,1,-109,2v-15,0,-7,23,-9,36r-71,0r0,-53v1,-37,10,-47,47,-48r233,0r0,51r-105,127v59,7,113,61,113,128xm517,-113r0,-46r191,-282r87,0r0,261r66,0r0,67r-66,0r0,113r-76,0r0,-113r-202,0xm599,-179r121,-1r1,-173r-2,0v-30,57,-71,103,-106,156v-4,6,-11,10,-14,18","w":916},"\u00bf":{"d":"207,-409r0,-97r99,0r0,97r-99,0xm241,210v-110,2,-210,-73,-209,-182v1,-97,61,-145,114,-190v30,-26,62,-62,63,-113r0,-37r94,0v1,48,0,85,-17,120v-32,67,-97,94,-134,154v-12,18,-18,37,-18,58v-1,78,92,122,170,89v27,-12,41,-18,58,-32r53,69v-39,34,-99,63,-174,64","w":453},"\u00c0":{"d":"12,0r0,-86v24,1,40,-3,47,-22r221,-598r105,0r221,598v6,19,23,24,48,22r0,86v-38,-1,-90,3,-110,-12v-11,-8,-20,-23,-28,-46r-53,-145r-260,0r-53,145v-18,44,-27,57,-83,58r-55,0xm227,-287r211,0r-77,-215r-28,-99r-2,0v-28,123,-68,204,-104,314xm294,-755r-95,-127r98,0r73,127r-76,0","w":665},"\u00c1":{"d":"12,0r0,-86v24,1,40,-3,47,-22r221,-598r105,0r221,598v6,19,23,24,48,22r0,86v-38,-1,-90,3,-110,-12v-11,-8,-20,-23,-28,-46r-53,-145r-260,0r-53,145v-18,44,-27,57,-83,58r-55,0xm227,-287r211,0r-77,-215r-28,-99r-2,0v-28,123,-68,204,-104,314xm294,-755r73,-127r98,0r-95,127r-76,0","w":665},"\u00c2":{"d":"12,0r0,-86v24,1,40,-3,47,-22r221,-598r105,0r221,598v6,19,23,24,48,22r0,86v-38,-1,-90,3,-110,-12v-11,-8,-20,-23,-28,-46r-53,-145r-260,0r-53,145v-18,44,-27,57,-83,58r-55,0xm227,-287r211,0r-77,-215r-28,-99r-2,0v-28,123,-68,204,-104,314xm201,-755r87,-127r89,0r88,127r-79,0r-52,-80r-2,0r-53,80r-78,0","w":665},"\u00c3":{"d":"12,0r0,-86v24,1,40,-3,47,-22r221,-598r105,0r221,598v6,19,23,24,48,22r0,86v-38,-1,-90,3,-110,-12v-11,-8,-20,-23,-28,-46r-53,-145r-260,0r-53,145v-18,44,-27,57,-83,58r-55,0xm227,-287r211,0r-77,-215r-28,-99r-2,0v-28,123,-68,204,-104,314xm269,-821v-30,0,-40,34,-40,65r-66,0v0,-85,34,-127,103,-127v41,-1,70,31,92,51v12,11,24,17,36,17v30,0,40,-34,40,-65r66,0v0,85,-34,127,-103,127v-41,1,-69,-32,-92,-51v-12,-11,-24,-17,-36,-17","w":665},"\u00c4":{"d":"12,0r0,-86v24,1,40,-3,47,-22r221,-598r105,0r221,598v6,19,23,24,48,22r0,86v-38,-1,-90,3,-110,-12v-11,-8,-20,-23,-28,-46r-53,-145r-260,0r-53,145v-18,44,-27,57,-83,58r-55,0xm227,-287r211,0r-77,-215r-28,-99r-2,0v-28,123,-68,204,-104,314xm379,-781r0,-101r73,0r0,101r-73,0xm214,-781r0,-101r74,0r0,101r-74,0","w":665},"\u00c5":{"d":"12,0r0,-86v24,1,40,-3,47,-22r221,-598r105,0r221,598v6,19,23,24,48,22r0,86v-38,-1,-90,3,-110,-12v-11,-8,-20,-23,-28,-46r-53,-145r-260,0r-53,145v-18,44,-27,57,-83,58r-55,0xm227,-287r211,0r-77,-215r-28,-99r-2,0v-28,123,-68,204,-104,314xm414,-817v0,43,-38,74,-81,74v-44,0,-81,-30,-81,-74v0,-45,37,-75,81,-75v43,0,81,31,81,75xm299,-817v0,19,15,33,34,33v19,0,34,-14,34,-33v0,-21,-14,-35,-34,-35v-20,0,-34,14,-34,35","w":665},"\u00c6":{"d":"468,0v-52,-1,-70,-13,-71,-64r0,-249r-159,0r-95,255v-18,44,-27,57,-83,58r-48,0r0,-86v23,1,38,-4,45,-22r237,-598r448,0v46,0,64,18,64,64r0,89r-91,0v-2,-28,10,-67,-22,-67r-195,0r0,221r241,0r0,86r-241,0r0,205v0,15,9,22,26,22r196,0v32,2,20,-39,22,-67r92,0r0,89v0,46,-19,64,-65,64r-301,0xm271,-399r126,0r0,-221r-44,0","w":857},"\u00c7":{"d":"346,10v-181,-15,-312,-173,-312,-369v0,-224,191,-403,436,-351v83,18,178,51,183,145r0,69r-92,0r0,-40v0,-61,-104,-89,-171,-89v-145,0,-252,116,-252,266v0,147,109,277,252,277v76,0,165,-39,201,-72r25,-23r54,71v-58,62,-151,114,-270,118r-8,38v40,5,72,30,72,73v0,78,-88,96,-158,77r0,-58v30,12,94,11,90,-24v4,-26,-36,-34,-70,-30","w":701},"\u00c8":{"d":"167,0v-46,0,-64,-18,-64,-64r0,-556r-65,0r0,-86r415,0v46,0,64,18,64,64r0,89r-91,0v-2,-28,10,-67,-22,-67r-201,0r0,221r247,0r0,86r-247,0r0,205v0,15,7,22,22,22r206,0v32,2,20,-39,22,-67r92,0r0,89v0,46,-18,64,-64,64r-314,0xm256,-755r-95,-127r98,0r73,127r-76,0","w":568},"\u00c9":{"d":"167,0v-46,0,-64,-18,-64,-64r0,-556r-65,0r0,-86r415,0v46,0,64,18,64,64r0,89r-91,0v-2,-28,10,-67,-22,-67r-201,0r0,221r247,0r0,86r-247,0r0,205v0,15,7,22,22,22r206,0v32,2,20,-39,22,-67r92,0r0,89v0,46,-18,64,-64,64r-314,0xm256,-755r73,-127r98,0r-95,127r-76,0","w":568},"\u00ca":{"d":"167,0v-46,0,-64,-18,-64,-64r0,-556r-65,0r0,-86r415,0v46,0,64,18,64,64r0,89r-91,0v-2,-28,10,-67,-22,-67r-201,0r0,221r247,0r0,86r-247,0r0,205v0,15,7,22,22,22r206,0v32,2,20,-39,22,-67r92,0r0,89v0,46,-18,64,-64,64r-314,0xm164,-755r87,-127r89,0r88,127r-79,0r-52,-80r-2,0r-53,80r-78,0","w":568},"\u00cb":{"d":"167,0v-46,0,-64,-18,-64,-64r0,-556r-65,0r0,-86r415,0v46,0,64,18,64,64r0,89r-91,0v-2,-28,10,-67,-22,-67r-201,0r0,221r247,0r0,86r-247,0r0,205v0,15,7,22,22,22r206,0v32,2,20,-39,22,-67r92,0r0,89v0,46,-18,64,-64,64r-314,0xm342,-781r0,-101r73,0r0,101r-73,0xm177,-781r0,-101r74,0r0,101r-74,0","w":568},"\u00cc":{"d":"42,0r0,-86r69,0r0,-534r-69,0r0,-86r233,0r0,86r-69,0r0,534r69,0r0,86r-233,0xm119,-755r-95,-127r98,0r73,127r-76,0","w":317},"\u00cd":{"d":"42,0r0,-86r69,0r0,-534r-69,0r0,-86r233,0r0,86r-69,0r0,534r69,0r0,86r-233,0xm119,-755r73,-127r98,0r-95,127r-76,0","w":317},"\u00ce":{"d":"42,0r0,-86r69,0r0,-534r-69,0r0,-86r233,0r0,86r-69,0r0,534r69,0r0,86r-233,0xm26,-755r87,-127r89,0r88,127r-79,0r-52,-80r-2,0r-53,80r-78,0","w":317},"\u00cf":{"d":"42,0r0,-86r69,0r0,-534r-69,0r0,-86r233,0r0,86r-69,0r0,534r69,0r0,86r-233,0xm204,-781r0,-101r73,0r0,101r-73,0xm39,-781r0,-101r74,0r0,101r-74,0","w":317},"\u00d0":{"d":"167,0v-46,0,-64,-18,-64,-64r0,-248r-49,0r0,-82r49,0r0,-226r-65,0r0,-86r286,0v216,-2,357,135,357,352v0,218,-141,356,-357,354r-157,0xm577,-354v0,-165,-100,-267,-260,-266r-114,0r0,226r144,0r0,82r-144,0r0,204v0,15,7,22,22,22r92,0v162,1,260,-102,260,-268","w":715},"\u00d1":{"d":"203,-64v0,46,-18,64,-64,64r-101,0r0,-86v27,-2,65,9,65,-22r0,-598r91,0r314,447r59,96r2,0v-5,-37,-7,-69,-7,-96r0,-383v0,-46,19,-64,65,-64r100,0r0,86v-27,2,-65,-9,-65,22r0,598r-90,0r-315,-447r-58,-96r-2,0v13,156,6,316,6,479xm329,-821v-30,0,-40,34,-40,65r-66,0v0,-85,34,-127,103,-127v41,-1,70,31,92,51v12,11,24,17,36,17v30,0,40,-34,40,-65r66,0v0,85,-34,127,-103,127v-41,1,-69,-32,-92,-51v-12,-11,-24,-17,-36,-17","w":765},"\u00d2":{"d":"396,12v-200,0,-362,-168,-362,-370v0,-198,163,-360,362,-360v199,0,363,162,363,360v0,202,-163,370,-363,370xm396,-625v-143,0,-258,122,-258,267v0,147,114,276,258,276v144,0,259,-129,259,-276v0,-145,-117,-267,-259,-267xm354,-755r-95,-127r98,0r73,127r-76,0","w":793},"\u00d3":{"d":"396,12v-200,0,-362,-168,-362,-370v0,-198,163,-360,362,-360v199,0,363,162,363,360v0,202,-163,370,-363,370xm396,-625v-143,0,-258,122,-258,267v0,147,114,276,258,276v144,0,259,-129,259,-276v0,-145,-117,-267,-259,-267xm355,-755r73,-127r98,0r-95,127r-76,0","w":793},"\u00d4":{"d":"396,12v-200,0,-362,-168,-362,-370v0,-198,163,-360,362,-360v199,0,363,162,363,360v0,202,-163,370,-363,370xm396,-625v-143,0,-258,122,-258,267v0,147,114,276,258,276v144,0,259,-129,259,-276v0,-145,-117,-267,-259,-267xm262,-755r87,-127r89,0r88,127r-79,0r-52,-80r-2,0r-53,80r-78,0","w":793},"\u00d5":{"d":"396,12v-200,0,-362,-168,-362,-370v0,-198,163,-360,362,-360v199,0,363,162,363,360v0,202,-163,370,-363,370xm396,-625v-143,0,-258,122,-258,267v0,147,114,276,258,276v144,0,259,-129,259,-276v0,-145,-117,-267,-259,-267xm330,-821v-30,0,-40,34,-40,65r-66,0v0,-85,34,-127,103,-127v41,-1,71,31,93,51v12,11,23,17,35,17v30,0,40,-34,40,-65r66,0v0,85,-34,127,-103,127v-41,1,-69,-32,-92,-51v-12,-11,-24,-17,-36,-17","w":793},"\u00d6":{"d":"396,12v-200,0,-362,-168,-362,-370v0,-198,163,-360,362,-360v199,0,363,162,363,360v0,202,-163,370,-363,370xm396,-625v-143,0,-258,122,-258,267v0,147,114,276,258,276v144,0,259,-129,259,-276v0,-145,-117,-267,-259,-267xm440,-781r0,-101r73,0r0,101r-73,0xm275,-781r0,-101r74,0r0,101r-74,0","w":793},"\u00d7":{"d":"47,-55r206,-230r-206,-230r55,-55r204,228r205,-228r55,55r-207,230r207,230r-55,55r-205,-227r-204,227"},"\u00d8":{"d":"760,-358v4,202,-163,370,-363,370v-69,0,-132,-18,-188,-53r-47,66r-50,-34r48,-66v-71,-62,-123,-158,-125,-283v-4,-198,164,-360,362,-360v68,0,131,17,188,51r47,-65r49,34r-46,65v69,60,123,155,125,275xm397,-625v-143,0,-258,122,-258,267v0,79,27,146,80,201r310,-431v-42,-25,-86,-37,-132,-37xm397,-82v144,0,259,-129,259,-276v0,-76,-27,-140,-81,-192r-310,431v40,25,84,37,132,37","w":795},"\u00d9":{"d":"365,12v-157,0,-270,-104,-270,-259r0,-351v2,-31,-38,-20,-65,-22r0,-86r101,0v46,0,64,18,64,64r0,391v-1,103,67,169,169,169v102,0,169,-67,169,-170r0,-390v0,-46,19,-64,65,-64r100,0r0,86v-27,2,-65,-9,-65,22r0,351v2,154,-112,259,-268,259xm326,-755r-95,-127r98,0r73,127r-76,0","w":728},"\u00da":{"d":"365,12v-157,0,-270,-104,-270,-259r0,-351v2,-31,-38,-20,-65,-22r0,-86r101,0v46,0,64,18,64,64r0,391v-1,103,67,169,169,169v102,0,169,-67,169,-170r0,-390v0,-46,19,-64,65,-64r100,0r0,86v-27,2,-65,-9,-65,22r0,351v2,154,-112,259,-268,259xm326,-755r73,-127r98,0r-95,127r-76,0","w":728},"\u00db":{"d":"365,12v-157,0,-270,-104,-270,-259r0,-351v2,-31,-38,-20,-65,-22r0,-86r101,0v46,0,64,18,64,64r0,391v-1,103,67,169,169,169v102,0,169,-67,169,-170r0,-390v0,-46,19,-64,65,-64r100,0r0,86v-27,2,-65,-9,-65,22r0,351v2,154,-112,259,-268,259xm233,-755r87,-127r89,0r88,127r-79,0r-52,-80r-2,0r-53,80r-78,0","w":728},"\u00dc":{"d":"365,12v-157,0,-270,-104,-270,-259r0,-351v2,-31,-38,-20,-65,-22r0,-86r101,0v46,0,64,18,64,64r0,391v-1,103,67,169,169,169v102,0,169,-67,169,-170r0,-390v0,-46,19,-64,65,-64r100,0r0,86v-27,2,-65,-9,-65,22r0,351v2,154,-112,259,-268,259xm411,-781r0,-101r73,0r0,101r-73,0xm246,-781r0,-101r74,0r0,101r-74,0","w":728},"\u00dd":{"d":"252,0r0,-308r-179,-287v-13,-23,-31,-27,-63,-25r0,-86v36,0,82,-2,102,10v13,7,26,21,39,44r107,178r43,79r2,0v44,-89,99,-172,149,-257v25,-42,36,-53,95,-54r46,0r0,86v-31,-2,-50,3,-63,25r-178,287r0,308r-100,0xm263,-755r73,-127r98,0r-95,127r-76,0","w":603},"\u00de":{"d":"570,-365v0,130,-93,224,-222,224r-145,0r0,141r-100,0r0,-598v2,-31,-38,-20,-65,-22r0,-86r101,0v46,0,64,18,64,64r0,56r146,0v129,-2,221,90,221,221xm467,-365v0,-83,-51,-136,-133,-135r-131,0r0,273r130,0v83,1,134,-54,134,-138","w":596},"\u00df":{"d":"176,-64v0,46,-19,64,-65,64r-92,0r0,-83v26,-1,60,8,60,-22r0,-425v-4,-116,102,-188,216,-188v121,0,231,103,175,220v-23,47,-77,64,-85,122v3,33,38,55,63,74v51,37,114,78,116,162v3,95,-78,153,-171,152v-61,0,-113,-16,-152,-50r27,-75v34,27,72,41,113,41v47,0,91,-23,84,-72v-15,-108,-179,-107,-179,-229v0,-85,101,-101,101,-183v0,-47,-42,-78,-95,-78v-64,0,-116,43,-116,111r0,459","w":578},"\u00e0":{"d":"209,12v-91,1,-174,-60,-172,-154v1,-55,26,-96,61,-118v66,-42,158,-57,266,-55v1,-88,-27,-126,-112,-126v-32,1,-84,7,-83,39r0,29r-91,0r0,-50v5,-79,95,-93,175,-95v145,-3,208,65,208,198r0,215v-2,30,36,20,63,22r0,83r-91,0v-54,2,-69,-36,-61,-88r-2,0v-25,55,-79,99,-161,100xm230,-66v82,0,142,-89,135,-178r-25,0v-75,1,-146,5,-185,43v-14,13,-20,32,-20,54v1,48,41,81,95,81xm226,-579r-95,-127r98,0r73,127r-76,0","w":544},"\u00e1":{"d":"209,12v-91,1,-174,-60,-172,-154v1,-55,26,-96,61,-118v66,-42,158,-57,266,-55v1,-88,-27,-126,-112,-126v-32,1,-84,7,-83,39r0,29r-91,0r0,-50v5,-79,95,-93,175,-95v145,-3,208,65,208,198r0,215v-2,30,36,20,63,22r0,83r-91,0v-54,2,-69,-36,-61,-88r-2,0v-25,55,-79,99,-161,100xm230,-66v82,0,142,-89,135,-178r-25,0v-75,1,-146,5,-185,43v-14,13,-20,32,-20,54v1,48,41,81,95,81xm226,-579r73,-127r98,0r-95,127r-76,0","w":544},"\u00e2":{"d":"209,12v-91,1,-174,-60,-172,-154v1,-55,26,-96,61,-118v66,-42,158,-57,266,-55v1,-88,-27,-126,-112,-126v-32,1,-84,7,-83,39r0,29r-91,0r0,-50v5,-79,95,-93,175,-95v145,-3,208,65,208,198r0,215v-2,30,36,20,63,22r0,83r-91,0v-54,2,-69,-36,-61,-88r-2,0v-25,55,-79,99,-161,100xm230,-66v82,0,142,-89,135,-178r-25,0v-75,1,-146,5,-185,43v-14,13,-20,32,-20,54v1,48,41,81,95,81xm134,-579r87,-127r89,0r88,127r-79,0r-52,-80r-2,0r-53,80r-78,0","w":544},"\u00e3":{"d":"209,12v-91,1,-174,-60,-172,-154v1,-55,26,-96,61,-118v66,-42,158,-57,266,-55v1,-88,-27,-126,-112,-126v-32,1,-84,7,-83,39r0,29r-91,0r0,-50v5,-79,95,-93,175,-95v145,-3,208,65,208,198r0,215v-2,30,36,20,63,22r0,83r-91,0v-54,2,-69,-36,-61,-88r-2,0v-25,55,-79,99,-161,100xm230,-66v82,0,142,-89,135,-178r-25,0v-75,1,-146,5,-185,43v-14,13,-20,32,-20,54v1,48,41,81,95,81xm202,-645v-30,0,-40,34,-40,65r-66,0v0,-85,34,-127,103,-127v41,-1,71,31,93,51v12,11,23,17,35,17v30,0,40,-34,40,-65r66,0v0,85,-34,127,-103,127v-41,1,-69,-32,-92,-51v-12,-11,-24,-17,-36,-17","w":544},"\u00e4":{"d":"209,12v-91,1,-174,-60,-172,-154v1,-55,26,-96,61,-118v66,-42,158,-57,266,-55v1,-88,-27,-126,-112,-126v-32,1,-84,7,-83,39r0,29r-91,0r0,-50v5,-79,95,-93,175,-95v145,-3,208,65,208,198r0,215v-2,30,36,20,63,22r0,83r-91,0v-54,2,-69,-36,-61,-88r-2,0v-25,55,-79,99,-161,100xm230,-66v82,0,142,-89,135,-178r-25,0v-75,1,-146,5,-185,43v-14,13,-20,32,-20,54v1,48,41,81,95,81xm312,-605r0,-101r73,0r0,101r-73,0xm147,-605r0,-101r74,0r0,101r-74,0","w":544},"\u00e5":{"d":"209,12v-91,1,-174,-60,-172,-154v1,-55,26,-96,61,-118v66,-42,158,-57,266,-55v1,-88,-27,-126,-112,-126v-32,1,-84,7,-83,39r0,29r-91,0r0,-50v5,-79,95,-93,175,-95v145,-3,208,65,208,198r0,215v-2,30,36,20,63,22r0,83r-91,0v-54,2,-69,-36,-61,-88r-2,0v-25,55,-79,99,-161,100xm230,-66v82,0,142,-89,135,-178r-25,0v-75,1,-146,5,-185,43v-14,13,-20,32,-20,54v1,48,41,81,95,81xm347,-641v0,43,-38,74,-81,74v-44,0,-81,-30,-81,-74v0,-45,37,-75,81,-75v43,0,81,31,81,75xm232,-641v0,19,15,33,34,33v19,0,34,-14,34,-33v0,-21,-14,-35,-34,-35v-20,0,-34,14,-34,35","w":544},"\u00e6":{"d":"210,12v-94,0,-173,-60,-173,-154v0,-113,101,-170,302,-170r25,0v2,-90,-26,-129,-112,-129v-33,1,-84,7,-83,39r0,29r-91,0v1,-39,-5,-73,16,-95v33,-36,93,-50,159,-50v89,0,146,30,172,89r2,0v40,-59,100,-89,180,-89v146,-1,232,120,213,277r-362,0v-1,129,121,202,244,154v36,-15,50,-25,72,-44r42,69v-33,36,-121,74,-195,74v-107,0,-180,-53,-218,-127r-2,0v-29,68,-90,127,-191,127xm724,-312v0,-75,-49,-129,-119,-129v-80,0,-132,54,-143,129r262,0xm231,-66v82,0,140,-87,134,-175r-47,0v-121,0,-182,31,-182,94v1,49,40,81,95,81","w":868},"\u00e7":{"d":"253,7v-123,-18,-217,-122,-217,-260v0,-167,143,-294,327,-259v59,12,124,37,127,105r0,52r-88,0r0,-28v1,-36,-57,-52,-94,-52v-100,-1,-173,78,-173,181v0,106,78,180,178,180v59,0,115,-26,157,-70r42,69v-43,46,-113,86,-205,87r-8,38v40,5,72,30,72,73v0,78,-88,96,-158,77r0,-58v30,12,94,11,90,-24v4,-26,-36,-34,-70,-30","w":533},"\u00e8":{"d":"305,12v-154,0,-269,-114,-269,-265v0,-152,106,-265,254,-265v149,0,235,121,215,277r-369,0v1,124,128,204,250,154v36,-15,50,-25,72,-44r42,69v-33,36,-121,74,-195,74xm408,-312v0,-75,-49,-129,-119,-129v-82,0,-137,53,-149,129r268,0xm247,-579r-95,-127r98,0r73,127r-76,0","w":552},"\u00e9":{"d":"305,12v-154,0,-269,-114,-269,-265v0,-152,106,-265,254,-265v149,0,235,121,215,277r-369,0v1,124,128,204,250,154v36,-15,50,-25,72,-44r42,69v-33,36,-121,74,-195,74xm408,-312v0,-75,-49,-129,-119,-129v-82,0,-137,53,-149,129r268,0xm248,-579r73,-127r98,0r-95,127r-76,0","w":552},"\u00ea":{"d":"305,12v-154,0,-269,-114,-269,-265v0,-152,106,-265,254,-265v149,0,235,121,215,277r-369,0v1,124,128,204,250,154v36,-15,50,-25,72,-44r42,69v-33,36,-121,74,-195,74xm408,-312v0,-75,-49,-129,-119,-129v-82,0,-137,53,-149,129r268,0xm155,-579r87,-127r89,0r88,127r-79,0r-52,-80r-2,0r-53,80r-78,0","w":552},"\u00eb":{"d":"305,12v-154,0,-269,-114,-269,-265v0,-152,106,-265,254,-265v149,0,235,121,215,277r-369,0v1,124,128,204,250,154v36,-15,50,-25,72,-44r42,69v-33,36,-121,74,-195,74xm408,-312v0,-75,-49,-129,-119,-129v-82,0,-137,53,-149,129r268,0xm333,-605r0,-101r73,0r0,101r-73,0xm168,-605r0,-101r74,0r0,101r-74,0","w":552},"\u00ec":{"d":"155,0v-46,0,-65,-18,-65,-64r0,-337v2,-30,-36,-20,-63,-22r0,-83r96,0v46,0,64,18,64,64r0,337v-2,30,36,20,63,22r0,83r-95,0xm92,-579r-95,-127r98,0r73,127r-76,0","w":277},"\u00ed":{"d":"155,0v-46,0,-65,-18,-65,-64r0,-337v2,-30,-36,-20,-63,-22r0,-83r96,0v46,0,64,18,64,64r0,337v-2,30,36,20,63,22r0,83r-95,0xm92,-579r73,-127r98,0r-95,127r-76,0","w":277},"\u00ee":{"d":"155,0v-46,0,-65,-18,-65,-64r0,-337v2,-30,-36,-20,-63,-22r0,-83r96,0v46,0,64,18,64,64r0,337v-2,30,36,20,63,22r0,83r-95,0xm-1,-579r88,-127r89,0r88,127r-80,0r-52,-81r-2,0r-52,81r-79,0","w":277},"\u00ef":{"d":"155,0v-46,0,-65,-18,-65,-64r0,-337v2,-30,-36,-20,-63,-22r0,-83r96,0v46,0,64,18,64,64r0,337v-2,30,36,20,63,22r0,83r-95,0xm162,-605r0,-101r74,0r0,101r-74,0xm23,-605r0,-101r73,0r0,101r-73,0","w":277},"\u00f0":{"d":"275,12v-140,4,-237,-114,-237,-247v0,-129,99,-235,237,-231v51,2,92,15,123,42r2,0v-20,-53,-56,-98,-109,-133r-181,80r-10,-62r124,-55v-41,-21,-84,-36,-129,-46r27,-79v77,17,146,44,207,80r139,-61r9,61r-92,42v96,80,144,187,144,322v0,167,-84,282,-254,287xm289,-388v-93,0,-153,68,-153,155v-1,85,54,164,141,161v106,-3,150,-82,153,-186v2,-78,-60,-130,-141,-130","w":575},"\u00f1":{"d":"446,-302v-2,-78,-17,-127,-95,-127v-81,0,-142,57,-160,124v-5,18,-9,40,-9,68r0,237r-97,0r0,-401v2,-30,-36,-20,-63,-22r0,-83r93,0v63,-3,70,45,62,104r2,0v28,-58,96,-118,190,-116v123,2,174,68,174,194r0,219v-2,30,36,20,63,22r0,83r-96,0v-46,0,-64,-18,-64,-64r0,-238xm259,-645v-30,0,-40,34,-40,65r-66,0v0,-85,34,-127,103,-127v41,-1,70,31,92,51v12,11,24,17,36,17v30,0,40,-34,40,-65r66,0v0,85,-34,127,-103,127v-41,1,-69,-32,-92,-51v-12,-11,-24,-17,-36,-17","w":626},"\u00f2":{"d":"308,12v-148,0,-272,-117,-272,-266v0,-149,124,-264,272,-264v149,0,273,115,273,264v0,149,-125,266,-273,266xm308,-434v-96,0,-173,81,-173,180v0,99,77,182,173,182v97,0,174,-82,174,-182v0,-100,-77,-180,-174,-180xm269,-579r-95,-127r98,0r73,127r-76,0","w":617},"\u00f3":{"d":"308,12v-148,0,-272,-117,-272,-266v0,-149,124,-264,272,-264v149,0,273,115,273,264v0,149,-125,266,-273,266xm308,-434v-96,0,-173,81,-173,180v0,99,77,182,173,182v97,0,174,-82,174,-182v0,-100,-77,-180,-174,-180xm269,-579r73,-127r98,0r-95,127r-76,0","w":617},"\u00f4":{"d":"308,12v-148,0,-272,-117,-272,-266v0,-149,124,-264,272,-264v149,0,273,115,273,264v0,149,-125,266,-273,266xm308,-434v-96,0,-173,81,-173,180v0,99,77,182,173,182v97,0,174,-82,174,-182v0,-100,-77,-180,-174,-180xm177,-579r87,-127r89,0r88,127r-79,0r-52,-80r-2,0r-53,80r-78,0","w":617},"\u00f5":{"d":"308,12v-148,0,-272,-117,-272,-266v0,-149,124,-264,272,-264v149,0,273,115,273,264v0,149,-125,266,-273,266xm308,-434v-96,0,-173,81,-173,180v0,99,77,182,173,182v97,0,174,-82,174,-182v0,-100,-77,-180,-174,-180xm245,-645v-30,0,-40,34,-40,65r-66,0v0,-85,34,-127,103,-127v41,-1,70,31,92,51v12,11,24,17,36,17v30,0,40,-34,40,-65r66,0v0,85,-34,127,-103,127v-41,1,-69,-32,-92,-51v-12,-11,-24,-17,-36,-17","w":617},"\u00f6":{"d":"308,12v-148,0,-272,-117,-272,-266v0,-149,124,-264,272,-264v149,0,273,115,273,264v0,149,-125,266,-273,266xm308,-434v-96,0,-173,81,-173,180v0,99,77,182,173,182v97,0,174,-82,174,-182v0,-100,-77,-180,-174,-180xm355,-605r0,-101r73,0r0,101r-73,0xm190,-605r0,-101r74,0r0,101r-74,0","w":617},"\u00f7":{"d":"253,-435r0,-91r94,0r0,91r-94,0xm48,-246r0,-78r505,0r0,78r-505,0xm253,-44r0,-91r94,0r0,91r-94,0"},"\u00f8":{"d":"581,-254v0,149,-125,266,-273,266v-47,0,-89,-10,-127,-30r-39,56r-48,-35r38,-52v-64,-51,-96,-119,-96,-205v0,-149,124,-264,272,-264v49,0,95,11,136,34r40,-56r47,34r-39,54v59,53,89,119,89,198xm392,-412v-119,-67,-257,28,-257,158v0,51,17,95,51,130xm233,-90v121,60,249,-37,249,-164v0,-48,-15,-88,-46,-120","w":617},"\u00f9":{"d":"255,12v-120,-2,-172,-68,-172,-194r0,-219v2,-30,-36,-20,-63,-22r0,-83r95,0v45,0,65,18,65,62r0,240v2,78,17,125,94,126v100,1,165,-91,165,-191r0,-237r97,0r0,401v-2,30,36,20,63,22r0,83r-93,0v-63,3,-69,-43,-63,-104r-2,0v-25,58,-99,118,-186,116xm265,-579r-95,-127r98,0r73,127r-76,0","w":621},"\u00fa":{"d":"255,12v-120,-2,-172,-68,-172,-194r0,-219v2,-30,-36,-20,-63,-22r0,-83r95,0v45,0,65,18,65,62r0,240v2,78,17,125,94,126v100,1,165,-91,165,-191r0,-237r97,0r0,401v-2,30,36,20,63,22r0,83r-93,0v-63,3,-69,-43,-63,-104r-2,0v-25,58,-99,118,-186,116xm265,-579r73,-127r98,0r-95,127r-76,0","w":621},"\u00fb":{"d":"255,12v-120,-2,-172,-68,-172,-194r0,-219v2,-30,-36,-20,-63,-22r0,-83r95,0v45,0,65,18,65,62r0,240v2,78,17,125,94,126v100,1,165,-91,165,-191r0,-237r97,0r0,401v-2,30,36,20,63,22r0,83r-93,0v-63,3,-69,-43,-63,-104r-2,0v-25,58,-99,118,-186,116xm172,-579r87,-127r89,0r88,127r-79,0r-52,-80r-2,0r-53,80r-78,0","w":621},"\u00fc":{"d":"255,12v-120,-2,-172,-68,-172,-194r0,-219v2,-30,-36,-20,-63,-22r0,-83r95,0v45,0,65,18,65,62r0,240v2,78,17,125,94,126v100,1,165,-91,165,-191r0,-237r97,0r0,401v-2,30,36,20,63,22r0,83r-93,0v-63,3,-69,-43,-63,-104r-2,0v-25,58,-99,118,-186,116xm350,-605r0,-101r73,0r0,101r-73,0xm185,-605r0,-101r74,0r0,101r-74,0","w":621},"\u00fd":{"d":"45,90v11,15,45,37,74,36v39,0,68,-24,89,-73r23,-55r-173,-401v-8,-17,-21,-21,-44,-20r0,-83v35,1,83,-5,102,10v10,7,19,21,27,41r115,285v7,17,13,38,18,61r2,0v5,-23,10,-44,17,-61r105,-285v14,-37,27,-51,74,-51r58,0r0,83v-23,-1,-37,3,-45,20r-200,494v-28,85,-122,146,-226,107v-29,-12,-39,-22,-56,-38xm234,-579r73,-127r98,0r-95,127r-76,0","w":546},"\u00fe":{"d":"564,-253v0,168,-113,302,-288,257v-47,-12,-76,-38,-97,-73r-2,0v1,12,2,27,2,44r0,225r-97,0r0,-801v2,-30,-36,-20,-63,-22r0,-83r96,0v46,0,64,18,64,64r0,163r-2,44r2,0v32,-55,85,-83,159,-83v142,-1,226,117,226,265xm323,-434v-98,0,-147,69,-147,181v0,111,51,181,147,181v91,0,142,-83,142,-181v0,-98,-51,-181,-142,-181","w":601},"\u00ff":{"d":"45,90v11,15,45,37,74,36v39,0,68,-24,89,-73r23,-55r-173,-401v-8,-17,-21,-21,-44,-20r0,-83v35,1,83,-5,102,10v10,7,19,21,27,41r115,285v7,17,13,38,18,61r2,0v5,-23,10,-44,17,-61r105,-285v14,-37,27,-51,74,-51r58,0r0,83v-23,-1,-37,3,-45,20r-200,494v-28,85,-122,146,-226,107v-29,-12,-39,-22,-56,-38xm319,-605r0,-101r73,0r0,101r-73,0xm154,-605r0,-101r74,0r0,101r-74,0","w":546},"\u0152":{"d":"381,9v-195,0,-347,-165,-347,-363v0,-197,152,-361,347,-361v30,0,117,9,144,9r289,0v46,0,65,18,65,64r0,89r-92,0v-2,-28,10,-67,-22,-67r-195,0r0,221r242,0r0,86r-242,0r0,227r223,0v32,2,20,-39,22,-67r91,0r0,89v0,45,-17,64,-61,64r-320,0v-25,0,-116,9,-144,9xm381,-622v-144,-2,-243,121,-243,268v0,148,99,272,243,270v37,0,66,-3,89,-8r0,-522v-23,-5,-53,-8,-89,-8","w":929},"\u0153":{"d":"308,12v-151,2,-272,-112,-272,-264v0,-152,121,-266,271,-266v100,0,174,40,222,120r2,0v43,-80,112,-120,208,-120v149,0,236,121,216,277r-369,0v3,125,127,203,250,154v36,-15,50,-25,72,-44r42,69v-33,36,-121,74,-196,74v-102,0,-176,-41,-221,-123r-2,0v-42,72,-116,122,-223,123xm858,-312v-2,-75,-47,-129,-119,-129v-83,0,-137,53,-149,129r268,0xm308,-434v-98,0,-173,79,-173,182v0,103,74,180,173,180v99,0,174,-79,174,-183v0,-100,-78,-179,-174,-179","w":1002},"\u0178":{"d":"252,0r0,-308r-179,-287v-13,-23,-31,-27,-63,-25r0,-86v36,0,82,-2,102,10v13,7,26,21,39,44r107,178r43,79r2,0v44,-89,99,-172,149,-257v25,-42,36,-53,95,-54r46,0r0,86v-31,-2,-50,3,-63,25r-178,287r0,308r-100,0xm349,-781r0,-101r73,0r0,101r-73,0xm184,-781r0,-101r74,0r0,101r-74,0","w":603},"\u02c6":{"d":"111,-755r87,-127r89,0r88,127r-79,0r-52,-80r-2,0r-53,80r-78,0","w":485},"\u02dc":{"d":"198,-821v-30,0,-40,34,-40,65r-66,0v0,-85,34,-127,103,-127v41,-1,71,31,93,51v12,11,23,17,35,17v30,0,40,-34,40,-65r66,0v0,85,-34,127,-103,127v-41,1,-69,-32,-92,-51v-12,-11,-24,-17,-36,-17","w":519},"\u2013":{"d":"63,-246r0,-78r526,0r0,78r-526,0","w":652},"\u2014":{"d":"63,-246r0,-78r726,0r0,78r-726,0","w":852},"\u2018":{"d":"47,-522r65,-195r69,0r-43,195r-91,0","w":228},"\u2019":{"d":"47,-523r43,-195r91,0r-65,195r-69,0","w":228},"\u201a":{"d":"90,-105r91,0r-65,195r-69,0","w":228},"\u201c":{"d":"185,-522r65,-195r70,0r-43,195r-92,0xm47,-522r65,-195r69,0r-43,195r-91,0","w":367},"\u201d":{"d":"185,-523r43,-195r92,0r-65,195r-70,0xm47,-523r43,-195r91,0r-65,195r-69,0","w":367},"\u201e":{"d":"185,90r43,-195r92,0r-65,195r-70,0xm90,-105r91,0r-65,195r-69,0","w":367},"\u2022":{"d":"381,-291v0,83,-71,155,-154,155v-85,0,-155,-71,-155,-155v0,-85,71,-155,155,-155v83,0,154,72,154,155","w":454},"\u2026":{"d":"662,0r0,-103r99,0r0,103r-99,0xm402,0r0,-103r100,0r0,103r-100,0xm143,0r0,-103r99,0r0,103r-99,0","w":904},"\u2039":{"d":"206,-77r-164,-205r164,-206r97,0r-164,206r164,205r-97,0","w":367},"\u203a":{"d":"62,-77r164,-205r-164,-206r97,0r164,206r-164,205r-97,0","w":367},"\u20ac":{"d":"448,12v-177,1,-307,-120,-340,-270r-69,0r0,-63r59,0v-3,-26,-1,-47,0,-72r-59,0r0,-64r70,0v40,-169,220,-303,435,-249r-24,91v-145,-42,-273,43,-305,158r277,0r-14,64r-278,0v-3,22,-2,49,0,72r265,0r-12,63r-236,0v29,124,171,212,325,162r20,91v-33,11,-71,17,-114,17","w":601},"\u2122":{"d":"423,-266r0,-67v13,-1,33,5,34,-9r29,-364r69,0r104,230r14,42r2,0v4,-16,8,-30,13,-42r104,-230r70,0r29,364v0,14,21,8,34,9r0,67v-32,-1,-79,5,-96,-9v-7,-6,-11,-18,-12,-36r-17,-218r1,-30r-2,0r-95,212r-61,0r-95,-212r-2,0r1,30r-17,218v-3,36,-11,44,-49,45r-58,0xm372,-706v36,1,46,9,47,45r0,61r-66,0v-2,-14,7,-39,-9,-39r-77,0r0,373r-76,0r0,-373r-76,0v-16,0,-7,25,-9,39r-67,0r0,-61v1,-36,10,-44,47,-45r286,0","w":983}}});
