/*!
 * The following copyright notice may not be removed under any circumstances.
 * 
 * Copyright:
 * Copyright (c) 2008 by Jos Buivenga/exljbris. All rights reserved.
 * 
 * Description:
 * This is a protected webfont and is intended for CSS @font-face use ONLY.
 * Reverse engineering this font is strictly prohibited.
 */
Cufon.registerFont({"w":619,"face":{"font-family":"","font-weight":600,"font-stretch":"normal","units-per-em":"1000","panose-1":"2 0 0 0 0 0 0 0 0 0","ascent":"750","descent":"-250","x-height":"12","bbox":"-19 -902 976 210","underline-thickness":"50","underline-position":"-50","unicode-range":"U+0020-U+2122"},"glyphs":{" ":{"w":265},"!":{"d":"111,-205r-11,-505r132,0r-10,505r-111,0xm105,0r0,-118r123,0r0,118r-123,0","w":332},"\"":{"d":"217,-514r0,-209r94,0r0,209r-94,0xm57,-514r0,-209r94,0r0,209r-94,0","w":369},"#":{"d":"119,0r32,-187r-119,0r15,-91r119,0r25,-140r-117,0r15,-92r118,0r35,-200r102,0r-35,200r136,0r35,-200r102,0r-35,200r121,0r-16,92r-120,0r-25,140r119,0r-15,91r-120,0r-32,187r-102,0r33,-187r-137,0r-32,187r-102,0xm268,-278r137,0r25,-140r-137,0","w":700},"$":{"d":"526,-194v0,108,-87,190,-189,202r0,93r-89,0r0,-92v-88,-10,-164,-64,-210,-140r91,-76v31,49,84,99,163,101v56,1,106,-30,102,-84v-5,-68,-78,-85,-132,-112v-94,-46,-202,-90,-202,-227v0,-107,89,-175,188,-189r0,-93r89,0r0,93v79,11,166,51,166,136r0,66r-118,0r0,-32v0,-36,-49,-55,-89,-55v-52,0,-103,26,-104,72v0,23,11,42,34,59v49,37,123,59,182,91v61,32,119,95,118,187","w":560},"%":{"d":"382,-564v0,87,-77,158,-164,158v-87,0,-163,-71,-163,-158v0,-85,77,-158,163,-158v86,0,164,73,164,158xm80,0r545,-710r117,0r-545,710r-117,0xm152,-564v0,36,30,66,66,66v36,0,67,-30,67,-66v0,-35,-31,-66,-67,-66v-36,0,-66,31,-66,66xm606,12v-87,0,-163,-71,-163,-157v0,-86,76,-158,163,-158v86,0,163,73,163,158v0,86,-76,157,-163,157xm606,-212v-36,0,-66,31,-66,66v0,36,30,66,66,66v36,0,67,-30,67,-66v0,-35,-31,-66,-67,-66","w":825},"&":{"d":"296,12v-138,0,-255,-90,-254,-220v0,-78,51,-154,118,-170r0,-2v-50,-25,-86,-77,-87,-155v-2,-148,160,-219,314,-175r-31,102v-78,-22,-155,16,-153,89v1,57,40,94,108,94r107,0r0,-85r127,0r0,85r85,0r0,112r-85,0r0,84v1,147,-99,241,-249,241xm311,-313v-78,0,-136,31,-137,104v0,61,55,104,122,103v79,-1,123,-48,122,-130r0,-77r-107,0","w":651},"'":{"d":"57,-514r0,-209r96,0r0,209r-96,0","w":210},"(":{"d":"201,95v-159,-221,-160,-613,-3,-836r108,0v-154,251,-146,581,3,836r-108,0","w":351},")":{"d":"42,95v149,-255,157,-584,3,-836r108,0v159,224,157,614,-2,836r-109,0","w":351},"*":{"d":"171,-321r-91,-66r83,-100r0,-2r-126,-31r34,-108r121,49r-9,-131r115,0r-9,131r121,-49r36,107r-128,32r0,2r84,99r-91,67r-69,-110r-2,0","w":483},"+":{"d":"42,-236r0,-99r216,0r0,-237r103,0r0,237r216,0r0,99r-216,0r0,236r-103,0r0,-236r-216,0"},",":{"d":"89,-129r122,0r-96,234r-93,0","w":265},"-":{"d":"65,-230r0,-111r301,0r0,111r-301,0","w":431},".":{"d":"71,0r0,-127r123,0r0,127r-123,0","w":265},"\/":{"d":"-1,42r254,-788r109,0r-255,788r-108,0","w":367},"0":{"d":"428,-16v-65,37,-179,37,-244,0v-101,-58,-135,-183,-135,-340v0,-244,86,-366,257,-366v171,0,257,122,257,366v0,107,-17,190,-55,260v-19,35,-46,61,-80,80xm306,-106v83,0,125,-83,125,-250v0,-165,-42,-247,-125,-247v-83,0,-125,82,-125,247v0,167,42,250,125,250","w":612},"1":{"d":"64,0r0,-111r153,0r1,-442r-2,0v-17,33,-61,67,-88,94r-76,-80r178,-171r118,0r0,599r153,0r0,111r-437,0","w":533},"2":{"d":"106,0v-65,-1,-73,-26,-73,-94v0,-187,168,-223,279,-302v35,-25,67,-60,68,-114v1,-57,-45,-92,-103,-92v-43,0,-91,22,-93,56r0,31r-118,0v0,-65,-4,-112,36,-147v43,-38,106,-59,180,-60v126,-2,233,83,230,210v-5,194,-200,227,-308,318v-24,20,-35,42,-35,65v0,12,9,18,27,18r208,0v31,2,20,-38,22,-65r118,0r0,108v0,48,-20,68,-68,68r-370,0","w":581},"3":{"d":"520,-218v0,131,-110,230,-253,230v-94,0,-182,-37,-241,-100r66,-98v39,38,96,75,174,76v66,2,121,-43,121,-106v0,-66,-64,-105,-134,-104r-50,0r-26,-65r120,-161v16,-24,32,-42,47,-54r0,-2v-38,5,-106,3,-152,3v-31,0,-20,38,-22,65r-118,0r0,-108v1,-48,14,-68,62,-68r386,0r0,81r-163,204v99,15,183,92,183,207","w":556},"4":{"d":"18,-179r0,-83r294,-448r154,0r0,420r109,0r0,111r-109,0r0,179r-131,0r0,-179r-317,0xm337,-290r0,-197r5,-77r-2,0v-46,85,-98,150,-149,228r-36,47r0,2v56,-5,121,-2,182,-3","w":589},"5":{"d":"541,-226v0,136,-115,239,-263,239v-91,0,-175,-38,-231,-99r66,-99v35,39,90,74,165,75v73,1,130,-49,130,-118v0,-101,-119,-140,-222,-113v-32,8,-44,13,-65,24r-46,-23r26,-302v4,-46,19,-67,67,-68r262,0v45,0,68,23,68,68r0,108r-119,0v-2,-27,9,-65,-22,-65r-117,0v-13,0,-21,7,-22,22r-9,98r-5,33v24,-7,48,-13,77,-13v148,0,260,94,260,233","w":595},"6":{"d":"541,-226v0,132,-99,240,-233,238v-166,-3,-279,-147,-275,-330v3,-137,49,-243,117,-316v46,-49,119,-88,210,-88v59,0,108,10,146,30r-38,111v-77,-36,-176,-29,-226,33v-31,38,-53,83,-62,138r2,0v22,-30,81,-52,132,-52v133,0,227,106,227,236xm284,-356v-55,0,-114,29,-116,77v-3,80,63,173,139,173v66,0,107,-54,107,-120v0,-75,-52,-130,-130,-130","w":575},"7":{"d":"22,-642v1,-47,15,-68,62,-68r444,0r0,90r-338,620r-143,0r293,-534v16,-29,30,-51,43,-65r0,-2v-61,4,-152,2,-220,2v-31,0,-20,38,-22,65r-119,0r0,-108","w":538},"8":{"d":"290,12v-154,0,-296,-119,-243,-278v18,-53,58,-87,98,-116v-1,-5,-6,-5,-9,-8v-35,-27,-70,-72,-70,-136v1,-114,101,-196,228,-196v126,0,228,79,228,197v0,61,-29,120,-77,161r0,2v65,41,98,96,98,163v0,121,-119,211,-253,211xm294,-603v-56,0,-101,30,-101,80v0,58,46,71,96,93v24,10,40,15,47,15v28,-2,60,-63,60,-101v0,-55,-44,-87,-102,-87xm245,-327v-33,2,-77,69,-77,114v0,65,56,107,122,107v62,0,124,-40,121,-99v-3,-60,-49,-73,-102,-98v-36,-16,-57,-24,-64,-24","w":583},"9":{"d":"267,-722v165,3,278,147,274,330v-3,137,-49,243,-117,316v-46,49,-119,88,-210,88v-59,0,-108,-10,-146,-30r38,-111v76,38,176,29,226,-33v31,-38,53,-83,62,-138r-2,0v-21,30,-81,52,-132,52v-133,0,-227,-106,-227,-236v0,-132,99,-240,234,-238xm160,-484v0,76,52,130,131,130v54,0,114,-29,115,-77v2,-81,-63,-172,-139,-172v-66,0,-107,52,-107,119","w":575},":":{"d":"92,-383r0,-127r122,0r0,127r-122,0xm92,0r0,-127r122,0r0,127r-122,0","w":306},";":{"d":"93,-383r0,-127r122,0r0,127r-122,0xm35,105r55,-234r121,0r-82,234r-94,0","w":306},"<":{"d":"64,-245r0,-82r481,-214r0,111r-347,143r0,2r347,143r0,111"},"=":{"d":"66,-339r0,-98r488,0r0,98r-488,0xm66,-134r0,-98r488,0r0,98r-488,0"},">":{"d":"71,-31r0,-111r347,-143r0,-2r-347,-143r0,-111r481,214r0,82"},"?":{"d":"224,-724v113,0,220,75,218,188v-2,96,-60,146,-112,190v-28,24,-61,56,-62,102r0,39r-123,0v0,-48,-1,-87,17,-121v32,-62,94,-90,131,-145v11,-17,17,-34,17,-53v0,-67,-82,-101,-149,-72v-26,11,-38,17,-55,31r-70,-87v31,-35,115,-72,188,-72xm145,0r0,-118r123,0r0,118r-123,0","w":476},"@":{"d":"434,127v-222,6,-396,-154,-396,-367v0,-204,170,-373,376,-373v95,0,165,20,209,61v44,41,66,93,66,157r0,250r73,0r0,91r-277,0v-118,4,-215,-78,-215,-186v0,-107,97,-187,215,-183r85,0v-4,-60,-80,-88,-152,-88v-140,0,-255,131,-255,271v0,151,115,273,271,268r0,99xm495,-341v-56,-2,-99,43,-99,98v0,54,42,98,97,98r77,0r0,-196r-75,0","w":785},"A":{"d":"11,0r0,-111v25,1,40,-2,47,-22r211,-577r137,0r210,577v6,20,22,23,47,22r0,111v-45,-2,-107,6,-133,-12v-12,-8,-21,-23,-29,-46r-44,-124r-240,0r-44,124v-16,43,-28,58,-83,58r-79,0xm247,-290r180,0r-61,-178r-28,-106r-2,0v-25,115,-57,184,-89,284","w":674},"B":{"d":"166,0v-47,0,-68,-20,-68,-68r0,-531r-65,0r0,-111r307,0v123,-1,220,64,220,183v0,73,-39,127,-86,152r0,2v68,17,114,86,114,167v2,136,-109,207,-245,206r-177,0xm427,-511v0,-54,-33,-89,-88,-88r-110,0r0,179r112,0v53,1,87,-39,86,-91xm453,-214v0,-59,-40,-102,-100,-102r-124,0r0,183v0,15,7,22,22,22r102,0v62,1,100,-42,100,-103","w":629},"C":{"d":"395,12v-210,3,-365,-164,-365,-373v0,-226,194,-405,441,-353v86,18,184,52,188,151r0,79r-119,0r0,-40v0,-54,-88,-76,-147,-76v-133,0,-227,101,-227,239v0,156,133,289,304,241v55,-16,98,-44,133,-74r9,-10r69,94v-61,64,-158,120,-286,122","w":709},"D":{"d":"167,0v-48,0,-68,-20,-68,-68r0,-531r-65,0r0,-111r289,0v219,-2,362,135,362,354v0,219,-143,358,-362,356r-156,0xm549,-356v0,-150,-88,-243,-233,-243r-86,0r0,466v0,36,54,21,86,22v147,4,233,-93,233,-245","w":715},"E":{"d":"167,0v-48,0,-68,-20,-68,-68r0,-531r-65,0r0,-111r429,0v45,0,68,23,68,68r0,108r-119,0v-2,-27,9,-65,-22,-65r-160,0r0,186r230,0r0,111r-230,0r0,169v0,15,7,22,22,22r164,0v31,2,20,-38,22,-65r119,0r0,108v0,48,-21,68,-68,68r-322,0","w":578},"F":{"d":"439,-710v48,0,68,21,68,68r0,108r-118,0v-2,-27,9,-65,-22,-65r-137,0r0,201r227,0r0,111r-227,0r0,287r-131,0r0,-599r-65,0r0,-111r405,0","w":526},"G":{"d":"376,12v-197,1,-345,-162,-345,-371v0,-201,160,-366,361,-363v107,2,191,34,249,80r10,10r-74,94v-32,-30,-114,-63,-182,-63v-128,-2,-228,107,-228,241v0,142,99,250,233,250v69,0,134,-27,180,-74v-3,-29,12,-75,-22,-75r-43,0r0,-111r115,0v48,0,68,20,68,67r0,303r-112,0r1,-64r-2,0v-46,41,-119,76,-209,76","w":742},"H":{"d":"162,-710v48,0,68,21,68,68r0,233r313,0r0,-233v0,-45,23,-68,68,-68r128,0r0,111v-27,2,-65,-9,-65,22r0,577r-131,0r0,-298r-313,0r0,298r-131,0r0,-577v2,-31,-38,-20,-65,-22r0,-111r128,0","w":773},"I":{"d":"38,0r0,-111r71,0r0,-488r-71,0r0,-111r266,0r0,111r-71,0r0,488r71,0r0,111r-266,0","w":342},"J":{"d":"243,12v-125,0,-228,-86,-223,-222r0,-41r131,0v-7,84,22,141,93,141v58,0,92,-40,92,-106r0,-361v0,-15,-7,-22,-22,-22r-172,0r0,-111r257,0v45,0,68,23,68,68r0,432v5,138,-97,222,-224,222","w":539},"K":{"d":"162,-710v48,0,68,21,68,68r0,221v42,0,93,3,107,-23r143,-266r144,0r-160,292v-15,27,-30,44,-45,52r0,2v16,4,31,20,46,49r90,181v8,20,37,25,69,23r0,111v-45,-1,-109,4,-137,-10v-13,-7,-26,-21,-37,-43r-116,-233v-12,-32,-61,-22,-104,-24r0,310r-131,0r0,-577v2,-31,-38,-20,-65,-22r0,-111r128,0","w":634},"L":{"d":"167,0v-48,0,-68,-20,-68,-68r0,-509v2,-31,-38,-20,-65,-22r0,-111r128,0v48,0,68,21,68,68r0,509v0,15,7,22,22,22r155,0v31,2,20,-38,22,-65r119,0r0,108v0,48,-20,68,-68,68r-313,0","w":558},"M":{"d":"18,0r0,-111v26,0,51,5,53,-22r46,-577r136,0r146,338r35,95r2,0v54,-155,120,-286,181,-433r136,0r46,577v0,27,27,22,53,22r0,111r-113,0v-50,-1,-63,-20,-67,-68r-24,-316v-3,-34,-2,-73,-1,-110r-2,0v-14,47,-27,83,-39,110r-118,262r-106,0r-118,-262v-13,-30,-31,-77,-39,-111r-2,0v1,18,1,35,1,52v0,21,-1,41,-2,59r-23,316v-5,48,-18,67,-68,68r-113,0","w":870},"N":{"d":"230,-68v0,48,-20,68,-68,68r-128,0r0,-111v27,-2,65,9,65,-22r0,-577r118,0r269,393v19,27,38,61,59,100r2,0v-15,-139,-7,-278,-7,-425v0,-47,20,-68,68,-68r128,0r0,111v-27,2,-65,-9,-65,22r0,577r-117,0r-270,-392v-19,-27,-38,-60,-59,-100r-2,0v15,139,7,278,7,424","w":770},"O":{"d":"397,12v-204,0,-367,-168,-367,-372v0,-200,165,-362,367,-362v202,0,367,162,367,362v0,204,-163,372,-367,372xm397,-600v-128,0,-231,111,-231,240v0,134,101,250,231,250v130,0,231,-116,231,-250v0,-130,-103,-240,-231,-240","w":794},"P":{"d":"585,-479v0,134,-94,236,-226,234r-129,0r0,245r-131,0r0,-599r-65,0r0,-111r325,0v132,-2,226,97,226,231xm451,-479v0,-72,-42,-121,-114,-120r-107,0r0,242r105,0v73,1,116,-49,116,-122","w":605},"Q":{"d":"396,12v-202,0,-366,-169,-366,-371v0,-200,164,-362,366,-362v203,0,368,161,368,362v0,81,-26,155,-78,224r77,70r-78,85r-77,-76v-59,45,-130,68,-212,68xm396,-599v-128,0,-230,109,-230,240v0,133,101,252,230,249v49,0,88,-11,117,-34r-72,-67r77,-85r72,72v25,-40,38,-85,38,-135v0,-131,-103,-240,-232,-240","w":794},"R":{"d":"573,-496v-1,97,-49,163,-118,187r0,2v15,7,26,19,35,36r69,137v9,18,33,25,63,23r0,111v-43,-1,-103,4,-130,-10v-14,-7,-27,-21,-38,-43r-91,-179v-16,-27,-26,-32,-67,-33r-66,0r0,265r-131,0r0,-599r-65,0r0,-111r318,0v130,-1,222,83,221,214xm439,-489v0,-67,-38,-110,-103,-110r-106,0r0,222r104,0v68,0,105,-43,105,-112","w":632},"S":{"d":"494,-282v68,152,-55,294,-218,294v-95,0,-185,-43,-244,-110r74,-92v38,40,94,82,172,84v54,1,106,-31,102,-84v-5,-67,-79,-85,-132,-112v-92,-45,-200,-86,-202,-220v-3,-150,169,-235,329,-187v54,16,120,60,119,127r0,66r-118,0r0,-32v-1,-36,-53,-55,-94,-55v-54,0,-104,27,-104,76v0,67,79,81,132,107v72,35,151,64,184,138","w":549},"T":{"d":"574,-710v48,1,63,16,64,64r0,112r-115,0v-2,-27,9,-65,-22,-65r-109,0r0,599r-131,0r0,-599r-109,0v-31,-2,-20,38,-22,65r-115,0r0,-112v1,-48,16,-63,64,-64r495,0","w":653},"U":{"d":"371,12v-162,0,-280,-107,-280,-265r0,-324v2,-31,-38,-20,-65,-22r0,-111r128,0v48,0,68,21,68,68r0,385v-1,91,58,147,148,147v91,0,148,-56,148,-148r0,-384v0,-47,20,-68,68,-68r128,0r0,111v-27,2,-65,-9,-65,22r0,324v2,158,-117,265,-278,265","w":740},"V":{"d":"273,0r-213,-577v-7,-21,-23,-23,-49,-22r0,-111v46,2,110,-7,137,12v12,8,22,23,30,46r136,396v9,29,22,72,27,104r2,0v9,-43,18,-77,27,-104r136,-396v16,-43,28,-58,83,-58r84,0r0,111v-26,-1,-43,1,-50,22r-212,577r-138,0","w":684},"W":{"d":"214,0r-147,-577v-3,-21,-25,-23,-51,-22r0,-111v49,2,114,-7,144,12v14,8,24,24,29,46r97,423r12,75r2,0v3,-23,8,-48,15,-75r129,-479r111,0r122,479r14,75r2,0v2,-23,6,-48,12,-75r98,-423v10,-44,34,-57,87,-58r86,0r0,111v-26,-1,-46,1,-51,22r-148,577r-151,0r-108,-402v-8,-30,-14,-59,-18,-88r-2,0v-4,28,-10,57,-19,88r-113,402r-152,0","w":992},"X":{"d":"5,0r220,-360r-132,-215v-12,-20,-15,-23,-43,-24r-30,0r0,-111v46,2,107,-6,136,10v12,7,25,21,37,42r68,118r45,86r2,0v31,-74,73,-137,112,-204v22,-39,37,-52,92,-52r81,0r0,111v-19,0,-44,-1,-55,5v-6,3,-12,9,-18,19r-133,215r221,360r-147,0r-110,-187r-45,-83r-2,0v-44,94,-102,180,-152,270r-147,0","w":613},"Y":{"d":"242,0r0,-310r-168,-265v-13,-18,-15,-23,-41,-24r-23,0r0,-111v41,1,96,-4,122,10v13,7,25,21,38,42r94,156r43,80r2,0v39,-80,91,-160,136,-236v24,-40,37,-52,93,-52r67,0r0,111v-16,0,-38,-1,-47,5v-5,3,-10,9,-17,19r-168,265r0,310r-131,0","w":615},"Z":{"d":"567,-68v0,48,-20,68,-68,68r-482,0r0,-83r319,-452v19,-27,37,-48,54,-64r0,-2v-68,4,-153,2,-226,2v-31,0,-20,38,-22,65r-119,0r0,-108v0,-47,20,-68,68,-68r461,0r0,82r-319,453v-19,27,-37,49,-54,64r0,2v14,-1,32,-2,54,-2r194,0v31,2,20,-38,22,-65r118,0r0,108","w":588},"[":{"d":"160,95v-48,0,-68,-20,-68,-68r0,-700v0,-48,20,-68,68,-68r129,0r0,92r-67,0v-15,0,-22,7,-22,22r0,608v0,15,7,22,22,22r67,0r0,92r-129,0","w":352},"\\":{"d":"260,42r-255,-788r109,0r255,788r-109,0","w":364},"]":{"d":"260,27v0,48,-20,68,-68,68r-129,0r0,-92r66,0v15,0,22,-7,22,-22r0,-608v0,-15,-7,-22,-22,-22r-66,0r0,-92r129,0v48,0,68,20,68,68r0,700","w":352},"^":{"d":"65,-245r201,-465r80,0r201,465r-110,0r-131,-331r-131,331r-110,0"},"_":{"d":"5,0r561,0r0,98r-561,0r0,-98","w":571},"`":{"d":"176,-757r-104,-136r122,0r76,136r-94,0","w":399},"a":{"d":"267,2v-117,35,-234,-34,-234,-149v0,-85,59,-123,120,-147v55,-21,126,-26,199,-26v1,-72,-25,-104,-94,-104v-28,0,-69,7,-68,34r0,27r-118,0r0,-54v4,-88,99,-105,187,-105v147,0,220,68,220,203r0,190v-2,30,35,21,62,22r0,107r-114,0v-49,1,-71,-29,-64,-78v-5,1,-4,7,-7,10v-19,29,-47,58,-89,70xm238,-87v67,0,122,-73,116,-146r-22,0v-114,0,-171,27,-171,80v1,39,33,66,77,66","w":560},"b":{"d":"585,-255v0,150,-92,267,-234,267v-55,0,-115,-28,-137,-54r-15,-18r-2,0v2,16,2,40,2,60r-120,0r0,-580v2,-30,-35,-21,-62,-22r0,-108r121,0v45,0,68,23,68,68r0,148r-2,43r2,0v29,-40,82,-71,153,-71v142,-1,226,119,226,267xm330,-413v-81,0,-128,67,-128,161v0,81,46,159,127,157v78,-1,128,-71,128,-158v0,-88,-46,-160,-127,-160","w":618},"c":{"d":"308,12v-157,3,-276,-114,-276,-267v0,-178,161,-305,357,-257v46,11,107,48,107,105r0,60r-112,0r0,-28v0,-28,-43,-40,-73,-40v-88,-2,-151,70,-151,159v0,94,70,157,159,157v53,0,108,-26,151,-69r53,88v-45,49,-119,90,-215,92","w":538},"d":{"d":"259,12v-142,1,-227,-119,-227,-267v0,-149,91,-268,232,-267v68,0,118,20,147,62r2,0r-1,-120v2,-30,-35,-21,-62,-22r0,-108r121,0v45,0,68,23,68,68r0,513v-2,30,35,21,61,22r0,107r-117,0v-50,0,-67,-23,-63,-71r-2,0v-28,47,-82,83,-159,83xm161,-255v0,87,46,160,126,160v81,0,128,-67,128,-161v0,-81,-45,-158,-126,-157v-79,1,-128,70,-128,158","w":622},"e":{"d":"306,12v-157,4,-274,-117,-274,-267v0,-153,107,-267,259,-267v155,0,245,125,223,289r-352,0v6,106,119,166,225,123v35,-14,50,-24,71,-43r53,88v-45,41,-117,75,-205,77xm387,-321v0,-56,-41,-104,-96,-103v-69,0,-112,44,-125,103r221,0","w":557},"f":{"d":"83,-510v-6,-155,99,-217,251,-201r0,108v-7,-1,-16,-2,-26,-2v-70,0,-101,30,-98,95r109,0r0,101r-109,0r0,409r-127,0r0,-409r-63,0r0,-101r63,0","w":345},"g":{"d":"261,-10v-141,0,-229,-118,-229,-258v0,-142,84,-257,226,-254v74,0,129,28,157,72r2,0v-3,-39,18,-60,56,-60r118,0r0,108v-25,1,-61,-8,-61,20r0,351v-3,163,-109,241,-269,241v-65,0,-126,-15,-181,-44r39,-100v99,57,292,53,285,-91r1,-51r-2,0v-31,44,-78,66,-142,66xm161,-272v0,86,44,157,127,155v80,-2,119,-56,119,-150v0,-98,-42,-147,-127,-147v-79,0,-119,59,-119,142","w":612},"h":{"d":"433,-302v-1,-65,-18,-104,-81,-104v-70,0,-121,49,-138,106v-5,18,-8,40,-8,66r0,234r-127,0r0,-580v2,-30,-35,-21,-62,-22r0,-108r121,0v45,0,68,22,68,67r0,179r-2,43r2,0v26,-53,94,-101,175,-101v119,0,178,65,178,194r0,199v-2,30,35,21,62,22r0,107r-121,0v-47,0,-67,-20,-67,-68r0,-234","w":640},"i":{"d":"93,-593r0,-117r110,0r0,117r-110,0xm154,0v-47,0,-67,-20,-67,-68r0,-312v2,-30,-35,-21,-62,-22r0,-108r121,0v47,0,67,21,67,68r0,313v-2,30,35,21,62,22r0,107r-121,0","w":299},"j":{"d":"110,-593r0,-117r111,0r0,117r-111,0xm232,15v0,144,-105,204,-251,189r0,-107v70,9,124,-20,124,-92r0,-385v2,-30,-35,-21,-62,-22r0,-108r121,0v48,0,68,21,68,68r0,457","w":305},"k":{"d":"138,-710v48,1,67,10,68,58r0,322v35,0,73,2,86,-19r104,-161r141,0r-129,192v-11,16,-24,31,-38,40r0,2v12,5,24,18,36,40r58,110v9,21,44,20,76,19r0,107v-46,-2,-111,7,-143,-8v-11,-6,-21,-18,-31,-36r-85,-160v-9,-19,-43,-20,-75,-19r0,223r-127,0r0,-580v2,-30,-35,-21,-62,-22r0,-108r121,0","w":553},"l":{"d":"148,0v-48,0,-68,-20,-68,-68r0,-512v2,-30,-35,-21,-62,-22r0,-108r121,0v45,0,68,23,68,68r0,513v-2,30,35,21,61,22r0,107r-120,0","w":291},"m":{"d":"340,-406v-89,0,-131,88,-131,182r0,224r-126,0r0,-380v2,-30,-35,-21,-62,-22r0,-108r117,0v60,-2,73,36,66,94r2,0v24,-52,89,-106,165,-106v77,0,127,35,149,105r2,0v27,-55,94,-106,174,-105v111,0,167,65,167,194r0,199v-2,30,35,21,61,22r0,107r-120,0v-48,0,-68,-20,-68,-68r0,-236v-1,-62,-11,-102,-70,-102v-88,0,-129,85,-130,182r0,224r-127,0r0,-304v-2,-61,-9,-102,-69,-102","w":943},"n":{"d":"356,-406v-95,0,-147,72,-147,172r0,234r-126,0r0,-380v2,-30,-35,-21,-62,-22r0,-108r117,0v60,-2,74,38,65,94r2,0v29,-56,91,-106,180,-106v119,0,178,65,178,194r0,199v-2,30,35,21,62,22r0,107r-121,0v-48,0,-68,-20,-68,-68r0,-234v-1,-65,-17,-104,-80,-104","w":643},"o":{"d":"311,12v-153,0,-279,-115,-279,-267v0,-153,126,-267,279,-267v153,0,280,115,280,267v0,153,-126,267,-280,267xm311,-414v-84,0,-151,72,-151,159v0,89,66,159,151,159v86,0,152,-70,152,-159v0,-88,-68,-159,-152,-159","w":623},"p":{"d":"355,12v-68,-1,-117,-29,-146,-67r-2,0v5,79,1,172,2,255r-126,0r0,-580v2,-30,-35,-21,-62,-22r0,-108r113,0v51,0,68,22,64,69v5,-1,5,-6,8,-9v29,-40,84,-72,156,-72v142,-1,227,119,227,267v0,149,-93,268,-234,267xm334,-413v-81,0,-128,67,-128,161v0,81,45,158,126,157v79,-1,129,-70,129,-158v0,-88,-46,-160,-127,-160","w":621},"q":{"d":"317,4v-173,42,-284,-92,-284,-259v0,-149,90,-268,231,-267v71,0,126,26,158,75r2,0v-4,-45,13,-62,65,-63r112,0r0,108v-27,1,-62,-8,-62,22r0,580r-127,0r0,-216r2,-44v-5,0,-5,6,-8,8v-20,24,-50,46,-89,56xm161,-255v0,88,46,160,127,160v81,0,128,-67,128,-161v0,-81,-46,-159,-127,-157v-78,1,-128,71,-128,158","w":622},"r":{"d":"390,-390v-120,-15,-181,70,-181,188r0,202r-126,0r0,-380v2,-30,-35,-21,-62,-22r0,-108r116,0v71,-4,73,57,66,124r2,0v23,-73,88,-142,185,-129r0,125","w":412},"s":{"d":"433,-144v2,99,-92,156,-196,156v-73,0,-157,-36,-190,-68r-22,-23r60,-83v25,31,92,74,152,75v38,0,69,-14,69,-50v0,-13,-10,-24,-28,-35v-88,-52,-236,-66,-241,-201v-5,-141,188,-177,313,-127v33,13,64,41,64,84r0,53r-112,0r0,-25v0,-25,-37,-36,-64,-36v-40,0,-75,12,-76,46v0,15,9,27,28,38v89,51,240,60,243,196","w":468},"t":{"d":"336,2v-145,15,-251,-44,-251,-189r0,-222r-66,0r0,-101r69,0r0,-139r124,0r0,139r116,0r0,101r-116,0r0,206v-3,75,55,102,124,94r0,111","w":370},"u":{"d":"433,-94v-25,56,-93,106,-176,106v-117,0,-176,-65,-176,-194r0,-198v2,-30,-35,-21,-62,-22r0,-108r121,0v47,0,67,20,67,67r0,235v1,64,17,104,79,104v90,2,143,-81,143,-172r0,-234r127,0r0,381v-2,30,35,21,62,22r0,107r-117,0v-60,2,-73,-36,-66,-94r-2,0","w":638},"v":{"d":"197,0r-146,-384v-6,-15,-19,-19,-39,-18r0,-108v42,2,96,-6,121,11v11,7,20,20,27,37r96,268r19,73r2,0v5,-29,11,-53,18,-73r96,-268v13,-33,31,-48,75,-48r68,0r0,108v-21,-1,-34,2,-40,18r-146,384r-151,0","w":545},"w":{"d":"174,0r-122,-384v-5,-16,-21,-19,-42,-18r0,-108v46,2,108,-7,136,12v11,8,18,21,23,40r75,283r10,54r2,0v3,-18,7,-36,12,-54r94,-333r112,0r95,333r11,54r2,0v2,-18,5,-36,10,-54r74,-283v9,-38,27,-51,72,-52r87,0r0,108v-21,-1,-36,1,-42,18r-122,384r-143,0r-87,-291r-12,-55r-2,0v-28,120,-67,230,-99,346r-144,0","w":835},"x":{"d":"11,0r166,-258r-84,-127v-11,-20,-45,-17,-76,-17r0,-108v46,2,108,-6,138,10v11,6,23,19,34,38r50,84r16,33r2,0v20,-45,42,-77,66,-117v21,-36,32,-48,83,-48r88,0r0,108v-31,0,-62,-2,-75,17r-85,127r167,258r-141,0r-89,-142r-14,-27r-2,0v-5,11,-10,20,-15,27r-88,142r-141,0","w":512},"y":{"d":"50,68v49,56,131,45,157,-30r17,-39r-170,-383v-6,-17,-20,-19,-42,-18r0,-108v43,2,100,-8,126,11v10,7,18,20,25,37r100,255r18,68r2,0v5,-28,11,-51,17,-68r87,-255v11,-32,33,-48,68,-48r86,0r0,108v-22,-1,-38,1,-44,18r-183,461v-29,77,-91,131,-184,133v-51,0,-95,-18,-129,-52","w":553},"z":{"d":"490,-68v0,48,-20,68,-67,68r-396,0r0,-68r256,-312v10,-12,17,-12,22,-24v-36,4,-97,2,-139,2v-26,0,-22,27,-22,51r-115,0r0,-91v0,-47,20,-68,68,-68r374,0r0,69r-235,287r-43,47r0,2v42,-6,111,-3,160,-3v26,0,22,-26,22,-50r115,0r0,90","w":511},"{":{"d":"317,97v-125,12,-209,-44,-208,-168r0,-97v0,-61,-30,-96,-85,-104r0,-111v53,-7,85,-44,85,-106r0,-86v1,-124,80,-177,208,-168r0,94v-62,-9,-100,24,-100,84r0,109v1,61,-29,106,-82,127r0,2v48,16,81,60,82,126r0,120v-1,62,38,90,100,84r0,94","w":352},"|":{"d":"102,161r0,-957r108,0r0,957r-108,0","w":312},"}":{"d":"243,-71v0,124,-82,180,-208,168r0,-94v63,7,99,-21,99,-84v0,-76,-11,-168,30,-209v16,-16,31,-31,53,-37r0,-2v-46,-18,-82,-61,-83,-127r0,-109v1,-62,-37,-90,-99,-84r0,-94v127,-9,208,44,208,168v0,59,-8,124,21,157v22,24,34,31,64,35r0,111v-52,6,-85,43,-85,104r0,97","w":352},"~":{"d":"219,-285v-44,0,-62,41,-62,86r-101,0v0,-121,51,-182,154,-182v44,-1,84,22,104,45v18,19,46,46,80,46v44,0,62,-42,62,-87r100,0v0,121,-51,182,-153,182v-44,0,-84,-23,-105,-45v-18,-19,-46,-45,-79,-45"},"\u00a0":{"w":265},"\u00a1":{"d":"105,-391r0,-118r122,0r0,118r-122,0xm100,200r11,-504r111,0r10,504r-132,0","w":332},"\u00a2":{"d":"536,-235v-30,76,-92,151,-185,161r0,111r-89,0r0,-111v-122,-19,-207,-138,-207,-281v0,-143,85,-264,207,-282r0,-109r89,0r0,109v90,16,157,81,185,162r-114,44v-23,-59,-61,-89,-112,-89v-80,0,-127,79,-127,165v0,91,43,164,127,165v52,0,89,-30,112,-89","w":585},"\u00a3":{"d":"544,-68v0,48,-20,68,-67,68r-430,0r0,-111r58,0r0,-200r-44,0r0,-87r44,0r0,-121v-4,-151,170,-245,321,-185v43,17,59,31,85,54r-73,88v-31,-29,-66,-43,-103,-43v-55,-1,-100,37,-99,90r0,117r177,0r0,87r-177,0r0,200r168,0v31,2,20,-38,22,-65r118,0r0,108","w":586},"\u00a5":{"d":"85,-194r0,-76r160,0r0,-40r-27,-42r-134,0r0,-76r84,0r0,-2r-92,-147v-11,-23,-30,-22,-63,-22r0,-111v42,1,94,-4,121,10v14,7,27,21,40,42r93,156r43,78r2,0v40,-77,91,-159,136,-234v23,-39,39,-52,95,-52r65,0r0,111v-16,0,-37,-1,-46,4v-5,3,-11,9,-17,18r-92,147r0,2r82,0r0,76r-132,0r-27,42r0,40r159,0r0,76r-159,0r0,194r-131,0r0,-194r-160,0","w":621},"\u00a7":{"d":"395,-579v-62,-60,-217,-57,-212,55v0,15,3,32,7,50r69,336r-99,0r-73,-344v-34,-143,59,-242,198,-240v68,1,135,28,167,62xm426,-178v34,144,-59,240,-198,240v-69,0,-133,-29,-167,-61r54,-86v20,22,71,44,113,44v61,0,105,-37,103,-101v0,-16,-4,-35,-9,-57r-67,-323r100,0","w":503},"\u00a8":{"d":"306,-777r0,-116r89,0r0,116r-89,0xm127,-777r0,-116r88,0r0,116r-88,0","w":509},"\u00a9":{"d":"389,12v-194,0,-357,-172,-357,-367v0,-196,163,-366,357,-366v196,0,360,170,360,366v0,196,-164,367,-360,367xm389,-640v-150,0,-268,132,-268,285v0,153,118,286,268,286v152,0,272,-132,272,-286v0,-154,-120,-285,-272,-285xm458,-170v-132,47,-251,-57,-251,-183v0,-105,81,-195,187,-195v73,0,132,40,162,105r-76,36v-15,-29,-40,-56,-83,-58v-59,-1,-98,51,-98,112v0,80,75,141,145,97v21,-13,27,-24,36,-43r76,35v-20,40,-49,77,-98,94","w":781},"\u00aa":{"d":"248,-433v-12,24,-51,50,-90,50v-59,1,-112,-41,-109,-102v5,-91,97,-106,193,-106v-2,-39,-11,-55,-49,-55v-31,0,-36,5,-34,30r-86,0r0,-42v4,-52,67,-62,120,-62v93,0,140,44,140,131r0,108v-1,18,22,11,37,12r0,80r-68,0v-34,0,-51,-14,-52,-44r-2,0xm142,-489v0,44,64,41,82,12v10,-16,17,-33,19,-55v-59,-2,-101,12,-101,43xm50,-266r0,-68r322,0r0,68r-322,0","w":416},"\u00ab":{"d":"270,-282r164,-206r121,0r-164,206r164,205r-121,0xm210,-77r-164,-205r164,-206r121,0r-164,206r164,205r-121,0","w":614},"\u00ac":{"d":"66,-339r0,-98r488,0r0,294r-102,0r0,-196r-386,0"},"\u00ad":{"d":"65,-230r0,-111r301,0r0,111r-301,0","w":431},"\u00ae":{"d":"389,12v-194,0,-357,-172,-357,-367v0,-196,163,-366,357,-366v196,0,360,170,360,366v0,196,-164,367,-360,367xm389,-640v-150,0,-268,132,-268,285v0,153,118,286,268,286v152,0,272,-132,272,-286v0,-154,-120,-285,-272,-285xm536,-424v0,48,-31,86,-65,95r0,2v9,2,16,9,23,20r32,60v6,11,17,13,33,12r0,61v-26,-1,-63,3,-80,-6v-7,-4,-14,-10,-20,-21r-49,-92v-8,-18,-35,-16,-61,-16r0,135r-85,0r0,-304r-32,0r0,-62r184,0v70,-1,120,47,120,116xm449,-424v0,-34,-19,-54,-52,-54r-48,0r0,109r47,0v34,0,53,-21,53,-55","w":781},"\u00af":{"d":"104,-783r0,-84r262,0r0,84r-262,0","w":467},"\u02c9":{"d":"104,-783r0,-84r262,0r0,84r-262,0","w":467},"\u00b0":{"d":"368,-565v0,87,-76,157,-163,157v-87,0,-163,-70,-163,-157v0,-86,76,-158,163,-158v86,0,163,73,163,158xm139,-565v0,36,30,66,66,66v36,0,67,-30,67,-66v0,-35,-31,-66,-67,-66v-36,0,-66,31,-66,66","w":410},"\u00b1":{"d":"42,-236r0,-99r216,0r0,-237r103,0r0,237r216,0r0,99r-216,0r0,236r-103,0r0,-236r-216,0xm56,85r508,0r0,98r-508,0r0,-98"},"\u00b2":{"d":"208,-718v81,0,148,51,148,132v0,69,-47,108,-86,134v-22,15,-84,45,-102,62v-12,10,-18,21,-18,34v0,4,4,6,11,6r120,0v4,0,6,-2,6,-6r0,-33r88,0r0,73v0,33,-16,49,-49,49r-224,0v-45,-2,-49,-17,-50,-68v-3,-67,42,-104,78,-131v26,-19,88,-50,108,-70v14,-14,21,-29,21,-48v0,-29,-22,-47,-52,-47v-23,0,-47,11,-48,30r0,22r-88,0r0,-50v-3,-59,80,-89,137,-89","w":437},"\u00b3":{"d":"379,-403v0,84,-76,144,-160,144v-60,0,-122,-35,-165,-89r66,-59v16,24,58,58,98,59v34,1,65,-23,64,-57v-1,-46,-50,-58,-103,-53r-13,-53v31,-39,57,-83,92,-118r0,-2v-27,4,-58,1,-87,2v-14,0,-7,21,-9,33r-88,0r0,-65v1,-36,11,-49,48,-49r246,0r0,65r-92,114v56,10,103,65,103,128","w":437},"\u00b4":{"d":"123,-757r76,-136r122,0r-105,136r-93,0","w":404},"\u00b5":{"d":"375,-25v-34,30,-145,56,-190,16r-2,0v11,73,6,132,7,209r-109,0r0,-580v2,-30,-35,-21,-62,-22r0,-108r121,0v47,0,67,20,67,67r0,235v1,64,17,104,79,104v90,2,143,-81,143,-172r0,-234r127,0r0,381v-2,30,35,21,62,22r0,107r-117,0v-60,2,-73,-36,-66,-94v-7,0,-6,8,-9,12v-8,15,-35,44,-51,57","w":638},"\u03bc":{"d":"375,-25v-34,30,-145,56,-190,16r-2,0v11,73,6,132,7,209r-109,0r0,-580v2,-30,-35,-21,-62,-22r0,-108r121,0v47,0,67,20,67,67r0,235v1,64,17,104,79,104v90,2,143,-81,143,-172r0,-234r127,0r0,381v-2,30,35,21,62,22r0,107r-117,0v-60,2,-73,-36,-66,-94v-7,0,-6,8,-9,12v-8,15,-35,44,-51,57","w":638},"\u00b6":{"d":"39,-476v0,-127,109,-234,235,-234r305,0r0,111r-213,0r0,649r-92,0r0,-291v-126,3,-235,-108,-235,-235xm428,50r0,-594r93,0r0,594r-93,0","w":625},"\u00b7":{"d":"71,-229r0,-126r123,0r0,126r-123,0","w":265},"\u2219":{"d":"71,-229r0,-126r123,0r0,126r-123,0","w":265},"\u00b8":{"d":"283,120v0,84,-94,99,-170,81r0,-70v28,12,90,14,87,-20v4,-24,-39,-30,-69,-25r31,-111r58,13v-1,21,-7,37,-10,56v41,5,73,31,73,76","w":420},"\u00b9":{"d":"72,-267r0,-83r92,0r1,-236r-2,0v-11,20,-30,31,-45,47r-56,-61r115,-110r83,0r0,360r91,0r0,83r-279,0","w":437},"\u00ba":{"d":"403,-553v0,96,-80,169,-176,169v-95,0,-175,-74,-175,-169v0,-94,81,-167,175,-167v95,0,176,72,176,167xm143,-553v0,49,37,89,84,89v48,0,85,-39,85,-89v0,-49,-37,-88,-85,-88v-47,0,-84,40,-84,88xm67,-266r0,-68r322,0r0,68r-322,0","w":455},"\u00bb":{"d":"283,-77r164,-205r-164,-206r121,0r164,206r-164,205r-121,0xm58,-77r164,-205r-164,-206r121,0r164,206r-164,205r-121,0","w":614},"\u00bc":{"d":"300,0r277,-710r99,0r-277,710r-99,0xm77,-267r0,-83r92,0r1,-236r-2,0v-11,20,-30,31,-45,47r-56,-61r114,-110r83,0r0,360r87,0r0,83r-274,0xm538,-108r0,-56r175,-280r115,0r0,252r65,0r0,84r-65,0r0,108r-96,0r0,-108r-194,0xm635,-191v33,-2,65,0,99,-1r1,-153r-2,0v-23,50,-57,89,-84,135v-4,7,-11,11,-14,19","w":943},"\u00bd":{"d":"288,0r277,-710r98,0r-277,710r-98,0xm77,-267r0,-83r92,0r1,-236r-2,0v-11,20,-30,31,-45,47r-56,-61r114,-110r83,0r0,360r87,0r0,83r-274,0xm618,0v-46,-1,-51,-18,-51,-69v0,-111,99,-138,166,-184v17,-12,42,-37,42,-65v0,-29,-23,-46,-53,-46v-23,0,-47,10,-47,29r0,23r-88,0r0,-50v-3,-58,80,-90,137,-90v80,0,148,52,148,133v0,69,-47,107,-86,133v-22,15,-84,45,-102,62v-12,11,-18,22,-18,35v0,4,4,6,11,6r119,0v4,0,6,-2,6,-7r0,-32r89,0r0,73v0,33,-17,49,-50,49r-223,0","w":943},"\u00be":{"d":"297,0r277,-710r98,0r-276,710r-99,0xm382,-403v0,115,-142,180,-245,121v-39,-23,-56,-38,-79,-66r65,-59v16,24,58,58,98,59v34,1,65,-23,64,-57v-1,-46,-50,-58,-103,-53r-13,-53v31,-39,57,-83,92,-118r0,-2v-27,4,-58,1,-87,2v-14,0,-7,21,-9,33r-88,0r0,-65v1,-36,11,-49,48,-49r246,0r0,65r-92,114v56,10,103,65,103,128xm538,-108r0,-56r175,-280r115,0r0,252r65,0r0,84r-65,0r0,108r-96,0r0,-108r-194,0xm635,-191v33,-2,65,0,99,-1r1,-153r-2,0v-23,50,-57,89,-84,135v-4,7,-11,11,-14,19","w":943},"\u00bf":{"d":"208,-392r0,-118r122,0r0,118r-122,0xm252,210v-114,0,-221,-73,-219,-188v2,-95,61,-145,113,-189v29,-25,61,-56,62,-103r0,-35r122,0v1,47,0,83,-17,117v-31,63,-93,90,-130,145v-11,17,-17,34,-17,53v0,66,82,104,148,73v25,-12,38,-18,55,-32r71,88v-31,35,-115,71,-188,71","w":476},"\u00c0":{"d":"11,0r0,-111v25,1,40,-2,47,-22r211,-577r137,0r210,577v6,20,22,23,47,22r0,111v-45,-2,-107,6,-133,-12v-12,-8,-21,-23,-29,-46r-44,-124r-240,0r-44,124v-16,43,-28,58,-83,58r-79,0xm247,-290r180,0r-61,-178r-28,-106r-2,0v-25,115,-57,184,-89,284xm288,-757r-104,-136r122,0r76,136r-94,0","w":674},"\u00c1":{"d":"11,0r0,-111v25,1,40,-2,47,-22r211,-577r137,0r210,577v6,20,22,23,47,22r0,111v-45,-2,-107,6,-133,-12v-12,-8,-21,-23,-29,-46r-44,-124r-240,0r-44,124v-16,43,-28,58,-83,58r-79,0xm247,-290r180,0r-61,-178r-28,-106r-2,0v-25,115,-57,184,-89,284xm288,-757r76,-136r122,0r-105,136r-93,0","w":674},"\u00c2":{"d":"11,0r0,-111v25,1,40,-2,47,-22r211,-577r137,0r210,577v6,20,22,23,47,22r0,111v-45,-2,-107,6,-133,-12v-12,-8,-21,-23,-29,-46r-44,-124r-240,0r-44,124v-16,43,-28,58,-83,58r-79,0xm247,-290r180,0r-61,-178r-28,-106r-2,0v-25,115,-57,184,-89,284xm192,-757r91,-136r109,0r92,136r-95,0r-50,-81r-2,0r-51,81r-94,0","w":674},"\u00c3":{"d":"11,0r0,-111v25,1,40,-2,47,-22r211,-577r137,0r210,577v6,20,22,23,47,22r0,111v-45,-2,-107,6,-133,-12v-12,-8,-21,-23,-29,-46r-44,-124r-240,0r-44,124v-16,43,-28,58,-83,58r-79,0xm247,-290r180,0r-61,-178r-28,-106r-2,0v-25,115,-57,184,-89,284xm276,-820v-29,0,-41,30,-41,62r-79,0v0,-91,38,-137,114,-137v42,0,71,30,94,49v12,11,23,16,34,16v29,0,41,-31,41,-62r79,0v0,91,-38,137,-114,137v-42,0,-71,-30,-94,-49v-12,-11,-23,-16,-34,-16","w":674},"\u00c4":{"d":"11,0r0,-111v25,1,40,-2,47,-22r211,-577r137,0r210,577v6,20,22,23,47,22r0,111v-45,-2,-107,6,-133,-12v-12,-8,-21,-23,-29,-46r-44,-124r-240,0r-44,124v-16,43,-28,58,-83,58r-79,0xm247,-290r180,0r-61,-178r-28,-106r-2,0v-25,115,-57,184,-89,284xm383,-777r0,-116r89,0r0,116r-89,0xm204,-777r0,-116r88,0r0,116r-88,0","w":674},"\u00c5":{"d":"11,0r0,-111v25,1,40,-2,47,-22r211,-577r137,0r210,577v6,20,22,23,47,22r0,111v-45,-2,-107,6,-133,-12v-12,-8,-21,-23,-29,-46r-44,-124r-240,0r-44,124v-16,43,-28,58,-83,58r-79,0xm247,-290r180,0r-61,-178r-28,-106r-2,0v-25,115,-57,184,-89,284xm426,-823v0,47,-43,78,-89,78v-47,0,-89,-31,-89,-78v0,-49,42,-79,89,-79v47,0,89,31,89,79xm302,-823v0,20,15,34,35,34v20,0,35,-14,35,-34v1,-21,-15,-35,-35,-35v-20,0,-36,14,-35,35","w":674},"\u00c6":{"d":"487,0v-52,-1,-71,-16,-72,-68r0,-234r-159,0r-91,244v-18,43,-29,58,-84,58r-70,0r0,-111v26,1,37,-2,45,-22r237,-577r483,0v48,0,68,21,68,68r0,108r-119,0v-2,-27,9,-65,-22,-65r-156,0r0,186r227,0r0,111r-227,0r0,169v0,15,8,22,25,22r158,0v31,2,20,-38,22,-65r118,0r0,108v0,48,-20,68,-68,68r-315,0xm298,-413r117,0r0,-186r-47,0","w":891},"\u00c7":{"d":"342,9v-181,-16,-312,-173,-312,-370v0,-226,194,-405,441,-353v86,18,184,52,188,151r0,79r-119,0r0,-40v0,-54,-88,-76,-147,-76v-133,0,-227,101,-227,239v0,157,131,289,302,241v62,-17,106,-47,144,-83r69,93v-58,64,-154,116,-275,121r-7,33v41,5,73,31,73,76v0,84,-93,99,-169,81r0,-70v28,13,90,13,87,-20v4,-24,-39,-30,-69,-25","w":709},"\u00c8":{"d":"167,0v-48,0,-68,-20,-68,-68r0,-531r-65,0r0,-111r429,0v45,0,68,23,68,68r0,108r-119,0v-2,-27,9,-65,-22,-65r-160,0r0,186r230,0r0,111r-230,0r0,169v0,15,7,22,22,22r164,0v31,2,20,-38,22,-65r119,0r0,108v0,48,-21,68,-68,68r-322,0xm248,-757r-104,-136r122,0r76,136r-94,0","w":578},"\u00c9":{"d":"167,0v-48,0,-68,-20,-68,-68r0,-531r-65,0r0,-111r429,0v45,0,68,23,68,68r0,108r-119,0v-2,-27,9,-65,-22,-65r-160,0r0,186r230,0r0,111r-230,0r0,169v0,15,7,22,22,22r164,0v31,2,20,-38,22,-65r119,0r0,108v0,48,-21,68,-68,68r-322,0xm248,-757r76,-136r122,0r-105,136r-93,0","w":578},"\u00ca":{"d":"167,0v-48,0,-68,-20,-68,-68r0,-531r-65,0r0,-111r429,0v45,0,68,23,68,68r0,108r-119,0v-2,-27,9,-65,-22,-65r-160,0r0,186r230,0r0,111r-230,0r0,169v0,15,7,22,22,22r164,0v31,2,20,-38,22,-65r119,0r0,108v0,48,-21,68,-68,68r-322,0xm151,-757r91,-136r109,0r92,136r-95,0r-50,-81r-2,0r-51,81r-94,0","w":578},"\u00cb":{"d":"167,0v-48,0,-68,-20,-68,-68r0,-531r-65,0r0,-111r429,0v45,0,68,23,68,68r0,108r-119,0v-2,-27,9,-65,-22,-65r-160,0r0,186r230,0r0,111r-230,0r0,169v0,15,7,22,22,22r164,0v31,2,20,-38,22,-65r119,0r0,108v0,48,-21,68,-68,68r-322,0xm343,-777r0,-116r89,0r0,116r-89,0xm164,-777r0,-116r88,0r0,116r-88,0","w":578},"\u00cc":{"d":"38,0r0,-111r71,0r0,-488r-71,0r0,-111r266,0r0,111r-71,0r0,488r71,0r0,111r-266,0xm122,-757r-104,-136r122,0r76,136r-94,0","w":342},"\u00cd":{"d":"38,0r0,-111r71,0r0,-488r-71,0r0,-111r266,0r0,111r-71,0r0,488r71,0r0,111r-266,0xm122,-757r76,-136r122,0r-105,136r-93,0","w":342},"\u00ce":{"d":"38,0r0,-111r71,0r0,-488r-71,0r0,-111r266,0r0,111r-71,0r0,488r71,0r0,111r-266,0xm25,-757r91,-136r109,0r92,136r-95,0r-50,-81r-2,0r-51,81r-94,0","w":342},"\u00cf":{"d":"38,0r0,-111r71,0r0,-488r-71,0r0,-111r266,0r0,111r-71,0r0,488r71,0r0,111r-266,0xm216,-777r0,-116r89,0r0,116r-89,0xm37,-777r0,-116r88,0r0,116r-88,0","w":342},"\u00d0":{"d":"167,0v-48,0,-68,-20,-68,-68r0,-233r-48,0r0,-105r48,0r0,-193r-65,0r0,-111r289,0v219,-2,362,135,362,354v0,219,-143,358,-362,356r-156,0xm549,-356v0,-150,-88,-243,-233,-243r-86,0r0,193r123,0r0,105r-123,0r0,168v0,36,54,21,86,22v147,4,233,-93,233,-245","w":715},"\u00d1":{"d":"230,-68v0,48,-20,68,-68,68r-128,0r0,-111v27,-2,65,9,65,-22r0,-577r118,0r269,393v19,27,38,61,59,100r2,0v-15,-139,-7,-278,-7,-425v0,-47,20,-68,68,-68r128,0r0,111v-27,2,-65,-9,-65,22r0,577r-117,0r-270,-392v-19,-27,-38,-60,-59,-100r-2,0v15,139,7,278,7,424xm332,-820v-29,0,-41,30,-41,62r-79,0v0,-91,38,-137,114,-137v42,0,71,30,94,49v12,11,23,16,34,16v29,0,41,-31,41,-62r79,0v0,91,-38,137,-114,137v-42,0,-71,-30,-94,-49v-12,-11,-23,-16,-34,-16","w":770},"\u00d2":{"d":"397,12v-204,0,-367,-168,-367,-372v0,-200,165,-362,367,-362v202,0,367,162,367,362v0,204,-163,372,-367,372xm397,-600v-128,0,-231,111,-231,240v0,134,101,250,231,250v130,0,231,-116,231,-250v0,-130,-103,-240,-231,-240xm346,-757r-104,-136r122,0r76,136r-94,0","w":794},"\u00d3":{"d":"397,12v-204,0,-367,-168,-367,-372v0,-200,165,-362,367,-362v202,0,367,162,367,362v0,204,-163,372,-367,372xm397,-600v-128,0,-231,111,-231,240v0,134,101,250,231,250v130,0,231,-116,231,-250v0,-130,-103,-240,-231,-240xm346,-757r76,-136r122,0r-105,136r-93,0","w":794},"\u00d4":{"d":"397,12v-204,0,-367,-168,-367,-372v0,-200,165,-362,367,-362v202,0,367,162,367,362v0,204,-163,372,-367,372xm397,-600v-128,0,-231,111,-231,240v0,134,101,250,231,250v130,0,231,-116,231,-250v0,-130,-103,-240,-231,-240xm249,-757r91,-136r109,0r92,136r-95,0r-50,-81r-2,0r-51,81r-94,0","w":794},"\u00d5":{"d":"397,12v-204,0,-367,-168,-367,-372v0,-200,165,-362,367,-362v202,0,367,162,367,362v0,204,-163,372,-367,372xm397,-600v-128,0,-231,111,-231,240v0,134,101,250,231,250v130,0,231,-116,231,-250v0,-130,-103,-240,-231,-240xm333,-820v-29,0,-41,30,-41,62r-79,0v0,-91,38,-137,114,-137v40,0,71,30,93,49v12,11,24,16,35,16v29,0,41,-31,41,-62r79,0v0,91,-38,137,-114,137v-40,0,-71,-30,-93,-49v-12,-11,-24,-16,-35,-16","w":794},"\u00d6":{"d":"397,12v-204,0,-367,-168,-367,-372v0,-200,165,-362,367,-362v202,0,367,162,367,362v0,204,-163,372,-367,372xm397,-600v-128,0,-231,111,-231,240v0,134,101,250,231,250v130,0,231,-116,231,-250v0,-130,-103,-240,-231,-240xm440,-777r0,-116r89,0r0,116r-89,0xm261,-777r0,-116r88,0r0,116r-88,0","w":794},"\u00d7":{"d":"46,-69r197,-217r-197,-216r69,-70r195,214r195,-214r69,70r-198,216r198,217r-69,69r-195,-214r-195,214"},"\u00d8":{"d":"765,-360v4,204,-163,372,-367,372v-68,0,-130,-16,-186,-49r-46,63r-57,-39r45,-64v-82,-73,-123,-168,-123,-283v0,-200,165,-362,367,-362v67,0,129,16,186,49r46,-63r57,39r-46,63v69,61,122,154,124,274xm398,-600v-128,-3,-231,111,-231,240v0,69,22,128,66,175r277,-385v-35,-20,-72,-30,-112,-30xm398,-110v129,2,230,-117,230,-250v0,-65,-22,-120,-65,-165r-277,385v33,20,71,30,112,30","w":795},"\u00d9":{"d":"371,12v-162,0,-280,-107,-280,-265r0,-324v2,-31,-38,-20,-65,-22r0,-111r128,0v48,0,68,21,68,68r0,385v-1,91,58,147,148,147v91,0,148,-56,148,-148r0,-384v0,-47,20,-68,68,-68r128,0r0,111v-27,2,-65,-9,-65,22r0,324v2,158,-117,265,-278,265xm322,-757r-104,-136r122,0r76,136r-94,0","w":740},"\u00da":{"d":"371,12v-162,0,-280,-107,-280,-265r0,-324v2,-31,-38,-20,-65,-22r0,-111r128,0v48,0,68,21,68,68r0,385v-1,91,58,147,148,147v91,0,148,-56,148,-148r0,-384v0,-47,20,-68,68,-68r128,0r0,111v-27,2,-65,-9,-65,22r0,324v2,158,-117,265,-278,265xm322,-757r76,-136r122,0r-105,136r-93,0","w":740},"\u00db":{"d":"371,12v-162,0,-280,-107,-280,-265r0,-324v2,-31,-38,-20,-65,-22r0,-111r128,0v48,0,68,21,68,68r0,385v-1,91,58,147,148,147v91,0,148,-56,148,-148r0,-384v0,-47,20,-68,68,-68r128,0r0,111v-27,2,-65,-9,-65,22r0,324v2,158,-117,265,-278,265xm225,-757r91,-136r109,0r92,136r-95,0r-50,-81r-2,0r-51,81r-94,0","w":740},"\u00dc":{"d":"371,12v-162,0,-280,-107,-280,-265r0,-324v2,-31,-38,-20,-65,-22r0,-111r128,0v48,0,68,21,68,68r0,385v-1,91,58,147,148,147v91,0,148,-56,148,-148r0,-384v0,-47,20,-68,68,-68r128,0r0,111v-27,2,-65,-9,-65,22r0,324v2,158,-117,265,-278,265xm416,-777r0,-116r89,0r0,116r-89,0xm237,-777r0,-116r88,0r0,116r-88,0","w":740},"\u00dd":{"d":"242,0r0,-310r-168,-265v-13,-18,-15,-23,-41,-24r-23,0r0,-111v41,1,96,-4,122,10v13,7,25,21,38,42r94,156r43,80r2,0v39,-80,91,-160,136,-236v24,-40,37,-52,93,-52r67,0r0,111v-16,0,-38,-1,-47,5v-5,3,-10,9,-17,19r-168,265r0,310r-131,0xm259,-757r76,-136r122,0r-105,136r-93,0","w":615},"\u00de":{"d":"585,-364v0,134,-94,235,-227,233r-128,0r0,131r-131,0r0,-577v2,-31,-38,-20,-65,-22r0,-111r128,0v48,0,68,21,68,68r0,47r129,0v132,-2,226,97,226,231xm451,-364v0,-73,-42,-121,-114,-120r-107,0r0,242r105,0v73,1,116,-49,116,-122","w":610},"\u00df":{"d":"202,-68v0,48,-20,68,-68,68r-116,0r0,-107v26,-1,57,7,57,-22r0,-400v-3,-121,111,-193,231,-193v107,0,207,72,207,174v0,40,-24,79,-45,98v-25,24,-67,70,-28,108v55,53,143,87,145,193v2,102,-81,162,-180,161v-62,-1,-111,-15,-148,-42r29,-98v31,21,64,32,100,32v73,0,91,-67,46,-108v-50,-46,-137,-78,-137,-168v0,-72,90,-107,90,-174v0,-41,-37,-69,-83,-68v-56,1,-100,35,-100,94r0,452","w":598},"\u00e0":{"d":"267,2v-117,35,-234,-34,-234,-149v0,-85,59,-123,120,-147v55,-21,126,-26,199,-26v1,-72,-25,-104,-94,-104v-28,0,-69,7,-68,34r0,27r-118,0r0,-54v4,-88,99,-105,187,-105v147,0,220,68,220,203r0,190v-2,30,35,21,62,22r0,107r-114,0v-49,1,-71,-29,-64,-78v-5,1,-4,7,-7,10v-19,29,-47,58,-89,70xm238,-87v67,0,122,-73,116,-146r-22,0v-114,0,-171,27,-171,80v1,39,33,66,77,66xm222,-573r-104,-136r122,0r76,136r-94,0","w":560},"\u00e1":{"d":"267,2v-117,35,-234,-34,-234,-149v0,-85,59,-123,120,-147v55,-21,126,-26,199,-26v1,-72,-25,-104,-94,-104v-28,0,-69,7,-68,34r0,27r-118,0r0,-54v4,-88,99,-105,187,-105v147,0,220,68,220,203r0,190v-2,30,35,21,62,22r0,107r-114,0v-49,1,-71,-29,-64,-78v-5,1,-4,7,-7,10v-19,29,-47,58,-89,70xm238,-87v67,0,122,-73,116,-146r-22,0v-114,0,-171,27,-171,80v1,39,33,66,77,66xm222,-573r76,-136r122,0r-105,136r-93,0","w":560},"\u00e2":{"d":"267,2v-117,35,-234,-34,-234,-149v0,-85,59,-123,120,-147v55,-21,126,-26,199,-26v1,-72,-25,-104,-94,-104v-28,0,-69,7,-68,34r0,27r-118,0r0,-54v4,-88,99,-105,187,-105v147,0,220,68,220,203r0,190v-2,30,35,21,62,22r0,107r-114,0v-49,1,-71,-29,-64,-78v-5,1,-4,7,-7,10v-19,29,-47,58,-89,70xm238,-87v67,0,122,-73,116,-146r-22,0v-114,0,-171,27,-171,80v1,39,33,66,77,66xm126,-573r91,-136r109,0r92,136r-95,0r-50,-81r-2,0r-51,81r-94,0","w":560},"\u00e3":{"d":"267,2v-117,35,-234,-34,-234,-149v0,-85,59,-123,120,-147v55,-21,126,-26,199,-26v1,-72,-25,-104,-94,-104v-28,0,-69,7,-68,34r0,27r-118,0r0,-54v4,-88,99,-105,187,-105v147,0,220,68,220,203r0,190v-2,30,35,21,62,22r0,107r-114,0v-49,1,-71,-29,-64,-78v-5,1,-4,7,-7,10v-19,29,-47,58,-89,70xm238,-87v67,0,122,-73,116,-146r-22,0v-114,0,-171,27,-171,80v1,39,33,66,77,66xm210,-636v-29,0,-41,30,-41,62r-79,0v0,-91,38,-137,114,-137v42,0,71,30,94,49v12,11,23,16,34,16v29,0,41,-31,41,-62r79,0v0,91,-38,137,-114,137v-42,0,-71,-30,-94,-49v-12,-11,-23,-16,-34,-16","w":560},"\u00e4":{"d":"267,2v-117,35,-234,-34,-234,-149v0,-85,59,-123,120,-147v55,-21,126,-26,199,-26v1,-72,-25,-104,-94,-104v-28,0,-69,7,-68,34r0,27r-118,0r0,-54v4,-88,99,-105,187,-105v147,0,220,68,220,203r0,190v-2,30,35,21,62,22r0,107r-114,0v-49,1,-71,-29,-64,-78v-5,1,-4,7,-7,10v-19,29,-47,58,-89,70xm238,-87v67,0,122,-73,116,-146r-22,0v-114,0,-171,27,-171,80v1,39,33,66,77,66xm317,-593r0,-116r89,0r0,116r-89,0xm138,-593r0,-116r88,0r0,116r-88,0","w":560},"\u00e5":{"d":"267,2v-117,35,-234,-34,-234,-149v0,-85,59,-123,120,-147v55,-21,126,-26,199,-26v1,-72,-25,-104,-94,-104v-28,0,-69,7,-68,34r0,27r-118,0r0,-54v4,-88,99,-105,187,-105v147,0,220,68,220,203r0,190v-2,30,35,21,62,22r0,107r-114,0v-49,1,-71,-29,-64,-78v-5,1,-4,7,-7,10v-19,29,-47,58,-89,70xm238,-87v67,0,122,-73,116,-146r-22,0v-114,0,-171,27,-171,80v1,39,33,66,77,66xm360,-639v0,47,-43,78,-89,78v-47,0,-89,-31,-89,-78v0,-49,42,-79,89,-79v47,0,89,31,89,79xm236,-639v0,20,15,34,35,34v20,0,35,-14,35,-34v1,-21,-15,-35,-35,-35v-20,0,-36,14,-35,35","w":560},"\u00e6":{"d":"208,11v-94,0,-175,-63,-174,-158v1,-79,53,-127,117,-145v68,-20,120,-28,202,-27v2,-73,-26,-105,-95,-105v-29,0,-68,6,-68,34r0,27r-118,0v-1,-54,-2,-92,32,-118v40,-31,88,-40,155,-41v82,0,139,25,170,75r2,0v41,-50,97,-75,170,-75v155,-2,239,127,222,291r-349,0v6,107,116,163,222,121v35,-14,51,-23,71,-43r53,88v-45,41,-117,77,-205,77v-97,0,-169,-37,-214,-112r-2,0v-31,61,-95,111,-191,111xm696,-319v0,-57,-42,-104,-97,-104v-67,0,-109,45,-120,104r217,0xm240,-87v67,0,120,-73,115,-144r-36,0v-105,0,-157,26,-157,78v1,41,32,66,78,66","w":866},"\u00e7":{"d":"248,6v-123,-19,-216,-123,-216,-261v0,-178,161,-305,357,-257v46,11,107,48,107,105r0,60r-112,0r0,-28v0,-28,-43,-40,-73,-40v-88,-2,-151,70,-151,159v0,94,70,157,159,157v53,0,108,-26,151,-69r53,88v-44,49,-118,89,-211,92r-7,32v41,5,72,30,72,76v0,84,-94,99,-169,81r0,-70v28,12,90,14,87,-20v4,-24,-39,-30,-69,-25","w":538},"\u00e8":{"d":"306,12v-157,4,-274,-117,-274,-267v0,-153,107,-267,259,-267v155,0,245,125,223,289r-352,0v6,106,119,166,225,123v35,-14,50,-24,71,-43r53,88v-45,41,-117,75,-205,77xm387,-321v0,-56,-41,-104,-96,-103v-69,0,-112,44,-125,103r221,0xm239,-573r-104,-136r122,0r76,136r-94,0","w":557},"\u00e9":{"d":"306,12v-157,4,-274,-117,-274,-267v0,-153,107,-267,259,-267v155,0,245,125,223,289r-352,0v6,106,119,166,225,123v35,-14,50,-24,71,-43r53,88v-45,41,-117,75,-205,77xm387,-321v0,-56,-41,-104,-96,-103v-69,0,-112,44,-125,103r221,0xm239,-573r76,-136r122,0r-105,136r-93,0","w":557},"\u00ea":{"d":"306,12v-157,4,-274,-117,-274,-267v0,-153,107,-267,259,-267v155,0,245,125,223,289r-352,0v6,106,119,166,225,123v35,-14,50,-24,71,-43r53,88v-45,41,-117,75,-205,77xm387,-321v0,-56,-41,-104,-96,-103v-69,0,-112,44,-125,103r221,0xm142,-573r91,-136r109,0r92,136r-95,0r-50,-81r-2,0r-51,81r-94,0","w":557},"\u00eb":{"d":"306,12v-157,4,-274,-117,-274,-267v0,-153,107,-267,259,-267v155,0,245,125,223,289r-352,0v6,106,119,166,225,123v35,-14,50,-24,71,-43r53,88v-45,41,-117,75,-205,77xm387,-321v0,-56,-41,-104,-96,-103v-69,0,-112,44,-125,103r221,0xm333,-593r0,-116r89,0r0,116r-89,0xm154,-593r0,-116r88,0r0,116r-88,0","w":557},"\u00ec":{"d":"156,0v-48,0,-68,-20,-68,-68r0,-312v2,-30,-35,-21,-62,-22r0,-108r121,0v45,0,68,23,68,68r0,313v-2,30,35,21,61,22r0,107r-120,0xm95,-573r-104,-137r121,0r76,137r-93,0","w":302},"\u00ed":{"d":"156,0v-48,0,-68,-20,-68,-68r0,-312v2,-30,-35,-21,-62,-22r0,-108r121,0v45,0,68,23,68,68r0,313v-2,30,35,21,61,22r0,107r-120,0xm95,-573r76,-137r121,0r-104,137r-93,0","w":302},"\u00ee":{"d":"156,0v-48,0,-68,-20,-68,-68r0,-312v2,-30,-35,-21,-62,-22r0,-108r121,0v45,0,68,23,68,68r0,313v-2,30,35,21,61,22r0,107r-120,0xm-3,-573r92,-137r109,0r92,137r-96,0r-50,-82r-2,0r-50,82r-95,0","w":302},"\u00ef":{"d":"156,0v-48,0,-68,-20,-68,-68r0,-312v2,-30,-35,-21,-62,-22r0,-108r121,0v45,0,68,23,68,68r0,313v-2,30,35,21,61,22r0,107r-120,0xm174,-593r0,-117r89,0r0,117r-89,0xm20,-593r0,-117r88,0r0,117r-88,0","w":302},"\u00f0":{"d":"282,12v-143,3,-244,-113,-244,-249v0,-145,128,-260,288,-221v26,7,34,14,51,22v-19,-43,-51,-78,-94,-106r-185,80r-6,-75r111,-49v-33,-16,-71,-29,-115,-40r35,-100v84,19,156,46,216,83r148,-63r6,74r-88,39v108,96,162,228,129,397v-24,121,-104,205,-252,208xm296,-366v-79,0,-130,58,-130,132v0,74,43,139,119,139v85,0,129,-78,129,-160v1,-66,-49,-111,-118,-111","w":585},"\u00f1":{"d":"356,-406v-95,0,-147,72,-147,172r0,234r-126,0r0,-380v2,-30,-35,-21,-62,-22r0,-108r117,0v60,-2,74,38,65,94r2,0v29,-56,91,-106,180,-106v119,0,178,65,178,194r0,199v-2,30,35,21,62,22r0,107r-121,0v-48,0,-68,-20,-68,-68r0,-234v-1,-65,-17,-104,-80,-104xm267,-636v-29,0,-41,30,-41,62r-79,0v0,-91,38,-137,114,-137v40,0,71,30,93,49v12,11,24,16,35,16v29,0,41,-31,41,-62r79,0v0,91,-38,137,-114,137v-40,0,-71,-30,-93,-49v-12,-11,-24,-16,-35,-16","w":643},"\u00f2":{"d":"311,12v-153,0,-279,-115,-279,-267v0,-153,126,-267,279,-267v153,0,280,115,280,267v0,153,-126,267,-280,267xm311,-414v-84,0,-151,72,-151,159v0,89,66,159,151,159v86,0,152,-70,152,-159v0,-88,-68,-159,-152,-159xm262,-573r-104,-136r122,0r76,136r-94,0","w":623},"\u00f3":{"d":"311,12v-153,0,-279,-115,-279,-267v0,-153,126,-267,279,-267v153,0,280,115,280,267v0,153,-126,267,-280,267xm311,-414v-84,0,-151,72,-151,159v0,89,66,159,151,159v86,0,152,-70,152,-159v0,-88,-68,-159,-152,-159xm263,-573r76,-136r122,0r-105,136r-93,0","w":623},"\u00f4":{"d":"311,12v-153,0,-279,-115,-279,-267v0,-153,126,-267,279,-267v153,0,280,115,280,267v0,153,-126,267,-280,267xm311,-414v-84,0,-151,72,-151,159v0,89,66,159,151,159v86,0,152,-70,152,-159v0,-88,-68,-159,-152,-159xm166,-573r91,-136r109,0r92,136r-95,0r-50,-81r-2,0r-51,81r-94,0","w":623},"\u00f5":{"d":"311,12v-153,0,-279,-115,-279,-267v0,-153,126,-267,279,-267v153,0,280,115,280,267v0,153,-126,267,-280,267xm311,-414v-84,0,-151,72,-151,159v0,89,66,159,151,159v86,0,152,-70,152,-159v0,-88,-68,-159,-152,-159xm250,-636v-29,0,-41,30,-41,62r-79,0v0,-91,38,-137,114,-137v42,0,71,30,94,49v12,11,23,16,34,16v29,0,41,-31,41,-62r79,0v0,91,-38,137,-114,137v-42,0,-71,-30,-94,-49v-12,-11,-23,-16,-34,-16","w":623},"\u00f6":{"d":"311,12v-153,0,-279,-115,-279,-267v0,-153,126,-267,279,-267v153,0,280,115,280,267v0,153,-126,267,-280,267xm311,-414v-84,0,-151,72,-151,159v0,89,66,159,151,159v86,0,152,-70,152,-159v0,-88,-68,-159,-152,-159xm357,-593r0,-116r89,0r0,116r-89,0xm178,-593r0,-116r88,0r0,116r-88,0","w":623},"\u00f7":{"d":"249,-437r0,-108r114,0r0,108r-114,0xm46,-236r0,-99r521,0r0,99r-521,0xm249,-27r0,-108r114,0r0,108r-114,0"},"\u00f8":{"d":"591,-255v0,153,-126,267,-280,267v-46,0,-88,-9,-125,-27r-41,58r-55,-39r38,-53v-64,-52,-96,-121,-96,-206v0,-153,126,-267,279,-267v48,0,93,11,134,32r41,-57r55,38r-40,55v60,53,90,119,90,199xm378,-398v-106,-53,-218,32,-218,143v0,42,13,78,39,108xm253,-108v107,44,210,-38,210,-147v0,-39,-11,-71,-34,-98","w":623},"\u00f9":{"d":"433,-94v-25,56,-93,106,-176,106v-117,0,-176,-65,-176,-194r0,-198v2,-30,-35,-21,-62,-22r0,-108r121,0v47,0,67,20,67,67r0,235v1,64,17,104,79,104v90,2,143,-81,143,-172r0,-234r127,0r0,381v-2,30,35,21,62,22r0,107r-117,0v-60,2,-73,-36,-66,-94r-2,0xm264,-573r-104,-136r122,0r76,136r-94,0","w":638},"\u00fa":{"d":"433,-94v-25,56,-93,106,-176,106v-117,0,-176,-65,-176,-194r0,-198v2,-30,-35,-21,-62,-22r0,-108r121,0v47,0,67,20,67,67r0,235v1,64,17,104,79,104v90,2,143,-81,143,-172r0,-234r127,0r0,381v-2,30,35,21,62,22r0,107r-117,0v-60,2,-73,-36,-66,-94r-2,0xm264,-573r76,-136r122,0r-105,136r-93,0","w":638},"\u00fb":{"d":"433,-94v-25,56,-93,106,-176,106v-117,0,-176,-65,-176,-194r0,-198v2,-30,-35,-21,-62,-22r0,-108r121,0v47,0,67,20,67,67r0,235v1,64,17,104,79,104v90,2,143,-81,143,-172r0,-234r127,0r0,381v-2,30,35,21,62,22r0,107r-117,0v-60,2,-73,-36,-66,-94r-2,0xm167,-573r91,-136r109,0r92,136r-95,0r-50,-81r-2,0r-51,81r-94,0","w":638},"\u00fc":{"d":"433,-94v-25,56,-93,106,-176,106v-117,0,-176,-65,-176,-194r0,-198v2,-30,-35,-21,-62,-22r0,-108r121,0v47,0,67,20,67,67r0,235v1,64,17,104,79,104v90,2,143,-81,143,-172r0,-234r127,0r0,381v-2,30,35,21,62,22r0,107r-117,0v-60,2,-73,-36,-66,-94r-2,0xm359,-593r0,-116r89,0r0,116r-89,0xm180,-593r0,-116r88,0r0,116r-88,0","w":638},"\u00fd":{"d":"50,68v49,56,131,45,157,-30r17,-39r-170,-383v-6,-17,-20,-19,-42,-18r0,-108v43,2,100,-8,126,11v10,7,18,20,25,37r100,255r18,68r2,0v5,-28,11,-51,17,-68r87,-255v11,-32,33,-48,68,-48r86,0r0,108v-22,-1,-38,1,-44,18r-183,461v-29,77,-91,131,-184,133v-51,0,-95,-18,-129,-52xm230,-573r76,-136r122,0r-105,136r-93,0","w":553},"\u00fe":{"d":"586,-255v0,146,-88,267,-230,267v-67,0,-126,-28,-149,-68r-2,0v5,79,1,173,2,256r-127,0r0,-780v2,-30,-35,-21,-62,-22r0,-108r121,0v48,0,68,21,68,68r0,145r-2,44r2,0v32,-46,82,-69,149,-69v142,-2,230,120,230,267xm333,-414v-87,1,-130,60,-130,159v0,99,44,157,130,159v79,2,125,-75,125,-159v0,-85,-46,-160,-125,-159","w":618},"\u00ff":{"d":"50,68v49,56,131,45,157,-30r17,-39r-170,-383v-6,-17,-20,-19,-42,-18r0,-108v43,2,100,-8,126,11v10,7,18,20,25,37r100,255r18,68r2,0v5,-28,11,-51,17,-68r87,-255v11,-32,33,-48,68,-48r86,0r0,108v-22,-1,-38,1,-44,18r-183,461v-29,77,-91,131,-184,133v-51,0,-95,-18,-129,-52xm324,-593r0,-116r89,0r0,116r-89,0xm145,-593r0,-116r88,0r0,116r-88,0","w":553},"\u0152":{"d":"386,9v-196,0,-356,-168,-356,-365v0,-198,160,-362,356,-362v35,0,114,8,145,8r303,0v48,0,68,21,68,68r0,108r-118,0v-2,-27,9,-65,-22,-65r-157,0r0,186r227,0r0,111r-227,0r0,191r183,0v31,2,20,-38,22,-65r118,0r0,108v0,47,-18,68,-65,68r-332,0v-30,0,-111,9,-145,9xm386,-597v-129,-2,-220,109,-220,241v0,133,91,245,220,243v40,0,69,-2,88,-7r0,-469v-23,-5,-53,-8,-88,-8","w":950},"\u0153":{"d":"311,12v-154,0,-279,-111,-279,-266v0,-154,125,-268,278,-268v92,0,164,35,215,105r2,0v44,-70,111,-105,201,-105v156,0,244,125,223,289r-352,0v9,81,68,136,153,137v51,0,102,-20,144,-57r52,88v-45,41,-117,77,-205,77v-95,0,-166,-36,-213,-108r-2,0v-52,72,-124,108,-217,108xm824,-321v-1,-57,-39,-103,-96,-103v-69,0,-112,44,-125,103r221,0xm311,-414v-85,0,-151,71,-151,160v0,90,66,158,151,158v86,0,152,-69,152,-159v0,-90,-67,-159,-152,-159","w":994},"\u0178":{"d":"242,0r0,-310r-168,-265v-13,-18,-15,-23,-41,-24r-23,0r0,-111v41,1,96,-4,122,10v13,7,25,21,38,42r94,156r43,80r2,0v39,-80,91,-160,136,-236v24,-40,37,-52,93,-52r67,0r0,111v-16,0,-38,-1,-47,5v-5,3,-10,9,-17,19r-168,265r0,310r-131,0xm354,-777r0,-116r89,0r0,116r-89,0xm175,-777r0,-116r88,0r0,116r-88,0","w":615},"\u02c6":{"d":"105,-757r91,-136r109,0r92,136r-95,0r-50,-81r-2,0r-51,81r-94,0","w":501},"\u02dc":{"d":"216,-820v-29,0,-41,30,-41,62r-79,0v0,-91,38,-137,114,-137v42,0,71,30,94,49v12,11,23,16,34,16v29,0,41,-31,41,-62r79,0v0,91,-38,137,-114,137v-42,0,-71,-30,-94,-49v-12,-11,-23,-16,-34,-16","w":548},"\u2013":{"d":"55,-236r0,-99r553,0r0,99r-553,0","w":663},"\u2014":{"d":"55,-236r0,-99r753,0r0,99r-753,0","w":863},"\u2018":{"d":"42,-504r75,-218r86,0r-47,218r-114,0","w":245},"\u2019":{"d":"42,-504r47,-219r114,0r-75,219r-86,0","w":245},"\u201a":{"d":"89,-129r114,0r-75,218r-86,0","w":245},"\u201c":{"d":"202,-504r74,-218r86,0r-47,218r-113,0xm42,-504r75,-218r86,0r-47,218r-114,0","w":404},"\u201d":{"d":"202,-504r47,-219r113,0r-74,219r-86,0xm42,-504r47,-219r114,0r-75,219r-86,0","w":404},"\u201e":{"d":"202,89r47,-218r113,0r-74,218r-86,0xm89,-129r114,0r-75,218r-86,0","w":404},"\u2022":{"d":"401,-291v0,90,-76,167,-167,167v-89,0,-167,-78,-167,-167v0,-89,78,-167,167,-167v91,0,167,77,167,167","w":469},"\u2026":{"d":"720,0r0,-127r123,0r0,127r-123,0xm435,0r0,-127r123,0r0,127r-123,0xm151,0r0,-127r122,0r0,127r-122,0","w":993},"\u2039":{"d":"210,-77r-164,-205r164,-206r121,0r-164,206r164,205r-121,0","w":392},"\u203a":{"d":"58,-77r164,-205r-164,-206r121,0r164,206r-164,205r-121,0","w":392},"\u20ac":{"d":"455,12v-177,1,-306,-115,-342,-262r-75,0r0,-76r62,0v-3,-23,-1,-40,0,-62r-62,0r0,-77r75,0v44,-167,226,-300,441,-244r-31,117v-69,-20,-144,-10,-195,26v-35,24,-61,58,-77,101r249,0r-16,77r-251,0v-3,21,-1,42,1,62r238,0r-15,76r-200,0v27,78,101,140,200,140v35,0,67,-5,96,-15r23,118v-35,13,-75,19,-121,19","w":612},"\u2122":{"d":"427,-267r0,-83v13,-1,31,5,32,-9r28,-351r89,0r91,209r14,42r2,0v4,-17,8,-31,13,-42r92,-209r88,0r28,351v2,14,19,8,33,9r0,83v-36,-2,-91,6,-113,-9v-7,-6,-12,-17,-13,-36r-13,-183r1,-31r-2,0r-78,178r-75,0r-78,-178r-2,0v2,74,-8,142,-12,214v-2,37,-11,44,-50,45r-75,0xm378,-710v36,1,46,9,47,45r0,76r-80,0v-2,-12,6,-37,-7,-37r-60,0r0,359r-96,0r0,-359r-58,0v-14,1,-6,24,-8,37r-82,0r0,-76v1,-36,11,-44,48,-45r296,0","w":991}}});
